{"learner":{"attributes":{"best_iteration":"199","best_score":"4.266854025022582"},"feature_names":[],"feature_types":[],"gradient_booster":{"model":{"cats":{"enc":[],"feature_segments":[],"sorted_idx":[]},"gbtree_model_param":{"num_parallel_tree":"1","num_trees":"200"},"iteration_indptr":[0,1,2,3,4,5,6,7,8,9,10,11,12,13,14,15,16,17,18,19,20,21,22,23,24,25,26,27,28,29,30,31,32,33,34,35,36,37,38,39,40,41,42,43,44,45,46,47,48,49,50,51,52,53,54,55,56,57,58,59,60,61,62,63,64,65,66,67,68,69,70,71,72,73,74,75,76,77,78,79,80,81,82,83,84,85,86,87,88,89,90,91,92,93,94,95,96,97,98,99,100,101,102,103,104,105,106,107,108,109,110,111,112,113,114,115,116,117,118,119,120,121,122,123,124,125,126,127,128,129,130,131,132,133,134,135,136,137,138,139,140,141,142,143,144,145,146,147,148,149,150,151,152,153,154,155,156,157,158,159,160,161,162,163,164,165,166,167,168,169,170,171,172,173,174,175,176,177,178,179,180,181,182,183,184,185,186,187,188,189,190,191,192,193,194,195,196,197,198,199,200],"tree_info":[0,0,0,0,0,0,0,0,0,0,0,0,0,0,0,0,0,0,0,0,0,0,0,0,0,0,0,0,0,0,0,0,0,0,0,0,0,0,0,0,0,0,0,0,0,0,0,0,0,0,0,0,0,0,0,0,0,0,0,0,0,0,0,0,0,0,0,0,0,0,0,0,0,0,0,0,0,0,0,0,0,0,0,0,0,0,0,0,0,0,0,0,0,0,0,0,0,0,0,0,0,0,0,0,0,0,0,0,0,0,0,0,0,0,0,0,0,0,0,0,0,0,0,0,0,0,0,0,0,0,0,0,0,0,0,0,0,0,0,0,0,0,0,0,0,0,0,0,0,0,0,0,0,0,0,0,0,0,0,0,0,0,0,0,0,0,0,0,0,0,0,0,0,0,0,0,0,0,0,0,0,0,0,0,0,0,0,0,0,0,0,0,0,0,0,0,0,0,0,0],"trees":[{"base_weights":[-3.112822E-2,-6.9767594E0,1.4692798E2,-1.2288585E1,2.8895262E1,1.2262425E2,4.045013E2,-1.4265624E1,2.3393003E1,1.8877901E1,4.8474957E1,9.7204735E1,1.8561928E2,3.8874396E2,5.525559E2,-1.688115E1,-7.692583E0,1.91391E1,5.8350178E1,1.2873557E1,3.730797E1,4.176578E1,6.475384E1,8.321517E1,1.18590675E2,1.6546402E2,2.2612494E2,4.7190955E2,3.6253784E2,6.208253E2,5.29487E2,-1.8144882E1,-1.0109867E1,-1.0338722E1,-3.0224748E0,1.6097445E1,2.8792456E1,5.074325E1,9.88181E1,7.759237E0,1.9996468E1,3.3772854E1,7.246188E1,3.4931583E1,5.1709652E1,6.2579666E1,1.10140854E2,7.575022E1,9.8771935E1,1.1071681E2,1.3400598E2,1.53631E2,1.8183914E2,2.1738498E2,2.4246523E2,3.4300403E2,6.190698E2,3.8872015E2,3.218207E2,5.060014E1,7.0456635E2,5.591422E2,4.895114E1,-1.5969642E0,-2.0869083E0,-1.1909355E0,-4.280257E-1,-1.1496694E0,-5.359878E-1,-6.466124E-2,-5.230132E-1,1.5017414E0,1.971082E0,2.5647457E0,3.347583E0,4.4846053E0,6.2243047E0,8.702991E0,1.3030795E1,5.096671E-1,1.5902847E0,1.8056555E0,2.8075743E0,2.9446232E0,3.9961724E0,6.3761735E0,1.0746825E1,3.3080354E0,4.3875065E0,4.9736724E0,6.1333714E0,5.6975045E0,7.3938327E0,9.821491E0,1.4159953E1,6.860601E0,8.432364E0,9.628743E0,1.4013634E1,1.0370642E1,1.2434062E1,1.3127289E1,1.784581E1,1.4538466E1,1.6931498E1,1.7346725E1,1.979993E1,2.1291855E1,2.3678314E1,2.389137E1,2.830045E1,3.9193874E1,3.323105E1,4.9527397E1,6.799181E1,6.2261543E1,3.817912E1,3.048535E1,3.627235E1,5.5684E1,7.4660904E1,5.2293434E1,7.182168E1],"categories":[],"categories_nodes":[],"categories_segments":[],"categories_sizes":[],"default_left":[0,0,0,0,0,0,0,0,0,0,0,0,0,0,0,0,0,0,0,0,0,0,0,0,0,0,0,0,0,0,0,0,0,0,0,0,0,0,0,0,0,0,0,0,0,0,0,0,0,0,0,0,0,0,0,0,0,0,0,0,0,0,0,0,0,0,0,0,0,0,0,0,0,0,0,0,0,0,0,0,0,0,0,0,0,0,0,0,0,0,0,0,0,0,0,0,0,0,0,0,0,0,0,0,0,0,0,0,0,0,0,0,0,0,0,0,0,0,0,0,0,0,0],"id":0,"left_children":[1,3,5,7,9,11,13,15,17,19,21,23,25,27,29,31,33,35,37,39,41,43,45,47,49,51,53,55,57,59,61,63,65,67,69,71,73,75,77,79,81,83,85,87,89,91,93,95,97,99,101,103,105,107,109,111,113,115,117,-1,119,121,-1,-1,-1,-1,-1,-1,-1,-1,-1,-1,-1,-1,-1,-1,-1,-1,-1,-1,-1,-1,-1,-1,-1,-1,-1,-1,-1,-1,-1,-1,-1,-1,-1,-1,-1,-1,-1,-1,-1,-1,-1,-1,-1,-1,-1,-1,-1,-1,-1,-1,-1,-1,-1,-1,-1,-1,-1,-1,-1,-1,-1],"loss_changes":[1.3864879E9,2.471454E8,3.8369408E8,7.969718E7,3.2810816E7,8.968211E7,1.2114816E7,1.8402784E7,8.818684E6,1.224642E7,6.1812E6,1.1931584E7,1.3109888E7,1.0246528E7,4.68048E5,6.552304E6,3.7654E6,1.552146E6,1.975592E6,3.040811E6,3.377148E6,2.723176E6,1.62356E6,2.795088E6,1.900736E6,2.056384E6,7.11008E5,2.145104E7,3.754272E6,8.16456E5,1.826E5,3.823584E6,1.263359E6,1.12128E6,5.780363E5,1.56626E5,1.85726E5,3.64629E5,3.66156E5,1.0535105E6,5.46275E5,6.60528E5,7.4966E5,3.92054E5,3.07024E5,9.99708E5,2.6895E5,9.93312E5,7.90344E5,9.85336E5,6.24208E5,7.83824E5,5.75376E5,2.52256E5,1.99424E5,1.89408E5,3.670576E6,3.343808E6,8.81776E5,0E0,6.46E3,8.56876E5,0E0,0E0,0E0,0E0,0E0,0E0,0E0,0E0,0E0,0E0,0E0,0E0,0E0,0E0,0E0,0E0,0E0,0E0,0E0,0E0,0E0,0E0,0E0,0E0,0E0,0E0,0E0,0E0,0E0,0E0,0E0,0E0,0E0,0E0,0E0,0E0,0E0,0E0,0E0,0E0,0E0,0E0,0E0,0E0,0E0,0E0,0E0,0E0,0E0,0E0,0E0,0E0,0E0,0E0,0E0,0E0,0E0,0E0,0E0,0E0,0E0],"parents":[2147483647,0,0,1,1,2,2,3,3,4,4,5,5,6,6,7,7,8,8,9,9,10,10,11,11,12,12,13,13,14,14,15,15,16,16,17,17,18,18,19,19,20,20,21,21,22,22,23,23,24,24,25,25,26,26,27,27,28,28,29,29,30,30,31,31,32,32,33,33,34,34,35,35,36,36,37,37,38,38,39,39,40,40,41,41,42,42,43,43,44,44,45,45,46,46,47,47,48,48,49,49,50,50,51,51,52,52,53,53,54,54,55,55,56,56,57,57,58,58,60,60,61,61],"right_children":[2,4,6,8,10,12,14,16,18,20,22,24,26,28,30,32,34,36,38,40,42,44,46,48,50,52,54,56,58,60,62,64,66,68,70,72,74,76,78,80,82,84,86,88,90,92,94,96,98,100,102,104,106,108,110,112,114,116,118,-1,120,122,-1,-1,-1,-1,-1,-1,-1,-1,-1,-1,-1,-1,-1,-1,-1,-1,-1,-1,-1,-1,-1,-1,-1,-1,-1,-1,-1,-1,-1,-1,-1,-1,-1,-1,-1,-1,-1,-1,-1,-1,-1,-1,-1,-1,-1,-1,-1,-1,-1,-1,-1,-1,-1,-1,-1,-1,-1,-1,-1,-1,-1],"split_conditions":[1.5670669E0,2.2896107E-1,6.3120813E0,-1.0123707E-1,8.300599E-1,3.378719E0,1.6744196E1,-2.2787407E-1,2.8384912E0,-2.774387E-2,-2.774387E-2,2.416961E0,4.749224E0,-5.7989734E-1,-2.5148425E-1,4.7518232E-1,-5.956639E-2,1.6625999E0,5.4842467E0,4.9344456E-1,2.9854777E0,1.2147632E0,5.704726E0,-2.774387E-2,-2.774387E-2,4.0731673E0,-2.774387E-2,-1.6593928E0,4.88307E0,-1.4590032E0,1.5645531E-1,3.7199518E-1,1.4551553E0,3.6629647E-1,3.880606E-1,1.2951338E0,2.1770523E0,3.9408894E0,7.836029E0,-1.5150891E-1,8.7247324E-1,5.174885E-1,5.263767E0,1.555128E0,2.2804487E0,1.286895E0,7.836029E0,2.0082138E0,4.1773024E0,2.969972E0,4.1773024E0,-2.774387E-2,-2.774387E-2,9.149662E0,3.8506446E0,1.328592E0,1.5645531E-1,-1.0156814E0,1.3330923E1,5.060014E1,-1.0156814E0,1.2443975E0,4.895114E1,-1.5969642E0,-2.0869083E0,-1.1909355E0,-4.280257E-1,-1.1496694E0,-5.359878E-1,-6.466124E-2,-5.230132E-1,1.5017414E0,1.971082E0,2.5647457E0,3.347583E0,4.4846053E0,6.2243047E0,8.702991E0,1.3030795E1,5.096671E-1,1.5902847E0,1.8056555E0,2.8075743E0,2.9446232E0,3.9961724E0,6.3761735E0,1.0746825E1,3.3080354E0,4.3875065E0,4.9736724E0,6.1333714E0,5.6975045E0,7.3938327E0,9.821491E0,1.4159953E1,6.860601E0,8.432364E0,9.628743E0,1.4013634E1,1.0370642E1,1.2434062E1,1.3127289E1,1.784581E1,1.4538466E1,1.6931498E1,1.7346725E1,1.979993E1,2.1291855E1,2.3678314E1,2.389137E1,2.830045E1,3.9193874E1,3.323105E1,4.9527397E1,6.799181E1,6.2261543E1,3.817912E1,3.048535E1,3.627235E1,5.5684E1,7.4660904E1,5.2293434E1,7.182168E1],"split_indices":[178,148,148,163,148,148,165,148,163,163,163,148,148,147,147,149,148,163,163,148,163,148,163,163,163,178,163,150,165,147,174,181,149,149,181,163,163,163,163,165,165,148,163,165,165,148,163,148,149,148,149,163,163,165,149,174,174,174,165,0,174,147,0,0,0,0,0,0,0,0,0,0,0,0,0,0,0,0,0,0,0,0,0,0,0,0,0,0,0,0,0,0,0,0,0,0,0,0,0,0,0,0,0,0,0,0,0,0,0,0,0,0,0,0,0,0,0,0,0,0,0,0,0],"split_type":[0,0,0,0,0,0,0,0,0,0,0,0,0,0,0,0,0,0,0,0,0,0,0,0,0,0,0,0,0,0,0,0,0,0,0,0,0,0,0,0,0,0,0,0,0,0,0,0,0,0,0,0,0,0,0,0,0,0,0,0,0,0,0,0,0,0,0,0,0,0,0,0,0,0,0,0,0,0,0,0,0,0,0,0,0,0,0,0,0,0,0,0,0,0,0,0,0,0,0,0,0,0,0,0,0,0,0,0,0,0,0,0,0,0,0,0,0,0,0,0,0,0,0],"sum_hessian":[1.358336E6,1.297036E6,6.13E4,1.129747E6,1.67289E5,5.6016E4,5.284E3,1.070437E6,5.931E4,1.1067E5,5.6619E4,3.9913E4,1.6103E4,4.779E3,5.05E2,7.65736E5,3.04701E5,5.2877E4,6.433E3,8.3476E4,2.7194E4,4.0097E4,1.6522E4,2.4132E4,1.5781E4,1.0756E4,5.347E3,1.141E3,3.638E3,1.21E2,3.84E2,6.45301E5,1.20435E5,1.94496E5,1.10205E5,4.021E4,1.2667E4,5.417E3,1.016E3,4.859E4,3.4886E4,2.4711E4,2.483E3,2.3767E4,1.633E4,1.5769E4,7.53E2,1.6311E4,7.821E3,1.0451E4,5.33E3,6.25E3,4.506E3,3.493E3,1.854E3,6.1E2,5.31E2,2.209E3,1.429E3,5.4E1,6.7E1,2.13E2,1.71E2,3.58806E5,2.86495E5,9.2027E4,2.8408E4,1.57795E5,3.6701E4,5.3081E4,5.7124E4,3.0961E4,9.249E3,7.582E3,5.085E3,3.584E3,1.833E3,7.42E2,2.74E2,3.6619E4,1.1971E4,2.8134E4,6.752E3,1.4547E4,1.0164E4,1.991E3,4.92E2,1.9695E4,4.072E3,1.3557E4,2.773E3,1.0563E4,5.206E3,5.49E2,2.04E2,8.902E3,7.409E3,7.381E3,4.4E2,6.906E3,3.545E3,5.025E3,3.05E2,4.103E3,2.147E3,2.976E3,1.53E3,2.849E3,6.44E2,1.711E3,1.43E2,1.03E2,5.07E2,1.78E2,3.53E2,6.1E1,2.148E3,1.016E3,4.13E2,1.8E1,4.9E1,1.77E2,3.6E1],"tree_param":{"num_deleted":"0","num_feature":"197","num_nodes":"123","size_leaf_vector":"1"}},{"base_weights":[2.3541145E-2,-5.948167E0,1.396501E2,-1.081357E1,2.9039091E1,1.16255585E2,3.7126694E2,2.1009502E1,-1.2157185E1,1.959329E1,4.8134415E1,9.236884E1,1.7118674E2,3.553732E2,4.8653217E2,1.9513672E1,5.7542786E1,-1.4395032E1,-1.4371707E0,1.8177147E1,5.064812E1,4.1794804E1,5.828919E1,8.171476E1,1.1410877E2,1.5297496E2,2.0820665E2,4.354299E2,3.4132117E2,3.2079932E2,6.079437E2,1.859021E1,2.9457367E1,5.0022068E1,8.850136E1,-1.57830715E1,-9.51024E0,-4.115674E0,1.9746424E1,1.3422406E1,2.5771389E1,4.4857468E1,8.692808E1,4.0257614E1,7.822077E1,5.627011E1,8.876195E1,7.444375E1,9.066158E1,1.07312996E2,1.2326875E2,1.4051833E2,1.6529588E2,2.0556766E2,2.4166583E2,3.407248E2,6.22887E2,3.783297E2,3.0554007E2,2.764507E2,4.1878992E2,5.167124E2,6.8533844E1,1.6806453E0,2.1010635E0,2.7308688E0,3.927478E0,4.5255847E0,6.1101465E0,7.8900957E0,1.0268055E1,-1.8616368E0,-1.3428277E0,-1.122573E0,-4.8611617E-1,-6.0690695E-1,-1.1112751E-1,1.8559827E0,5.0030212E0,9.354348E-1,2.0074909E0,2.4116848E0,3.6337993E0,3.9171948E0,5.415016E0,7.709672E0,1.07615E1,3.8300405E0,4.8579764E0,7.119642E0,1.0929914E1,5.264976E0,6.0763125E0,8.205625E0,1.2460835E1,7.249711E0,1.0721356E1,8.869522E0,1.2277083E1,1.0520712E1,1.3303327E1,1.2126048E1,1.5980956E1,1.3848369E1,1.7685999E1,1.6298475E1,1.9824997E1,2.043769E1,2.275877E1,2.3441229E1,2.8067722E1,5.531598E1,3.1189585E1,2.9520893E1,6.823202E1,3.3209133E1,5.628907E1,3.216464E1,2.8241507E1,2.454693E1,2.979213E1,4.41445E1,3.2874744E1,5.6428066E1,4.6648434E1],"categories":[],"categories_nodes":[],"categories_segments":[],"categories_sizes":[],"default_left":[0,0,0,0,0,0,0,0,0,0,0,0,0,0,0,0,0,0,0,0,0,0,0,0,0,0,0,0,0,0,0,0,0,0,0,0,0,0,0,0,0,0,0,0,0,0,0,0,0,0,0,0,0,0,0,0,0,0,0,0,0,0,0,0,0,0,0,0,0,0,0,0,0,0,0,0,0,0,0,0,0,0,0,0,0,0,0,0,0,0,0,0,0,0,0,0,0,0,0,0,0,0,0,0,0,0,0,0,0,0,0,0,0,0,0,0,0,0,0,0,0,0,0,0,0],"id":1,"left_children":[1,3,5,7,9,11,13,15,17,19,21,23,25,27,29,31,33,35,37,39,41,43,45,47,49,51,53,55,57,59,61,63,65,67,69,71,73,75,77,79,81,83,85,87,89,91,93,95,97,99,101,103,105,107,109,111,113,115,117,119,121,123,-1,-1,-1,-1,-1,-1,-1,-1,-1,-1,-1,-1,-1,-1,-1,-1,-1,-1,-1,-1,-1,-1,-1,-1,-1,-1,-1,-1,-1,-1,-1,-1,-1,-1,-1,-1,-1,-1,-1,-1,-1,-1,-1,-1,-1,-1,-1,-1,-1,-1,-1,-1,-1,-1,-1,-1,-1,-1,-1,-1,-1,-1,-1],"loss_changes":[1.1333632E9,2.2189306E8,3.0204173E8,4.8931256E7,2.870304E7,6.6426304E7,9.19584E6,2.53233E6,2.634104E7,4.681556E6,3.38812E6,8.165184E6,1.0313696E7,4.91136E6,1.2220096E7,4.08424E5,4.200095E5,6.15896E6,1.0759749E7,3.676628E6,9.7151E5,1.8126E6,1.240296E6,1.534272E6,7.09152E5,1.555888E6,3.968E5,1.1646768E7,4.957344E6,1.027088E6,2.152344E6,1.75605E5,7.872125E4,7.47975E4,4.0205E4,4.719248E6,1.603074E6,9.87972E5,7.6397E5,1.694615E6,6.8457E5,2.09522E5,1.21442E5,5.04972E5,2.786165E5,3.05604E5,2.91666E5,8.26208E5,6.59368E5,3.47256E5,3.42816E5,3.5428E5,3.61168E5,7.6512E4,3.7154E4,2.558816E6,4.141384E6,1.5848E7,6.36528E5,4.921E4,1.7992E4,1.3568E5,0E0,0E0,0E0,0E0,0E0,0E0,0E0,0E0,0E0,0E0,0E0,0E0,0E0,0E0,0E0,0E0,0E0,0E0,0E0,0E0,0E0,0E0,0E0,0E0,0E0,0E0,0E0,0E0,0E0,0E0,0E0,0E0,0E0,0E0,0E0,0E0,0E0,0E0,0E0,0E0,0E0,0E0,0E0,0E0,0E0,0E0,0E0,0E0,0E0,0E0,0E0,0E0,0E0,0E0,0E0,0E0,0E0,0E0,0E0,0E0,0E0,0E0,0E0],"parents":[2147483647,0,0,1,1,2,2,3,3,4,4,5,5,6,6,7,7,8,8,9,9,10,10,11,11,12,12,13,13,14,14,15,15,16,16,17,17,18,18,19,19,20,20,21,21,22,22,23,23,24,24,25,25,26,26,27,27,28,28,29,29,30,30,31,31,32,32,33,33,34,34,35,35,36,36,37,37,38,38,39,39,40,40,41,41,42,42,43,43,44,44,45,45,46,46,47,47,48,48,49,49,50,50,51,51,52,52,53,53,54,54,55,55,56,56,57,57,58,58,59,59,60,60,61,61],"right_children":[2,4,6,8,10,12,14,16,18,20,22,24,26,28,30,32,34,36,38,40,42,44,46,48,50,52,54,56,58,60,62,64,66,68,70,72,74,76,78,80,82,84,86,88,90,92,94,96,98,100,102,104,106,108,110,112,114,116,118,120,122,124,-1,-1,-1,-1,-1,-1,-1,-1,-1,-1,-1,-1,-1,-1,-1,-1,-1,-1,-1,-1,-1,-1,-1,-1,-1,-1,-1,-1,-1,-1,-1,-1,-1,-1,-1,-1,-1,-1,-1,-1,-1,-1,-1,-1,-1,-1,-1,-1,-1,-1,-1,-1,-1,-1,-1,-1,-1,-1,-1,-1,-1,-1,-1],"split_conditions":[1.7189518E0,2.7704898E-1,6.604582E0,-1.396668E-1,9.2623574E-1,3.490942E0,1.4048996E0,6.137248E0,-1.3169825E-1,2.2173564E0,1.2632972E0,2.6574004E0,4.959162E0,-6.119377E-1,-1.3568748E0,3.9595304E0,9.839368E0,2.574106E-1,-9.918862E-2,5.8962035E-1,5.8105903E0,2.544014E0,1.9995847E0,2.2005653E0,3.0606015E0,4.0731673E0,2.2173564E0,-1.5700531E0,-3.725181E-1,-1.6532476E0,-9.4836086E-1,7.8627723E-1,-1.3169825E-1,7.988308E0,1.2125971E1,-3.240499E-1,1.1284976E0,3.6609426E-2,4.1773024E0,-9.918862E-2,1.0746783E0,3.415101E0,8.314965E0,4.7518232E-1,5.8105903E0,1.5754225E0,5.5928187E0,2.3262422E0,2.3262422E0,1.8906988E0,2.4351282E0,2.3262422E0,2.2173564E0,6.3120813E0,5.919476E0,6.7992735E-1,-1.5979683E0,8.1786096E-1,4.3071818E-1,-2.2059429E0,1.8724242E0,1.8106369E0,6.8533844E1,1.6806453E0,2.1010635E0,2.7308688E0,3.927478E0,4.5255847E0,6.1101465E0,7.8900957E0,1.0268055E1,-1.8616368E0,-1.3428277E0,-1.122573E0,-4.8611617E-1,-6.0690695E-1,-1.1112751E-1,1.8559827E0,5.0030212E0,9.354348E-1,2.0074909E0,2.4116848E0,3.6337993E0,3.9171948E0,5.415016E0,7.709672E0,1.07615E1,3.8300405E0,4.8579764E0,7.119642E0,1.0929914E1,5.264976E0,6.0763125E0,8.205625E0,1.2460835E1,7.249711E0,1.0721356E1,8.869522E0,1.2277083E1,1.0520712E1,1.3303327E1,1.2126048E1,1.5980956E1,1.3848369E1,1.7685999E1,1.6298475E1,1.9824997E1,2.043769E1,2.275877E1,2.3441229E1,2.8067722E1,5.531598E1,3.1189585E1,2.9520893E1,6.823202E1,3.3209133E1,5.628907E1,3.216464E1,2.8241507E1,2.454693E1,2.979213E1,4.41445E1,3.2874744E1,5.6428066E1,4.6648434E1],"split_indices":[178,148,178,161,148,178,146,149,148,149,178,148,178,147,147,149,149,149,161,148,149,149,149,148,178,178,149,151,146,147,147,158,148,149,149,148,149,148,149,161,161,149,149,149,149,148,149,149,149,149,149,149,149,148,149,146,146,147,146,147,146,146,0,0,0,0,0,0,0,0,0,0,0,0,0,0,0,0,0,0,0,0,0,0,0,0,0,0,0,0,0,0,0,0,0,0,0,0,0,0,0,0,0,0,0,0,0,0,0,0,0,0,0,0,0,0,0,0,0,0,0,0,0,0,0],"split_type":[0,0,0,0,0,0,0,0,0,0,0,0,0,0,0,0,0,0,0,0,0,0,0,0,0,0,0,0,0,0,0,0,0,0,0,0,0,0,0,0,0,0,0,0,0,0,0,0,0,0,0,0,0,0,0,0,0,0,0,0,0,0,0,0,0,0,0,0,0,0,0,0,0,0,0,0,0,0,0,0,0,0,0,0,0,0,0,0,0,0,0,0,0,0,0,0,0,0,0,0,0,0,0,0,0,0,0,0,0,0,0,0,0,0,0,0,0,0,0,0,0,0,0,0,0],"sum_hessian":[1.359258E6,1.303509E6,5.5749E4,1.144371E6,1.59138E5,5.0636E4,5.113E3,4.6359E4,1.098012E6,1.06472E5,5.2666E4,3.5292E4,1.5344E4,4.497E3,6.16E2,4.4537E4,1.822E3,9.08383E5,1.89629E5,1.0183E5,4.642E3,3.2427E4,2.0239E4,2.3688E4,1.1604E4,1.0288E4,5.056E3,6.67E2,3.83E3,2.62E2,3.54E2,4.0755E4,3.782E3,1.468E3,3.54E2,7.07376E5,2.01007E5,1.68344E5,2.1285E4,6.2624E4,3.9206E4,4.005E3,6.37E2,3.1116E4,1.311E3,1.8984E4,1.255E3,1.3073E4,1.0615E4,6.669E3,4.935E3,5.122E3,5.166E3,4.693E3,3.63E2,4.45E2,2.22E2,1.878E3,1.952E3,1.83E2,7.9E1,1.66E2,1.88E2,2.3468E4,1.7287E4,3.106E3,6.76E2,1.03E3,4.38E2,2.15E2,1.39E2,3.21064E5,3.86312E5,1.46827E5,5.418E4,1.02015E5,6.6329E4,2.0484E4,8.01E2,3.8862E4,2.3762E4,3.3901E4,5.305E3,2.488E3,1.517E3,4.35E2,2.02E2,2.5196E4,5.92E3,1.072E3,2.39E2,1.052E4,8.464E3,1.06E3,1.95E2,1.2343E4,7.3E2,1.0006E4,6.09E2,6.169E3,5E2,4.682E3,2.53E2,4.855E3,2.67E2,4.833E3,3.33E2,4.462E3,2.31E2,3.12E2,5.1E1,5.1E1,3.94E2,3.5E1,1.87E2,1.504E3,3.74E2,1.143E3,8.09E2,8E1,1.03E2,6E1,1.9E1,8E1,8.6E1],"tree_param":{"num_deleted":"0","num_feature":"197","num_nodes":"125","size_leaf_vector":"1"}},{"base_weights":[2.017817E-3,-5.2739844E0,1.27438194E2,-9.531236E0,2.7988329E1,1.0612655E2,3.329149E2,-1.1276866E1,1.9419636E1,1.9582535E1,4.5610855E1,8.4391396E1,1.5371521E2,3.1939648E2,4.5282123E2,-1.3224269E1,-3.9455094E0,1.6087843E1,5.2140884E1,1.4218032E1,3.4989132E1,3.9622715E1,5.966409E1,7.462408E1,1.0266295E2,1.3597862E2,1.8446997E2,2.7957245E2,3.623617E2,4.3915073E2,5.34224E2,-1.4159849E1,-7.1803846E0,-6.020331E0,6.619493E-1,1.3534446E1,2.5578646E1,4.5873207E1,9.156528E1,9.767147E0,2.1092375E1,3.266675E1,7.254925E1,3.370404E1,4.748987E1,5.7325367E1,9.32692E1,6.8079506E1,8.8097755E1,9.558086E1,1.1634841E2,1.24645485E2,1.453707E2,1.7797859E2,1.998525E2,2.687161E2,5.316456E2,3.2906073E2,4.6995193E2,4.798148E2,4.0127768E2,4.140063E1,6.062237E1,-1.4746708E0,-5.7704085E-1,-8.5034496E-1,-1.95428E-1,-7.104561E-1,-2.8527856E-1,-1.9806635E-2,1.1424296E0,1.2173728E0,1.7573677E0,2.2895694E0,3.2429543E0,4.0947814E0,5.7971187E0,8.263972E0,1.3100978E1,6.5353125E-1,1.4937253E0,1.9277829E0,2.8295414E0,2.8996007E0,3.8478215E0,6.4734178E0,1.0430338E1,3.1924384E0,4.2089896E0,4.5843472E0,5.648953E0,5.1054177E0,6.5056176E0,7.960032E0,1.10047245E1,6.2703013E0,7.6470118E0,8.644585E0,1.3194125E1,8.989009E0,1.0335357E1,1.1402982E1,1.5069692E1,1.1766548E1,1.381684E1,1.3829323E1,1.590956E1,1.7479467E1,2.0127134E1,1.9505102E1,2.1741667E1,2.5459715E1,3.036114E1,4.4916756E1,6.001897E1,4.834005E1,3.1792496E1,2.6790289E1,5.4594917E1,4.1825703E1,5.8876686E1,3.9287804E1,5.2532326E1],"categories":[],"categories_nodes":[],"categories_segments":[],"categories_sizes":[],"default_left":[0,0,0,0,0,0,0,0,0,0,0,0,0,0,0,0,0,0,0,0,0,0,0,0,0,0,0,0,0,0,0,0,0,0,0,0,0,0,0,0,0,0,0,0,0,0,0,0,0,0,0,0,0,0,0,0,0,0,0,0,0,0,0,0,0,0,0,0,0,0,0,0,0,0,0,0,0,0,0,0,0,0,0,0,0,0,0,0,0,0,0,0,0,0,0,0,0,0,0,0,0,0,0,0,0,0,0,0,0,0,0,0,0,0,0,0,0,0,0,0,0,0,0],"id":2,"left_children":[1,3,5,7,9,11,13,15,17,19,21,23,25,27,29,31,33,35,37,39,41,43,45,47,49,51,53,55,57,59,61,63,65,67,69,71,73,75,77,79,81,83,85,87,89,91,93,95,97,99,101,103,105,107,109,111,113,115,117,119,121,-1,-1,-1,-1,-1,-1,-1,-1,-1,-1,-1,-1,-1,-1,-1,-1,-1,-1,-1,-1,-1,-1,-1,-1,-1,-1,-1,-1,-1,-1,-1,-1,-1,-1,-1,-1,-1,-1,-1,-1,-1,-1,-1,-1,-1,-1,-1,-1,-1,-1,-1,-1,-1,-1,-1,-1,-1,-1,-1,-1,-1,-1],"loss_changes":[9.138071E8,1.848082E8,2.3657318E8,5.8472184E7,2.1935112E7,5.062451E7,8.084864E6,1.55792E7,7.172264E6,8.286104E6,4.022064E6,5.99032E6,8.346976E6,7.711296E6,3.35056E5,4.875184E6,2.1893662E6,1.446818E6,1.498151E6,2.275284E6,2.256326E6,1.55998E6,1.117504E6,1.925568E6,1.123336E6,1.018384E6,5.24672E5,6.353728E6,7.702464E6,4.91176E5,3.46156E5,3.675776E6,7.991295E5,5.422995E5,6.5819156E5,2.58432E5,2.319325E5,3.1033E5,2.824215E5,7.54208E5,3.81453E5,5.19132E5,3.672095E5,2.84322E5,2.10704E5,6.44376E5,2.040455E5,6.60504E5,5.06996E5,3.3212E5,3.00316E5,4.0092E5,4.94648E5,2.58096E5,9.7296E4,1.044976E6,2.7869E5,2.730192E6,7.776928E6,1.155368E6,3.9412E4,0E0,0E0,0E0,0E0,0E0,0E0,0E0,0E0,0E0,0E0,0E0,0E0,0E0,0E0,0E0,0E0,0E0,0E0,0E0,0E0,0E0,0E0,0E0,0E0,0E0,0E0,0E0,0E0,0E0,0E0,0E0,0E0,0E0,0E0,0E0,0E0,0E0,0E0,0E0,0E0,0E0,0E0,0E0,0E0,0E0,0E0,0E0,0E0,0E0,0E0,0E0,0E0,0E0,0E0,0E0,0E0,0E0,0E0,0E0,0E0,0E0,0E0],"parents":[2147483647,0,0,1,1,2,2,3,3,4,4,5,5,6,6,7,7,8,8,9,9,10,10,11,11,12,12,13,13,14,14,15,15,16,16,17,17,18,18,19,19,20,20,21,21,22,22,23,23,24,24,25,25,26,26,27,27,28,28,29,29,30,30,31,31,32,32,33,33,34,34,35,35,36,36,37,37,38,38,39,39,40,40,41,41,42,42,43,43,44,44,45,45,46,46,47,47,48,48,49,49,50,50,51,51,52,52,53,53,54,54,55,55,56,56,57,57,58,58,59,59,60,60],"right_children":[2,4,6,8,10,12,14,16,18,20,22,24,26,28,30,32,34,36,38,40,42,44,46,48,50,52,54,56,58,60,62,64,66,68,70,72,74,76,78,80,82,84,86,88,90,92,94,96,98,100,102,104,106,108,110,112,114,116,118,120,122,-1,-1,-1,-1,-1,-1,-1,-1,-1,-1,-1,-1,-1,-1,-1,-1,-1,-1,-1,-1,-1,-1,-1,-1,-1,-1,-1,-1,-1,-1,-1,-1,-1,-1,-1,-1,-1,-1,-1,-1,-1,-1,-1,-1,-1,-1,-1,-1,-1,-1,-1,-1,-1,-1,-1,-1,-1,-1,-1,-1,-1,-1],"split_conditions":[1.839906E0,3.2513687E-1,6.604582E0,-1.0123707E-1,9.983676E-1,3.490942E0,1.6744196E1,-1.7978616E-1,2.9854777E0,-2.774387E-2,-2.774387E-2,2.6574004E0,4.749224E0,6.660666E0,1.0485922E0,5.8406824E-1,6.065338E-2,1.736093E0,5.998699E0,5.038729E-1,3.867396E0,1.3830708E0,3.8506446E0,-2.774387E-2,-2.774387E-2,3.93173E0,1.9273575E-1,4.330378E1,1.0382943E0,-8.359236E-1,-1.0345614E0,1.3306674E0,1.672927E0,1.485247E-1,-9.918862E-2,1.3278525E-1,-8.361034E-2,4.3083553E0,9.085414E0,-1.5150891E-1,1.1284688E0,6.617522E-1,6.2191787E0,1.8537894E0,2.621776E0,1.3830708E0,3.867396E0,2.2252347E0,5.157275E0,3.0606015E0,4.068416E0,-2.774387E-2,-2.774387E-2,9.789651E0,2.2173564E0,9.276678E-1,5.3700188E1,-1.0084364E0,-1.4410061E0,9.3774974E-1,2.5723708E0,4.140063E1,6.062237E1,-1.4746708E0,-5.7704085E-1,-8.5034496E-1,-1.95428E-1,-7.104561E-1,-2.8527856E-1,-1.9806635E-2,1.1424296E0,1.2173728E0,1.7573677E0,2.2895694E0,3.2429543E0,4.0947814E0,5.7971187E0,8.263972E0,1.3100978E1,6.5353125E-1,1.4937253E0,1.9277829E0,2.8295414E0,2.8996007E0,3.8478215E0,6.4734178E0,1.0430338E1,3.1924384E0,4.2089896E0,4.5843472E0,5.648953E0,5.1054177E0,6.5056176E0,7.960032E0,1.10047245E1,6.2703013E0,7.6470118E0,8.644585E0,1.3194125E1,8.989009E0,1.0335357E1,1.1402982E1,1.5069692E1,1.1766548E1,1.381684E1,1.3829323E1,1.590956E1,1.7479467E1,2.0127134E1,1.9505102E1,2.1741667E1,2.5459715E1,3.036114E1,4.4916756E1,6.001897E1,4.834005E1,3.1792496E1,2.6790289E1,5.4594917E1,4.1825703E1,5.8876686E1,3.9287804E1,5.2532326E1],"split_indices":[148,148,178,163,148,178,165,148,163,163,163,148,148,161,146,149,148,163,163,178,163,148,149,163,163,148,163,162,146,146,150,152,149,149,161,148,148,163,163,165,165,148,163,165,165,148,163,178,149,178,149,163,163,165,149,163,162,147,151,150,161,0,0,0,0,0,0,0,0,0,0,0,0,0,0,0,0,0,0,0,0,0,0,0,0,0,0,0,0,0,0,0,0,0,0,0,0,0,0,0,0,0,0,0,0,0,0,0,0,0,0,0,0,0,0,0,0,0,0,0,0,0,0],"split_type":[0,0,0,0,0,0,0,0,0,0,0,0,0,0,0,0,0,0,0,0,0,0,0,0,0,0,0,0,0,0,0,0,0,0,0,0,0,0,0,0,0,0,0,0,0,0,0,0,0,0,0,0,0,0,0,0,0,0,0,0,0,0,0,0,0,0,0,0,0,0,0,0,0,0,0,0,0,0,0,0,0,0,0,0,0,0,0,0,0,0,0,0,0,0,0,0,0,0,0,0,0,0,0,0,0,0,0,0,0,0,0,0,0,0,0,0,0,0,0,0,0,0,0],"sum_hessian":[1.359115E6,1.305084E6,5.4031E4,1.157E6,1.48084E5,4.8955E4,5.076E3,1.091205E6,6.5795E4,1.00262E5,4.7822E4,3.3608E4,1.5347E4,4.565E3,5.11E2,8.62185E5,2.2902E5,5.9716E4,6.079E3,7.4369E4,2.5893E4,3.3536E4,1.4286E4,2.1904E4,1.1704E4,9.737E3,5.61E3,2.373E3,2.192E3,4.43E2,6.8E1,7.4661E5,1.15575E5,1.5791E5,7.111E4,4.7058E4,1.2658E4,5.247E3,8.32E2,4.5143E4,2.9226E4,2.4387E4,1.506E3,1.9141E4,1.4395E4,1.3359E4,9.27E2,1.4747E4,7.157E3,7.718E3,3.986E3,4.419E3,5.318E3,3.954E3,1.656E3,2.277E3,9.6E1,1.677E3,5.15E2,2.08E2,2.35E2,2.8E1,4E1,6.97797E5,4.8813E4,9.2226E4,2.3349E4,1.17641E5,4.0269E4,6.5849E4,5.261E3,3.5203E4,1.1855E4,9.099E3,3.559E3,3.732E3,1.515E3,6.81E2,1.51E2,2.778E4,1.7363E4,2.3348E4,5.878E3,1.495E4,9.437E3,1.211E3,2.95E2,1.5794E4,3.347E3,1.2174E4,2.221E3,7.38E3,5.979E3,5.14E2,4.13E2,8.993E3,5.754E3,6.9E3,2.57E2,4.463E3,3.255E3,3.738E3,2.48E2,2.921E3,1.498E3,3.516E3,1.802E3,3.486E3,4.68E2,1.31E3,3.46E2,1.627E3,6.5E2,4.7E1,4.9E1,1.1E2,1.567E3,1.42E2,3.73E2,1.36E2,7.2E1,2.24E2,1.1E1],"tree_param":{"num_deleted":"0","num_feature":"197","num_nodes":"123","size_leaf_vector":"1"}},{"base_weights":[-1.5423394E-2,-4.9598613E0,1.0980988E2,-9.064235E0,2.0954784E1,9.187049E1,2.9994208E2,-1.0478308E1,1.70221E1,1.2709494E1,3.5242836E1,7.2412674E1,1.3614325E2,2.8649408E2,3.9435028E2,-1.2776167E1,-6.239841E0,1.3271268E1,4.159917E1,8.698309E0,2.9476633E1,3.0116913E1,4.8679386E1,6.277862E1,8.813312E1,1.218796E2,1.6877464E2,3.5957477E2,2.7401605E2,2.6731238E2,5.0934088E2,-1.0849446E1,-1.5467742E1,-7.87703E0,-2.7427115E0,1.074854E1,1.949512E1,3.5437023E1,7.070774E1,5.282212E0,1.4711199E1,2.5827288E1,5.2476814E1,2.4154615E1,3.8167538E1,4.664266E1,8.103721E1,5.743111E1,7.592494E1,8.203512E1,1.01014244E2,1.1213012E2,1.338746E2,1.6242732E2,1.8312057E2,2.6793372E2,5.0313657E2,3.1394507E2,2.5047943E2,2.2221964E2,3.4541876E2,4.447445E2,5.839577E1,-1.1364787E0,-4.4293514E-1,-1.6286725E0,-8.5752773E-1,-5.5075043E-1,-1.0262709E0,-7.8112885E-2,-5.091182E-1,9.0791816E-1,1.241832E0,1.768828E0,2.565855E0,3.121996E0,4.3804436E0,6.4121246E0,1.0776497E1,1.4628695E0,7.857666E-2,1.2778466E0,2.096325E0,2.2421691E0,2.949387E0,4.61795E0,7.9032145E0,2.2948954E0,3.4093564E0,3.5094872E0,4.3109145E0,4.080932E0,5.427361E0,7.249817E0,1.1097851E1,5.204448E0,6.3853507E0,7.4574695E0,1.1647485E1,7.698527E0,9.041053E0,9.468832E0,1.113608E1,1.0600251E1,1.2489099E1,1.2780646E1,1.4713431E1,1.6146555E1,1.8049856E1,1.814913E1,2.3870098E1,4.3323505E1,2.4264769E1,2.4392387E1,5.3487385E1,2.6332825E1,4.9693596E1,2.6314377E1,2.233687E1,1.9747816E1,2.4025877E1,3.534221E1,2.0118698E1,5.0000393E1,4.0327435E1],"categories":[],"categories_nodes":[],"categories_segments":[],"categories_sizes":[],"default_left":[0,0,0,0,0,0,0,0,0,0,0,0,0,0,0,0,0,0,0,0,0,0,0,0,0,0,0,0,0,0,0,0,0,0,0,0,0,0,0,0,0,0,0,0,0,0,0,0,0,0,0,0,0,0,0,0,0,0,0,0,0,0,0,0,0,0,0,0,0,0,0,0,0,0,0,0,0,0,0,0,0,0,0,0,0,0,0,0,0,0,0,0,0,0,0,0,0,0,0,0,0,0,0,0,0,0,0,0,0,0,0,0,0,0,0,0,0,0,0,0,0,0,0,0,0],"id":3,"left_children":[1,3,5,7,9,11,13,15,17,19,21,23,25,27,29,31,33,35,37,39,41,43,45,47,49,51,53,55,57,59,61,63,65,67,69,71,73,75,77,79,81,83,85,87,89,91,93,95,97,99,101,103,105,107,109,111,113,115,117,119,121,123,-1,-1,-1,-1,-1,-1,-1,-1,-1,-1,-1,-1,-1,-1,-1,-1,-1,-1,-1,-1,-1,-1,-1,-1,-1,-1,-1,-1,-1,-1,-1,-1,-1,-1,-1,-1,-1,-1,-1,-1,-1,-1,-1,-1,-1,-1,-1,-1,-1,-1,-1,-1,-1,-1,-1,-1,-1,-1,-1,-1,-1,-1,-1],"loss_changes":[7.383536E8,1.3839254E8,1.9977344E8,4.1433896E7,2.0957568E7,4.610272E7,6.298464E6,1.0377008E7,5.323743E6,7.586494E6,4.48192E6,5.626624E6,7.585664E6,3.935648E6,9.023088E6,3.5828E6,2.144576E6,7.86584E5,1.369135E6,1.8697125E6,1.82642E6,2.26094E6,1.180768E6,1.616816E6,1.101448E6,1.315216E6,4.22608E5,8.31136E6,3.476576E6,9.79796E5,1.321136E6,1.332188E6,1.626904E6,1.442177E6,5.502311E5,9.9286E4,1.604845E5,2.21385E5,3.18916E5,2.4396355E6,3.982315E5,2.34037E5,4.948425E5,3.23651E5,3.02888E5,7.50592E5,2.63713E5,5.6392E5,3.56216E5,3.98792E5,2.86256E5,4.77864E5,3.9112E5,3.084E4,9.3924E4,1.54166E6,1.917904E6,1.28272E7,7.60032E5,3.8649E4,5.3508E4,2.10764E5,0E0,0E0,0E0,0E0,0E0,0E0,0E0,0E0,0E0,0E0,0E0,0E0,0E0,0E0,0E0,0E0,0E0,0E0,0E0,0E0,0E0,0E0,0E0,0E0,0E0,0E0,0E0,0E0,0E0,0E0,0E0,0E0,0E0,0E0,0E0,0E0,0E0,0E0,0E0,0E0,0E0,0E0,0E0,0E0,0E0,0E0,0E0,0E0,0E0,0E0,0E0,0E0,0E0,0E0,0E0,0E0,0E0,0E0,0E0,0E0,0E0,0E0,0E0],"parents":[2147483647,0,0,1,1,2,2,3,3,4,4,5,5,6,6,7,7,8,8,9,9,10,10,11,11,12,12,13,13,14,14,15,15,16,16,17,17,18,18,19,19,20,20,21,21,22,22,23,23,24,24,25,25,26,26,27,27,28,28,29,29,30,30,31,31,32,32,33,33,34,34,35,35,36,36,37,37,38,38,39,39,40,40,41,41,42,42,43,43,44,44,45,45,46,46,47,47,48,48,49,49,50,50,51,51,52,52,53,53,54,54,55,55,56,56,57,57,58,58,59,59,60,60,61,61],"right_children":[2,4,6,8,10,12,14,16,18,20,22,24,26,28,30,32,34,36,38,40,42,44,46,48,50,52,54,56,58,60,62,64,66,68,70,72,74,76,78,80,82,84,86,88,90,92,94,96,98,100,102,104,106,108,110,112,114,116,118,120,122,124,-1,-1,-1,-1,-1,-1,-1,-1,-1,-1,-1,-1,-1,-1,-1,-1,-1,-1,-1,-1,-1,-1,-1,-1,-1,-1,-1,-1,-1,-1,-1,-1,-1,-1,-1,-1,-1,-1,-1,-1,-1,-1,-1,-1,-1,-1,-1,-1,-1,-1,-1,-1,-1,-1,-1,-1,-1,-1,-1,-1,-1,-1,-1],"split_conditions":[1.7196862E0,2.049171E-1,6.604582E0,-1.0123707E-1,7.81972E-1,3.378719E0,1.4048996E0,-2.5191802E-1,2.6180115E0,1.9273575E-1,4.5749336E-2,2.453062E0,4.959162E0,-6.43978E-1,-1.2367237E0,4.2742082E-1,-8.361034E-2,1.5156134E0,5.0432873E0,-9.918862E-2,2.6915047E0,1.0860982E0,5.4842467E0,1.1924254E-1,4.5749336E-2,4.0731673E0,1.1924254E-1,-2.2059429E0,-6.608593E-1,-1.6532476E0,-7.7614427E-1,1.17082E0,1.0109726E0,3.6377993E-1,5.050951E-1,-8.361034E-2,-8.361034E-2,3.6469164E0,8.423975E0,-1.396668E-1,7.1037483E-1,3.0135974E-1,4.896301E0,1.4389819E0,1.4792466E0,1.0860982E0,7.836029E0,2.0227215E0,9.085414E0,2.969972E0,2.969972E0,4.5749336E-2,1.1924254E-1,6.3120813E0,6.2859364E0,7.705489E-1,-1.6556365E0,6.0759646E-1,4.5131397E-1,-2.2059429E0,2.0680845E0,1.6664662E0,5.839577E1,-1.1364787E0,-4.4293514E-1,-1.6286725E0,-8.5752773E-1,-5.5075043E-1,-1.0262709E0,-7.8112885E-2,-5.091182E-1,9.0791816E-1,1.241832E0,1.768828E0,2.565855E0,3.121996E0,4.3804436E0,6.4121246E0,1.0776497E1,1.4628695E0,7.857666E-2,1.2778466E0,2.096325E0,2.2421691E0,2.949387E0,4.61795E0,7.9032145E0,2.2948954E0,3.4093564E0,3.5094872E0,4.3109145E0,4.080932E0,5.427361E0,7.249817E0,1.1097851E1,5.204448E0,6.3853507E0,7.4574695E0,1.1647485E1,7.698527E0,9.041053E0,9.468832E0,1.113608E1,1.0600251E1,1.2489099E1,1.2780646E1,1.4713431E1,1.6146555E1,1.8049856E1,1.814913E1,2.3870098E1,4.3323505E1,2.4264769E1,2.4392387E1,5.3487385E1,2.6332825E1,4.9693596E1,2.6314377E1,2.233687E1,1.9747816E1,2.4025877E1,3.534221E1,2.0118698E1,5.0000393E1,4.0327435E1],"split_indices":[148,148,178,163,148,148,146,148,163,163,163,178,178,147,147,181,148,163,163,161,163,178,163,163,163,178,163,147,146,147,147,152,152,181,181,148,148,163,163,161,161,178,163,161,148,178,163,178,163,148,148,163,163,148,152,146,146,147,146,147,146,146,0,0,0,0,0,0,0,0,0,0,0,0,0,0,0,0,0,0,0,0,0,0,0,0,0,0,0,0,0,0,0,0,0,0,0,0,0,0,0,0,0,0,0,0,0,0,0,0,0,0,0,0,0,0,0,0,0,0,0,0,0,0,0],"split_type":[0,0,0,0,0,0,0,0,0,0,0,0,0,0,0,0,0,0,0,0,0,0,0,0,0,0,0,0,0,0,0,0,0,0,0,0,0,0,0,0,0,0,0,0,0,0,0,0,0,0,0,0,0,0,0,0,0,0,0,0,0,0,0,0,0,0,0,0,0,0,0,0,0,0,0,0,0,0,0,0,0,0,0,0,0,0,0,0,0,0,0,0,0,0,0,0,0,0,0,0,0,0,0,0,0,0,0,0,0,0,0,0,0,0,0,0,0,0,0,0,0,0,0,0,0],"sum_hessian":[1.359704E6,1.301127E6,5.8577E4,1.12323E6,1.77897E5,5.3528E4,5.049E3,1.065474E6,5.7756E4,1.12803E5,6.5094E4,3.7187E4,1.6341E4,4.423E3,6.26E2,6.90903E5,3.74571E5,5.011E4,7.646E3,9.1028E4,2.1775E4,4.7121E4,1.7973E4,2.306E4,1.4127E4,1.1374E4,4.967E3,6.41E2,3.782E3,2.99E2,3.27E2,4.02666E5,2.88237E5,2.5513E5,1.19441E5,3.5659E4,1.4451E4,6.312E3,1.334E3,5.805E4,3.2978E4,1.8795E4,2.98E3,2.7074E4,2.0047E4,1.6911E4,1.062E3,1.6396E4,6.664E3,9.593E3,4.534E3,6.28E3,5.094E3,3.452E3,1.515E3,3.93E2,2.48E2,1.398E3,2.384E3,1.92E2,1.07E2,1.79E2,1.48E2,3.72745E5,2.9921E4,2.57624E5,3.0613E4,1.28E5,1.2713E5,6.5082E4,5.4359E4,1.7835E4,1.7824E4,1.1178E4,3.273E3,4.2E3,2.112E3,1.135E3,1.99E2,1.8855E4,3.9195E4,2.5193E4,7.785E3,9.748E3,9.047E3,2.411E3,5.69E2,2.4148E4,2.926E3,1.2366E4,7.681E3,9.588E3,7.323E3,8.29E2,2.33E2,8.922E3,7.474E3,6.452E3,2.12E2,5.991E3,3.602E3,2.82E3,1.714E3,4.249E3,2.031E3,3.502E3,1.592E3,3.287E3,1.65E2,1.476E3,3.9E1,5E1,3.43E2,2.8E1,2.2E2,1.097E3,3.01E2,1.619E3,7.65E2,8.6E1,1.06E2,1E2,7E0,7.2E1,1.07E2],"tree_param":{"num_deleted":"0","num_feature":"197","num_nodes":"125","size_leaf_vector":"1"}},{"base_weights":[-1.2845771E-2,-4.4539695E0,9.8880554E1,-8.26098E0,1.8288055E1,8.234897E1,2.6470187E2,-9.498376E0,1.5201944E1,1.1064139E1,3.1711079E1,6.516363E1,1.2179907E2,2.51353E2,3.2562515E2,-1.1922683E1,-6.2696714E0,1.1680735E1,3.6364407E1,7.6210785E0,2.7017906E1,2.7491186E1,4.485018E1,5.5640594E1,7.798704E1,1.0840861E2,1.4857726E2,3.5517465E2,2.4268813E2,2.1885721E2,4.6666074E2,-1.326671E1,-8.124195E0,-7.5866666E0,-3.0065076E0,9.275832E0,1.6731886E1,3.086509E1,6.1723152E1,4.56946E0,1.3296443E1,2.4251049E1,5.303064E1,2.1144197E1,3.3674828E1,4.2345394E1,7.200827E1,5.049081E1,6.664523E1,7.239937E1,8.91115E1,9.952113E1,1.1764489E2,1.4200308E2,1.5954424E2,2.8452042E2,4.7503876E2,2.6456015E2,2.134481E2,1.9424568E2,3.1709708E2,3.9767545E2,5.128133E2,-1.3712589E0,-3.417187E-1,-9.3521017E-1,-3.121758E-1,-8.82908E-1,-4.133206E-1,-1.6358338E-1,-5.4962057E-1,7.9275036E-1,1.0879598E0,1.5263795E0,2.238311E0,2.7044036E0,3.7810948E0,5.3845897E0,8.786388E0,1.3219537E0,7.240221E-2,1.1799474E0,2.0163574E0,2.1690896E0,3.0942092E0,4.826548E0,9.039215E0,1.9754299E0,2.778118E0,3.1050966E0,3.9183557E0,4.1193023E0,8.078914E0,6.4616866E0,9.806031E0,4.5478477E0,5.513415E0,6.50066E0,1.0105811E1,6.790994E0,8.11571E0,8.685929E0,1.1811774E1,9.433654E0,1.1281119E1,1.1170696E1,1.2802902E1,1.416379E1,1.6818775E1,1.5865473E1,2.2638897E1,4.327841E1,2.5960592E1,2.1195162E1,5.156143E1,2.350201E1,4.043416E1,1.9107447E1,2.2512E1,1.6466717E1,2.0457771E1,2.6137302E1,3.3175575E1,3.534689E1,4.2147976E1,5.188014E1,1.2639382E1],"categories":[],"categories_nodes":[],"categories_segments":[],"categories_sizes":[],"default_left":[0,0,0,0,0,0,0,0,0,0,0,0,0,0,0,0,0,0,0,0,0,0,0,0,0,0,0,0,0,0,0,0,0,0,0,0,0,0,0,0,0,0,0,0,0,0,0,0,0,0,0,0,0,0,0,0,0,0,0,0,0,0,0,0,0,0,0,0,0,0,0,0,0,0,0,0,0,0,0,0,0,0,0,0,0,0,0,0,0,0,0,0,0,0,0,0,0,0,0,0,0,0,0,0,0,0,0,0,0,0,0,0,0,0,0,0,0,0,0,0,0,0,0,0,0,0,0],"id":4,"left_children":[1,3,5,7,9,11,13,15,17,19,21,23,25,27,29,31,33,35,37,39,41,43,45,47,49,51,53,55,57,59,61,63,65,67,69,71,73,75,77,79,81,83,85,87,89,91,93,95,97,99,101,103,105,107,109,111,113,115,117,119,121,123,125,-1,-1,-1,-1,-1,-1,-1,-1,-1,-1,-1,-1,-1,-1,-1,-1,-1,-1,-1,-1,-1,-1,-1,-1,-1,-1,-1,-1,-1,-1,-1,-1,-1,-1,-1,-1,-1,-1,-1,-1,-1,-1,-1,-1,-1,-1,-1,-1,-1,-1,-1,-1,-1,-1,-1,-1,-1,-1,-1,-1,-1,-1,-1,-1],"loss_changes":[5.973679E8,1.126983E8,1.6022291E8,3.2372544E7,1.8098984E7,3.603123E7,4.227552E6,8.290416E6,4.162042E6,6.66552E6,3.619688E6,4.517664E6,5.76728E6,3.827904E6,1.418792E7,3.088264E6,1.952054E6,5.816115E5,1.109269E6,1.728569E6,1.549016E6,1.939408E6,1.076774E6,1.20106E6,9.74296E5,8.71208E5,3.64784E5,2.684916E6,2.513776E6,1.248818E6,1.094976E6,1.962304E6,9.71145E5,1.38848E6,4.4571212E5,7.00755E4,1.278025E5,1.72812E5,2.87451E5,2.159145E6,3.58537E5,3.32863E5,3.64153E5,2.24502E5,3.60662E5,6.40626E5,2.51487E5,3.34536E5,3.75288E5,4.0762E5,3.34064E5,3.67484E5,3.1056E5,8.352E3,8.332E4,6.70686E5,1.192978E6,9.381296E6,4.07416E5,9.952E4,6.31E2,2.773E4,4.9202E5,0E0,0E0,0E0,0E0,0E0,0E0,0E0,0E0,0E0,0E0,0E0,0E0,0E0,0E0,0E0,0E0,0E0,0E0,0E0,0E0,0E0,0E0,0E0,0E0,0E0,0E0,0E0,0E0,0E0,0E0,0E0,0E0,0E0,0E0,0E0,0E0,0E0,0E0,0E0,0E0,0E0,0E0,0E0,0E0,0E0,0E0,0E0,0E0,0E0,0E0,0E0,0E0,0E0,0E0,0E0,0E0,0E0,0E0,0E0,0E0,0E0,0E0,0E0,0E0],"parents":[2147483647,0,0,1,1,2,2,3,3,4,4,5,5,6,6,7,7,8,8,9,9,10,10,11,11,12,12,13,13,14,14,15,15,16,16,17,17,18,18,19,19,20,20,21,21,22,22,23,23,24,24,25,25,26,26,27,27,28,28,29,29,30,30,31,31,32,32,33,33,34,34,35,35,36,36,37,37,38,38,39,39,40,40,41,41,42,42,43,43,44,44,45,45,46,46,47,47,48,48,49,49,50,50,51,51,52,52,53,53,54,54,55,55,56,56,57,57,58,58,59,59,60,60,61,61,62,62],"right_children":[2,4,6,8,10,12,14,16,18,20,22,24,26,28,30,32,34,36,38,40,42,44,46,48,50,52,54,56,58,60,62,64,66,68,70,72,74,76,78,80,82,84,86,88,90,92,94,96,98,100,102,104,106,108,110,112,114,116,118,120,122,124,126,-1,-1,-1,-1,-1,-1,-1,-1,-1,-1,-1,-1,-1,-1,-1,-1,-1,-1,-1,-1,-1,-1,-1,-1,-1,-1,-1,-1,-1,-1,-1,-1,-1,-1,-1,-1,-1,-1,-1,-1,-1,-1,-1,-1,-1,-1,-1,-1,-1,-1,-1,-1,-1,-1,-1,-1,-1,-1,-1,-1,-1,-1,-1,-1],"split_conditions":[1.7196862E0,1.8087316E-1,6.3120813E0,-1.0123707E-1,7.81972E-1,3.378719E0,1.6335702E0,-2.7596197E-1,2.5445182E0,2.6622894E-1,1.9273575E-1,2.416961E0,4.749224E0,-8.02177E-1,-1.2681246E0,1.485247E-1,-1.07654296E-1,1.4421202E0,4.896301E0,-9.918862E-2,3.2059572E0,1.1185874E0,3.6328728E0,-2.774387E-2,-2.774387E-2,3.93173E0,-1.0123707E-1,-2.2059429E0,4.8005858E-1,-1.6593928E0,-8.8284516E-1,1.8102095E0,1.2373835E0,1.485247E-1,3.8465014E-1,-5.956639E-2,-8.361034E-2,3.49993E0,7.3215766E0,-1.396668E-1,7.913312E-1,1.5891067E0,6.5866446E0,1.2365911E0,1.4792466E0,5.646547E0,7.3349924E0,2.0082138E0,4.7217317E0,2.969972E0,3.6328728E0,2.6622894E-1,-1.0123707E-1,2.055608E1,8.204105E0,6.210491E-1,-6.7345303E-1,9.876564E-1,1.4286293E0,-2.4918358E0,-1.2913281E0,-1.2913281E0,1.685332E-2,-1.3712589E0,-3.417187E-1,-9.3521017E-1,-3.121758E-1,-8.82908E-1,-4.133206E-1,-1.6358338E-1,-5.4962057E-1,7.9275036E-1,1.0879598E0,1.5263795E0,2.238311E0,2.7044036E0,3.7810948E0,5.3845897E0,8.786388E0,1.3219537E0,7.240221E-2,1.1799474E0,2.0163574E0,2.1690896E0,3.0942092E0,4.826548E0,9.039215E0,1.9754299E0,2.778118E0,3.1050966E0,3.9183557E0,4.1193023E0,8.078914E0,6.4616866E0,9.806031E0,4.5478477E0,5.513415E0,6.50066E0,1.0105811E1,6.790994E0,8.11571E0,8.685929E0,1.1811774E1,9.433654E0,1.1281119E1,1.1170696E1,1.2802902E1,1.416379E1,1.6818775E1,1.5865473E1,2.2638897E1,4.327841E1,2.5960592E1,2.1195162E1,5.156143E1,2.350201E1,4.043416E1,1.9107447E1,2.2512E1,1.6466717E1,2.0457771E1,2.6137302E1,3.3175575E1,3.534689E1,4.2147976E1,5.188014E1,1.2639382E1],"split_indices":[148,148,148,163,148,148,170,148,163,163,163,148,148,147,150,149,148,163,163,161,163,148,149,163,163,148,163,147,170,150,150,152,149,149,157,148,148,163,163,161,161,163,163,161,148,152,149,148,149,148,149,163,163,162,152,153,170,150,147,150,153,153,147,0,0,0,0,0,0,0,0,0,0,0,0,0,0,0,0,0,0,0,0,0,0,0,0,0,0,0,0,0,0,0,0,0,0,0,0,0,0,0,0,0,0,0,0,0,0,0,0,0,0,0,0,0,0,0,0,0,0,0,0,0,0,0,0],"split_type":[0,0,0,0,0,0,0,0,0,0,0,0,0,0,0,0,0,0,0,0,0,0,0,0,0,0,0,0,0,0,0,0,0,0,0,0,0,0,0,0,0,0,0,0,0,0,0,0,0,0,0,0,0,0,0,0,0,0,0,0,0,0,0,0,0,0,0,0,0,0,0,0,0,0,0,0,0,0,0,0,0,0,0,0,0,0,0,0,0,0,0,0,0,0,0,0,0,0,0,0,0,0,0,0,0,0,0,0,0,0,0,0,0,0,0,0,0,0,0,0,0,0,0,0,0,0,0],"sum_hessian":[1.360132E6,1.301677E6,5.8455E4,1.115023E6,1.86654E5,5.3157E4,5.298E3,1.059165E6,5.5858E4,1.21349E5,6.5305E4,3.7029E4,1.6128E4,4.35E3,9.48E2,6.04938E5,4.54227E5,4.7891E4,7.967E3,9.981E4,2.1539E4,4.9432E4,1.5873E4,2.1252E4,1.5777E4,1.0755E4,5.373E3,3.32E2,4.018E3,5.41E2,4.07E2,4.46832E5,1.58106E5,3.23616E5,1.30611E5,3.2446E4,1.5445E4,6.549E3,1.418E3,6.491E4,3.49E4,1.947E4,2.069E3,2.4396E4,2.5036E4,1.4535E4,1.338E3,1.4481E4,6.771E3,1.0507E4,5.27E3,5.487E3,5.268E3,3.368E3,2.005E3,2.11E2,1.21E2,2.294E3,1.724E3,4.35E2,1.06E2,1.67E2,2.4E2,4.2748E5,1.9352E4,1.26945E5,3.1161E4,2.37994E5,8.5622E4,8.4237E4,4.6374E4,1.763E4,1.4816E4,1.2263E4,3.182E3,4.228E3,2.321E3,1.092E3,3.26E2,1.9975E4,4.4935E4,2.8656E4,6.244E3,1.4085E4,5.385E3,1.837E3,2.32E2,2.0175E4,4.221E3,1.6963E4,8.073E3,1.4114E4,4.21E2,1.045E3,2.93E2,6.969E3,7.512E3,6.466E3,3.05E2,6.952E3,3.555E3,4.894E3,3.76E2,3.953E3,1.534E3,3.359E3,1.909E3,3.328E3,4E1,1.982E3,2.3E1,2.8E1,1.83E2,1.7E1,1.04E2,1.896E3,3.98E2,5.97E2,1.127E3,1.17E2,3.18E2,2.6E1,8E1,6.4E1,1.03E2,2.36E2,4E0],"tree_param":{"num_deleted":"0","num_feature":"197","num_nodes":"127","size_leaf_vector":"1"}},{"base_weights":[6.684756E-3,-3.7153573E0,9.626139E1,-6.731433E0,2.2501644E1,7.990257E1,2.4304272E2,-8.077111E0,1.4402508E1,1.5844425E1,3.494698E1,6.342394E1,1.1225579E2,2.3104985E2,3.455767E2,-9.788796E0,-2.8725033E0,1.1218712E1,3.2576164E1,1.1467439E1,2.6661482E1,3.0117367E1,4.4834923E1,5.6902145E1,7.686439E1,1.0023187E2,1.3687346E2,2.008306E2,2.6325552E2,3.3380713E2,4.093481E2,-7.74321E0,-1.1844947E1,-4.5283866E0,1.5068603E0,9.856616E0,1.6444326E1,2.7476692E1,5.405796E1,8.259365E0,1.6533413E1,2.5001673E1,5.712036E1,2.5763155E1,3.609115E1,4.2556053E1,6.582996E1,5.246732E1,6.844682E1,7.135344E1,8.76543E1,9.227901E1,1.0824418E2,1.3165012E2,1.4939449E2,1.89642E2,3.6122824E2,2.37662E2,3.4508157E2,3.6415414E2,3.0668024E2,3.0597961E1,4.611129E1,-9.221021E-1,-4.2058945E-1,-1.0264128E0,-1.4540519E0,-2.5403348E-1,-6.6901E-1,5.954192E-2,8.504775E-1,8.5237706E-1,1.3298391E0,1.488527E0,2.443093E0,2.446358E0,3.3425362E0,4.6913195E0,7.6504374E0,-2.6210344E0,8.6640656E-1,1.515097E0,2.3557565E0,2.3785853E0,3.9389539E0,5.2671466E0,9.955267E0,2.4211109E0,3.2842999E0,3.4620628E0,4.393071E0,4.1490097E0,7.5354195E0,5.3306837E0,7.7843285E0,4.763913E0,5.708936E0,6.551502E0,8.959453E0,6.9420524E0,7.9649553E0,8.641337E0,1.3820249E1,8.697081E0,1.0247436E1,1.0377338E1,1.2080294E1,1.2876782E1,1.4988845E1,1.4621692E1,1.8061546E1,1.8125534E1,2.3293842E1,3.142056E1,4.508683E1,3.5412796E1,2.2925491E1,2.2641672E1,4.2073177E1,3.1945272E1,4.5345787E1,2.9826252E1,4.1586132E1],"categories":[],"categories_nodes":[],"categories_segments":[],"categories_sizes":[],"default_left":[0,0,0,0,0,0,0,0,0,0,0,0,0,0,0,0,0,0,0,0,0,0,0,0,0,0,0,0,0,0,0,0,0,0,0,0,0,0,0,0,0,0,0,0,0,0,0,0,0,0,0,0,0,0,0,0,0,0,0,0,0,0,0,0,0,0,0,0,0,0,0,0,0,0,0,0,0,0,0,0,0,0,0,0,0,0,0,0,0,0,0,0,0,0,0,0,0,0,0,0,0,0,0,0,0,0,0,0,0,0,0,0,0,0,0,0,0,0,0,0,0,0,0],"id":5,"left_children":[1,3,5,7,9,11,13,15,17,19,21,23,25,27,29,31,33,35,37,39,41,43,45,47,49,51,53,55,57,59,61,63,65,67,69,71,73,75,77,79,81,83,85,87,89,91,93,95,97,99,101,103,105,107,109,111,113,115,117,119,121,-1,-1,-1,-1,-1,-1,-1,-1,-1,-1,-1,-1,-1,-1,-1,-1,-1,-1,-1,-1,-1,-1,-1,-1,-1,-1,-1,-1,-1,-1,-1,-1,-1,-1,-1,-1,-1,-1,-1,-1,-1,-1,-1,-1,-1,-1,-1,-1,-1,-1,-1,-1,-1,-1,-1,-1,-1,-1,-1,-1,-1,-1],"loss_changes":[4.867046E8,1.03421544E8,1.2142205E8,3.335932E7,1.1179728E7,2.4253792E7,6.155808E6,9.824176E6,4.062528E6,4.162266E6,2.244412E6,2.638616E6,4.53136E6,4.36848E6,2.60328E5,3.490288E6,1.9791595E6,4.251375E5,1.145123E6,1.0171235E6,1.278942E6,8.20962E5,7.35436E5,1.035984E6,5.79324E5,6.47584E5,3.09664E5,4.145224E6,4.516816E6,2.60352E5,2.76199E5,2.174578E6,1.763376E6,8.51082E5,4.776055E5,2.173245E5,1.5344625E5,1.508315E5,3.1827E5,5.348695E5,2.35294E5,4.19222E5,2.416615E5,2.00065E5,1.52016E5,4.83592E5,2.22858E5,3.24732E5,3.43302E5,9.907E4,1.96596E5,2.71732E5,2.75756E5,1.67916E5,1.1989E5,7.55496E5,4.98954E5,1.5598E6,4.581708E6,6.854E5,1.0106E5,0E0,0E0,0E0,0E0,0E0,0E0,0E0,0E0,0E0,0E0,0E0,0E0,0E0,0E0,0E0,0E0,0E0,0E0,0E0,0E0,0E0,0E0,0E0,0E0,0E0,0E0,0E0,0E0,0E0,0E0,0E0,0E0,0E0,0E0,0E0,0E0,0E0,0E0,0E0,0E0,0E0,0E0,0E0,0E0,0E0,0E0,0E0,0E0,0E0,0E0,0E0,0E0,0E0,0E0,0E0,0E0,0E0,0E0,0E0,0E0,0E0,0E0],"parents":[2147483647,0,0,1,1,2,2,3,3,4,4,5,5,6,6,7,7,8,8,9,9,10,10,11,11,12,12,13,13,14,14,15,15,16,16,17,17,18,18,19,19,20,20,21,21,22,22,23,23,24,24,25,25,26,26,27,27,28,28,29,29,30,30,31,31,32,32,33,33,34,34,35,35,36,36,37,37,38,38,39,39,40,40,41,41,42,42,43,43,44,44,45,45,46,46,47,47,48,48,49,49,50,50,51,51,52,52,53,53,54,54,55,55,56,56,57,57,58,58,59,59,60,60],"right_children":[2,4,6,8,10,12,14,16,18,20,22,24,26,28,30,32,34,36,38,40,42,44,46,48,50,52,54,56,58,60,62,64,66,68,70,72,74,76,78,80,82,84,86,88,90,92,94,96,98,100,102,104,106,108,110,112,114,116,118,120,122,-1,-1,-1,-1,-1,-1,-1,-1,-1,-1,-1,-1,-1,-1,-1,-1,-1,-1,-1,-1,-1,-1,-1,-1,-1,-1,-1,-1,-1,-1,-1,-1,-1,-1,-1,-1,-1,-1,-1,-1,-1,-1,-1,-1,-1,-1,-1,-1,-1,-1,-1,-1,-1,-1,-1,-1,-1,-1,-1,-1,-1,-1],"split_conditions":[1.8708367E0,2.5073147E-1,6.604582E0,-1.0123707E-1,9.3421334E-1,3.490942E0,1.6744196E1,2.7138206E-1,2.397532E0,-1.0123707E-1,-1.0123707E-1,2.7315176E0,4.959162E0,6.660666E0,1.0897838E0,2.7560282E-1,-7.835242E-2,1.5891067E0,4.6023283E0,5.798153E-1,4.087876E0,1.3645538E0,2.8706717E0,1.9273575E-1,-2.774387E-2,4.0731673E0,1.9273575E-1,3.4684536E1,1.0485922E0,-8.359236E-1,-1.0124415E0,3.963883E-2,-2.5555143E-1,4.3406606E-1,-9.918862E-2,1.1159358E0,-1.396668E-1,3.3529437E0,6.9541106E0,-5.731716E-1,1.2991325E0,2.8706717E0,7.836029E0,1.9391214E0,2.749774E0,5.0071573E0,2.764998E0,2.2252347E0,2.9795575E0,5.1390657E0,1.2392608E1,-2.774387E-2,4.1321537E-1,9.789651E0,3.8506446E0,1.8492544E1,5.3700188E1,-8.02177E-1,-1.1544459E0,9.780625E-1,2.5723708E0,3.0597961E1,4.611129E1,-9.221021E-1,-4.2058945E-1,-1.0264128E0,-1.4540519E0,-2.5403348E-1,-6.6901E-1,5.954192E-2,8.504775E-1,8.5237706E-1,1.3298391E0,1.488527E0,2.443093E0,2.446358E0,3.3425362E0,4.6913195E0,7.6504374E0,-2.6210344E0,8.6640656E-1,1.515097E0,2.3557565E0,2.3785853E0,3.9389539E0,5.2671466E0,9.955267E0,2.4211109E0,3.2842999E0,3.4620628E0,4.393071E0,4.1490097E0,7.5354195E0,5.3306837E0,7.7843285E0,4.763913E0,5.708936E0,6.551502E0,8.959453E0,6.9420524E0,7.9649553E0,8.641337E0,1.3820249E1,8.697081E0,1.0247436E1,1.0377338E1,1.2080294E1,1.2876782E1,1.4988845E1,1.4621692E1,1.8061546E1,1.8125534E1,2.3293842E1,3.142056E1,4.508683E1,3.5412796E1,2.2925491E1,2.2641672E1,4.2073177E1,3.1945272E1,4.5345787E1,2.9826252E1,4.1586132E1],"split_indices":[178,178,178,163,178,178,165,179,163,163,163,178,178,161,146,181,178,163,163,178,163,178,149,163,163,178,163,162,146,146,147,149,178,181,161,179,161,163,163,179,165,149,163,165,165,152,163,178,149,165,163,163,163,165,149,163,162,147,151,147,161,0,0,0,0,0,0,0,0,0,0,0,0,0,0,0,0,0,0,0,0,0,0,0,0,0,0,0,0,0,0,0,0,0,0,0,0,0,0,0,0,0,0,0,0,0,0,0,0,0,0,0,0,0,0,0,0,0,0,0,0,0,0],"split_type":[0,0,0,0,0,0,0,0,0,0,0,0,0,0,0,0,0,0,0,0,0,0,0,0,0,0,0,0,0,0,0,0,0,0,0,0,0,0,0,0,0,0,0,0,0,0,0,0,0,0,0,0,0,0,0,0,0,0,0,0,0,0,0,0,0,0,0,0,0,0,0,0,0,0,0,0,0,0,0,0,0,0,0,0,0,0,0,0,0,0,0,0,0,0,0,0,0,0,0,0,0,0,0,0,0,0,0,0,0,0,0,0,0,0,0,0,0,0,0,0,0,0,0],"sum_hessian":[1.358506E6,1.307931E6,5.0575E4,1.172988E6,1.34943E5,4.5505E4,5.07E3,1.102771E6,7.0217E4,8.7917E4,4.7026E4,3.0151E4,1.5354E4,4.542E3,5.28E2,8.2985E5,2.72921E5,5.9751E4,1.0466E4,6.2592E4,2.5325E4,3.1597E4,1.5429E4,2.0304E4,9.847E3,1.0319E4,5.035E3,2.347E3,2.195E3,4.51E2,7.7E1,4.15996E5,4.13854E5,1.9804E5,7.4881E4,4.7399E4,1.2352E4,8.46E3,2.006E3,3.8325E4,2.4267E4,2.4018E4,1.307E3,1.8279E4,1.3318E4,1.3921E4,1.508E3,1.4673E4,5.631E3,6.523E3,3.324E3,5.185E3,5.134E3,3.561E3,1.474E3,2.196E3,1.51E2,1.675E3,5.2E2,2.07E2,2.44E2,2.8E1,4.9E1,2.93413E5,1.22583E5,2.60871E5,1.52983E5,1.03165E5,9.4875E4,6.6253E4,8.628E3,3.417E4,1.3229E4,1.0337E4,2.015E3,5.619E3,2.841E3,1.524E3,4.82E2,4.44E2,3.7881E4,2.0279E4,3.988E3,2.2149E4,1.869E3,1.185E3,1.22E2,1.4996E4,3.283E3,1.1219E4,2.099E3,1.3485E4,4.36E2,7.41E2,7.67E2,7.182E3,7.491E3,4.949E3,6.82E2,5.298E3,1.225E3,3.247E3,7.7E1,3.416E3,1.769E3,3.793E3,1.341E3,3.082E3,4.79E2,1.343E3,1.31E2,1.844E3,3.52E2,1.02E2,4.9E1,1.1E2,1.565E3,2.04E2,3.16E2,1.41E2,6.6E1,2.3E2,1.4E1],"tree_param":{"num_deleted":"0","num_feature":"197","num_nodes":"123","size_leaf_vector":"1"}},{"base_weights":[4.4546924E-3,-3.718293E0,7.849008E1,-6.7864356E0,1.3957002E1,6.5673454E1,2.2012265E2,-7.757077E0,1.221463E1,8.007788E0,2.4034494E1,5.2477364E1,1.0104347E2,2.0985326E2,3.1147943E2,-8.829941E0,-3.7232025E0,1.0031217E1,3.4698994E1,5.4812255E0,2.2281603E1,1.9879677E1,3.3017086E1,4.500062E1,6.52223E1,9.028645E1,1.231157E2,1.8130147E2,2.4054411E2,3.0195065E2,3.666793E2,-9.522001E0,-3.410761E0,-1.5007067E0,-5.282008E0,8.176009E0,1.7487703E1,3.0620365E1,6.141088E1,3.1652632E0,1.059886E1,1.8775263E1,3.680238E1,1.5602575E1,2.5807978E1,3.1416496E1,5.7831287E1,4.019329E1,5.373623E1,6.007906E1,7.408079E1,8.312338E1,9.7489105E1,1.1766495E2,1.3202528E2,1.7086732E2,3.2623856E2,2.192738E2,3.1270557E2,3.2793854E2,2.7910458E2,2.491661E1,3.9370486E2,-8.3059925E-1,-1.2637286E0,-3.6077464E-1,2.6636667E0,-2.8730837E-1,7.765346E-2,-4.81314E-1,-1.18837E0,6.6773814E-1,1.0616324E0,1.5238948E0,1.988767E0,2.6914184E0,3.757906E0,5.7732673E0,1.2039275E1,6.768817E-2,1.1195388E0,8.822691E-1,1.5744456E0,1.7302771E0,2.5510292E0,3.2311223E0,5.616775E0,1.4239708E0,2.2227314E0,2.4683132E0,3.5663965E0,2.7715805E0,3.826758E0,5.2183166E0,8.516486E0,3.6527817E0,4.570001E0,5.2449126E0,8.710318E0,5.6450887E0,6.7569733E0,7.2919517E0,1.1899549E1,8.20489E0,1.3055796E1,9.223772E0,1.0651496E1,1.1518611E1,1.3407494E1,1.2973926E1,1.5779933E1,1.6156664E1,2.0153103E1,2.8352182E1,4.0632065E1,2.6810652E1,2.0421858E1,2.0506643E1,3.847388E1,2.9427393E1,4.147531E1,3.0609787E1,2.4534065E1,1.9872538E1,4.0487972E1],"categories":[],"categories_nodes":[],"categories_segments":[],"categories_sizes":[],"default_left":[0,0,0,0,0,0,0,0,0,0,0,0,0,0,0,0,0,0,0,0,0,0,0,0,0,0,0,0,0,0,0,0,0,0,0,0,0,0,0,0,0,0,0,0,0,0,0,0,0,0,0,0,0,0,0,0,0,0,0,0,0,0,0,0,0,0,0,0,0,0,0,0,0,0,0,0,0,0,0,0,0,0,0,0,0,0,0,0,0,0,0,0,0,0,0,0,0,0,0,0,0,0,0,0,0,0,0,0,0,0,0,0,0,0,0,0,0,0,0,0,0,0,0,0,0],"id":6,"left_children":[1,3,5,7,9,11,13,15,17,19,21,23,25,27,29,31,33,35,37,39,41,43,45,47,49,51,53,55,57,59,61,63,65,67,69,71,73,75,77,79,81,83,85,87,89,91,93,95,97,99,101,103,105,107,109,111,113,115,117,119,121,-1,123,-1,-1,-1,-1,-1,-1,-1,-1,-1,-1,-1,-1,-1,-1,-1,-1,-1,-1,-1,-1,-1,-1,-1,-1,-1,-1,-1,-1,-1,-1,-1,-1,-1,-1,-1,-1,-1,-1,-1,-1,-1,-1,-1,-1,-1,-1,-1,-1,-1,-1,-1,-1,-1,-1,-1,-1,-1,-1,-1,-1,-1,-1],"loss_changes":[3.9711856E8,7.036931E7,1.1171066E8,2.0392264E7,1.1506432E7,2.6338768E7,4.725856E6,4.552544E6,2.6377385E6,4.3521845E6,2.65824E6,3.914256E6,3.629872E6,3.981984E6,1.59568E5,3.116308E6,7.6563575E5,6.77439E5,5.162665E5,1.2152468E6,9.23356E5,1.234808E6,8.93004E5,1.086004E6,6.87936E5,5.24008E5,2.28328E5,3.549512E6,3.325048E6,1.7202E5,1.27324E5,2.791196E6,5.570624E5,2.847331E5,4.02008E5,1.4337825E5,5.235675E4,1.05444E5,1.294915E5,1.4105615E6,2.9181825E5,1.44555E5,3.051035E5,2.55199E5,2.25444E5,5.35596E5,2.06121E5,3.3577E5,3.90314E5,2.57616E5,2.8224E5,2.53176E5,2.3364E5,1.11648E5,9.1328E4,6.02244E5,4.28646E5,1.203104E6,3.805596E6,4.6824E5,1.46318E5,0E0,4.1497E4,0E0,0E0,0E0,0E0,0E0,0E0,0E0,0E0,0E0,0E0,0E0,0E0,0E0,0E0,0E0,0E0,0E0,0E0,0E0,0E0,0E0,0E0,0E0,0E0,0E0,0E0,0E0,0E0,0E0,0E0,0E0,0E0,0E0,0E0,0E0,0E0,0E0,0E0,0E0,0E0,0E0,0E0,0E0,0E0,0E0,0E0,0E0,0E0,0E0,0E0,0E0,0E0,0E0,0E0,0E0,0E0,0E0,0E0,0E0,0E0,0E0,0E0],"parents":[2147483647,0,0,1,1,2,2,3,3,4,4,5,5,6,6,7,7,8,8,9,9,10,10,11,11,12,12,13,13,14,14,15,15,16,16,17,17,18,18,19,19,20,20,21,21,22,22,23,23,24,24,25,25,26,26,27,27,28,28,29,29,30,30,31,31,32,32,33,33,34,34,35,35,36,36,37,37,38,38,39,39,40,40,41,41,42,42,43,43,44,44,45,45,46,46,47,47,48,48,49,49,50,50,51,51,52,52,53,53,54,54,55,55,56,56,57,57,58,58,59,59,60,60,62,62],"right_children":[2,4,6,8,10,12,14,16,18,20,22,24,26,28,30,32,34,36,38,40,42,44,46,48,50,52,54,56,58,60,62,64,66,68,70,72,74,76,78,80,82,84,86,88,90,92,94,96,98,100,102,104,106,108,110,112,114,116,118,120,122,-1,124,-1,-1,-1,-1,-1,-1,-1,-1,-1,-1,-1,-1,-1,-1,-1,-1,-1,-1,-1,-1,-1,-1,-1,-1,-1,-1,-1,-1,-1,-1,-1,-1,-1,-1,-1,-1,-1,-1,-1,-1,-1,-1,-1,-1,-1,-1,-1,-1,-1,-1,-1,-1,-1,-1,-1,-1,-1,-1,-1,-1,-1,-1],"split_conditions":[1.5670669E0,1.1159358E0,6.604582E0,-1.0123707E-1,5.798153E-1,3.490942E0,1.6744196E1,1.3959397E0,3.132464E0,4.1321537E-1,-1.0123707E-1,2.453062E0,4.959162E0,6.660666E0,1.0897838E0,6.929541E-1,2.2034338E-1,1.8830795E0,6.2191787E0,-1.5150891E-1,2.397532E0,1.0101558E0,5.0432873E0,-1.0123707E-1,-1.0123707E-1,4.0731673E0,-1.0123707E-1,3.4684536E1,1.0485922E0,-8.256257E-1,-9.7985286E-1,-2.3023729E-1,-9.918862E-2,-1.7813292E-1,1.7793456E0,1.2216406E0,2.3240387E0,4.3083553E0,1.0996237E1,3.8654944E-1,7.871414E-1,7.018096E-1,4.6023283E0,1.3417984E0,2.0866327E0,1.0860982E0,3.1781626E-1,2.0227215E0,8.423975E0,3.0606015E0,6.137248E0,4.068416E0,-1.0123707E-1,9.789651E0,3.8506446E0,1.3330923E1,5.3700188E1,-6.6672415E-1,-1.1544459E0,1.5858687E0,-4.9742043E-1,2.491661E1,-5.875E-1,-8.3059925E-1,-1.2637286E0,-3.6077464E-1,2.6636667E0,-2.8730837E-1,7.765346E-2,-4.81314E-1,-1.18837E0,6.6773814E-1,1.0616324E0,1.5238948E0,1.988767E0,2.6914184E0,3.757906E0,5.7732673E0,1.2039275E1,6.768817E-2,1.1195388E0,8.822691E-1,1.5744456E0,1.7302771E0,2.5510292E0,3.2311223E0,5.616775E0,1.4239708E0,2.2227314E0,2.4683132E0,3.5663965E0,2.7715805E0,3.826758E0,5.2183166E0,8.516486E0,3.6527817E0,4.570001E0,5.2449126E0,8.710318E0,5.6450887E0,6.7569733E0,7.2919517E0,1.1899549E1,8.20489E0,1.3055796E1,9.223772E0,1.0651496E1,1.1518611E1,1.3407494E1,1.2973926E1,1.5779933E1,1.6156664E1,2.0153103E1,2.8352182E1,4.0632065E1,2.6810652E1,2.0421858E1,2.0506643E1,3.847388E1,2.9427393E1,4.147531E1,3.0609787E1,2.4534065E1,1.9872538E1,4.0487972E1],"split_indices":[178,179,178,163,178,178,165,177,163,163,163,178,178,161,146,149,181,163,163,165,163,178,163,163,163,178,163,162,146,146,151,178,161,149,181,163,163,163,163,161,165,165,163,165,161,178,165,178,163,178,149,149,163,165,149,165,162,151,151,172,154,0,48,0,0,0,0,0,0,0,0,0,0,0,0,0,0,0,0,0,0,0,0,0,0,0,0,0,0,0,0,0,0,0,0,0,0,0,0,0,0,0,0,0,0,0,0,0,0,0,0,0,0,0,0,0,0,0,0,0,0,0,0,0,0],"split_type":[0,0,0,0,0,0,0,0,0,0,0,0,0,0,0,0,0,0,0,0,0,0,0,0,0,0,0,0,0,0,0,0,0,0,0,0,0,0,0,0,0,0,0,0,0,0,0,0,0,0,0,0,0,0,0,0,0,0,0,0,0,0,0,0,0,0,0,0,0,0,0,0,0,0,0,0,0,0,0,0,0,0,0,0,0,0,0,0,0,0,0,0,0,0,0,0,0,0,0,0,0,0,0,0,0,0,0,0,0,0,0,0,0,0,0,0,0,0,0,0,0,0,0,0,0],"sum_hessian":[1.359145E6,1.297598E6,6.1547E4,1.105672E6,1.91926E5,5.6441E4,5.106E3,1.051936E6,5.3736E4,1.20683E5,7.1243E4,4.1107E4,1.5334E4,4.593E3,5.13E2,8.30936E5,2.21E5,4.8981E4,4.755E3,1.02535E5,1.8148E4,4.8714E4,2.2529E4,2.5911E4,1.5196E4,1.0313E4,5.021E3,2.383E3,2.21E3,4.43E2,7E1,7.36837E5,9.4099E4,9.1106E4,1.29894E5,3.9224E4,9.757E3,4.127E3,6.28E2,7.0591E4,3.1944E4,1.462E4,3.528E3,2.83E4,2.0414E4,2.1166E4,1.363E3,1.6717E4,9.194E3,9.619E3,5.577E3,5.177E3,5.136E3,3.124E3,1.897E3,2.225E3,1.58E2,1.71E3,5E2,2.01E2,2.42E2,1.5E1,5.5E1,5.29973E5,2.06864E5,9.3487E4,6.12E2,5.6847E4,3.4259E4,1.21282E5,8.612E3,2.4303E4,1.4921E4,5.041E3,4.716E3,2.696E3,1.431E3,5.93E2,3.5E1,5.3892E4,1.6699E4,2.3749E4,8.195E3,1.2E4,2.62E3,2.866E3,6.62E2,2.3474E4,4.826E3,1.8326E4,2.088E3,1.3746E4,7.42E3,1.132E3,2.31E2,1.0041E4,6.676E3,8.855E3,3.39E2,6.486E3,3.133E3,5.439E3,1.38E2,5.065E3,1.12E2,3.254E3,1.882E3,2.721E3,4.03E2,1.748E3,1.49E2,1.712E3,5.13E2,1.06E2,5.2E1,3.99E2,1.311E3,2.02E2,2.98E2,1.48E2,5.3E1,1.3E2,1.12E2,4E0,5.1E1],"tree_param":{"num_deleted":"0","num_feature":"197","num_nodes":"125","size_leaf_vector":"1"}},{"base_weights":[1.5380542E-2,-3.00133E0,7.7918365E1,-5.570081E0,1.7493805E1,6.463062E1,1.9716568E2,-6.6192827E0,1.1449083E1,1.1959857E1,2.7679037E1,5.4113457E1,9.786459E1,1.8871367E2,2.5900803E2,-9.195801E0,-4.377846E0,9.270982E0,2.9122286E1,8.459097E0,2.0723196E1,2.4498299E1,3.7752354E1,4.6015743E1,6.5691376E1,8.684768E1,1.1095829E2,2.4005634E2,1.7998196E2,1.8577837E2,3.5565485E2,-7.7291074E0,-1.1687578E1,-5.457539E0,-2.0308265E-1,7.9875617E0,1.5451579E1,2.5470919E1,5.276396E1,5.5545764E0,1.1928692E1,1.9098024E1,4.1561234E1,2.0111012E1,2.9088781E1,3.6269875E1,6.559588E1,4.1696617E1,5.3705116E1,6.1832397E1,7.6317764E1,8.534288E1,1.1463539E2,1.0687477E2,1.208232E2,1.7810028E2,3.6032568E2,2.1753555E2,1.6304948E2,1.4208974E2,2.3802257E2,3.0882272E2,4.10654E1,-9.201789E-1,-5.087938E-1,-1.2555993E0,-6.017955E-1,-3.810149E-1,-7.6727444E-1,-6.284844E-2,7.260706E-1,6.62962E-1,9.7270167E-1,1.362318E0,2.0887878E0,2.2021735E0,3.1404314E0,4.779274E0,8.187399E0,3.3226308E-1,9.0837526E-1,1.0540565E0,1.7507343E0,1.758713E0,2.6079977E0,3.8323352E0,7.4370484E0,1.8961095E0,2.7927942E0,2.804099E0,3.833236E0,3.3037472E0,4.616349E0,6.0046306E0,1.0084315E1,3.7919266E0,4.5344725E0,5.2730603E0,9.594676E0,5.7780437E0,6.836877E0,7.4663057E0,1.199179E1,8.466175E0,1.22318535E1,1.0119788E1,1.32215605E1,1.089284E1,1.0300908E1,1.19485E1,1.825946E1,3.5328434E1,1.621265E1,1.5190996E1,3.964854E1,1.6378897E1,3.5941845E1,1.4090405E1,1.7563328E1,1.2249152E1,1.5619768E1,2.5860249E1,1.9017607E1,3.5278492E1,2.6426651E1],"categories":[],"categories_nodes":[],"categories_segments":[],"categories_sizes":[],"default_left":[0,0,0,0,0,0,0,0,0,0,0,0,0,0,0,0,0,0,0,0,0,0,0,0,0,0,0,0,0,0,0,0,0,0,0,0,0,0,0,0,0,0,0,0,0,0,0,0,0,0,0,0,0,0,0,0,0,0,0,0,0,0,0,0,0,0,0,0,0,0,0,0,0,0,0,0,0,0,0,0,0,0,0,0,0,0,0,0,0,0,0,0,0,0,0,0,0,0,0,0,0,0,0,0,0,0,0,0,0,0,0,0,0,0,0,0,0,0,0,0,0,0,0,0,0],"id":7,"left_children":[1,3,5,7,9,11,13,15,17,19,21,23,25,27,29,31,33,35,37,39,41,43,45,47,49,51,53,55,57,59,61,63,65,67,69,71,73,75,77,79,81,83,85,87,89,91,93,95,97,99,101,103,105,107,109,111,113,115,117,119,121,123,-1,-1,-1,-1,-1,-1,-1,-1,-1,-1,-1,-1,-1,-1,-1,-1,-1,-1,-1,-1,-1,-1,-1,-1,-1,-1,-1,-1,-1,-1,-1,-1,-1,-1,-1,-1,-1,-1,-1,-1,-1,-1,-1,-1,-1,-1,-1,-1,-1,-1,-1,-1,-1,-1,-1,-1,-1,-1,-1,-1,-1,-1,-1],"loss_changes":[3.1938006E8,6.888004E7,8.026576E7,2.076048E7,8.212932E6,1.5928224E7,2.605824E6,6.324336E6,2.598536E6,2.89644E6,1.64272E6,3.243688E6,1.57092E6,1.961584E6,4.236936E6,1.861868E6,2.639745E6,4.766535E5,6.38053E5,6.798515E5,9.11907E5,7.8468E5,5.05692E5,6.74632E5,5.79616E5,2.39204E5,1.88592E5,4.756836E6,2.397344E6,7.60443E5,5.45376E5,1.247372E6,9.29334E5,1.697995E6,3.820933E5,1.1750125E5,1.02429E5,1.3065E5,1.393395E5,2.8926462E5,2.37883E5,2.63292E5,2.041855E5,1.78703E5,1.83443E5,3.72284E5,1.1540075E5,1.78174E5,2.96542E5,2.73048E5,2.64604E5,1.31996E5,5.817575E4,1.692E4,9.8592E4,1.143165E6,1.590154E6,8.985188E6,7.112E5,3.39255E4,1.0537E5,1.90733E5,0E0,0E0,0E0,0E0,0E0,0E0,0E0,0E0,0E0,0E0,0E0,0E0,0E0,0E0,0E0,0E0,0E0,0E0,0E0,0E0,0E0,0E0,0E0,0E0,0E0,0E0,0E0,0E0,0E0,0E0,0E0,0E0,0E0,0E0,0E0,0E0,0E0,0E0,0E0,0E0,0E0,0E0,0E0,0E0,0E0,0E0,0E0,0E0,0E0,0E0,0E0,0E0,0E0,0E0,0E0,0E0,0E0,0E0,0E0,0E0,0E0,0E0,0E0],"parents":[2147483647,0,0,1,1,2,2,3,3,4,4,5,5,6,6,7,7,8,8,9,9,10,10,11,11,12,12,13,13,14,14,15,15,16,16,17,17,18,18,19,19,20,20,21,21,22,22,23,23,24,24,25,25,26,26,27,27,28,28,29,29,30,30,31,31,32,32,33,33,34,34,35,35,36,36,37,37,38,38,39,39,40,40,41,41,42,42,43,43,44,44,45,45,46,46,47,47,48,48,49,49,50,50,51,51,52,52,53,53,54,54,55,55,56,56,57,57,58,58,59,59,60,60,61,61],"right_children":[2,4,6,8,10,12,14,16,18,20,22,24,26,28,30,32,34,36,38,40,42,44,46,48,50,52,54,56,58,60,62,64,66,68,70,72,74,76,78,80,82,84,86,88,90,92,94,96,98,100,102,104,106,108,110,112,114,116,118,120,122,124,-1,-1,-1,-1,-1,-1,-1,-1,-1,-1,-1,-1,-1,-1,-1,-1,-1,-1,-1,-1,-1,-1,-1,-1,-1,-1,-1,-1,-1,-1,-1,-1,-1,-1,-1,-1,-1,-1,-1,-1,-1,-1,-1,-1,-1,-1,-1,-1,-1,-1,-1,-1,-1,-1,-1,-1,-1,-1,-1,-1,-1,-1,-1],"split_conditions":[1.8708367E0,3.4918082E-1,6.604582E0,-1.0123707E-1,9.983676E-1,3.93173E0,1.4048996E0,-3.0000594E-1,2.764998E0,-1.0123707E-1,2.6622894E-1,2.7315176E0,4.959162E0,-6.119377E-1,-1.1486129E0,5.125674E-1,-3.5522435E-2,1.8095863E0,5.704726E0,6.136643E-1,3.49993E0,1.2632972E0,6.5866446E0,-1.0123707E-1,3.3972216E-1,2.4351282E0,2.6622894E-1,-1.9987581E0,-8.6681736E-1,-1.6593928E0,-6.43978E-1,-6.9247045E-2,8.511252E-1,4.8043662E-1,-9.918862E-2,1.2565472E-2,-3.5522435E-2,3.7939029E0,9.085414E0,-9.918862E-2,9.127657E-1,1.672927E0,6.9541106E0,1.7223291E0,2.5723708E0,1.672927E0,9.893839E0,2.2252347E0,6.137248E0,3.378719E0,5.8063946E0,4.367768E0,2.764998E0,7.273954E-1,8.204105E0,5.645909E-1,-1.6185641E0,4.0275034E-1,1.1562867E0,-2.2059429E0,1.853888E0,1.7138367E0,4.10654E1,-9.201789E-1,-5.087938E-1,-1.2555993E0,-6.017955E-1,-3.810149E-1,-7.6727444E-1,-6.284844E-2,7.260706E-1,6.62962E-1,9.7270167E-1,1.362318E0,2.0887878E0,2.2021735E0,3.1404314E0,4.779274E0,8.187399E0,3.3226308E-1,9.0837526E-1,1.0540565E0,1.7507343E0,1.758713E0,2.6079977E0,3.8323352E0,7.4370484E0,1.8961095E0,2.7927942E0,2.804099E0,3.833236E0,3.3037472E0,4.616349E0,6.0046306E0,1.0084315E1,3.7919266E0,4.5344725E0,5.2730603E0,9.594676E0,5.7780437E0,6.836877E0,7.4663057E0,1.199179E1,8.466175E0,1.22318535E1,1.0119788E1,1.32215605E1,1.089284E1,1.0300908E1,1.19485E1,1.825946E1,3.5328434E1,1.621265E1,1.5190996E1,3.964854E1,1.6378897E1,3.5941845E1,1.4090405E1,1.7563328E1,1.2249152E1,1.5619768E1,2.5860249E1,1.9017607E1,3.5278492E1,2.6426651E1],"split_indices":[178,148,178,163,148,148,146,148,163,163,163,178,178,147,147,181,148,163,163,148,163,178,163,163,163,149,163,150,146,150,147,149,152,181,161,148,148,163,163,161,161,149,163,161,161,149,163,178,149,148,152,152,163,181,152,146,146,150,147,147,146,146,0,0,0,0,0,0,0,0,0,0,0,0,0,0,0,0,0,0,0,0,0,0,0,0,0,0,0,0,0,0,0,0,0,0,0,0,0,0,0,0,0,0,0,0,0,0,0,0,0,0,0,0,0,0,0,0,0,0,0,0,0,0,0],"split_type":[0,0,0,0,0,0,0,0,0,0,0,0,0,0,0,0,0,0,0,0,0,0,0,0,0,0,0,0,0,0,0,0,0,0,0,0,0,0,0,0,0,0,0,0,0,0,0,0,0,0,0,0,0,0,0,0,0,0,0,0,0,0,0,0,0,0,0,0,0,0,0,0,0,0,0,0,0,0,0,0,0,0,0,0,0,0,0,0,0,0,0,0,0,0,0,0,0,0,0,0,0,0,0,0,0,0,0,0,0,0,0,0,0,0,0,0,0,0,0,0,0,0,0,0,0],"sum_hessian":[1.359E6,1.308337E6,5.0663E4,1.162621E6,1.45716E5,4.5585E4,5.078E3,1.09511E6,6.7511E4,9.4418E4,5.1298E4,3.4629E4,1.0956E4,4.471E3,6.07E2,5.09472E5,5.85638E5,6.0105E4,7.406E3,6.7468E4,2.695E4,3.899E4,1.2308E4,2.038E4,1.4249E4,5.954E3,5.002E3,6.46E2,3.825E3,3.47E2,2.6E2,3.20705E5,1.88767E5,4.653E5,1.20338E5,4.9772E4,1.0333E4,6.417E3,9.89E2,3.6726E4,3.0742E4,2.5002E4,1.948E3,1.9939E4,1.9051E4,1.1688E4,6.2E2,1.3054E4,7.326E3,1.0458E4,3.791E3,5.652E3,3.02E2,3.546E3,1.456E3,4.28E2,2.18E2,1.185E3,2.64E3,1.91E2,1.56E2,1.44E2,1.16E2,2.05897E5,1.14808E5,1.63693E5,2.5074E4,2.66852E5,1.98448E5,1.1385E5,6.488E3,2.7954E4,2.1818E4,7.735E3,2.598E3,4.061E3,2.356E3,8.47E2,1.42E2,2.2499E4,1.4227E4,2.4619E4,6.123E3,2.0557E4,4.445E3,1.775E3,1.73E2,1.7385E4,2.554E3,1.7115E4,1.936E3,8.813E3,2.875E3,5.38E2,8.2E1,6.419E3,6.635E3,7.163E3,1.63E2,6.462E3,3.996E3,3.655E3,1.36E2,5.553E3,9.9E1,1.75E2,1.27E2,2.298E3,1.248E3,1.428E3,2.8E1,3.4E1,3.94E2,3.3E1,1.85E2,8.61E2,3.24E2,9.61E2,1.679E3,8.4E1,1.07E2,1.06E2,5E1,6.9E1,7.5E1],"tree_param":{"num_deleted":"0","num_feature":"197","num_nodes":"125","size_leaf_vector":"1"}},{"base_weights":[2.7916192E-3,-3.0872817E0,6.1751675E1,-5.5675554E0,1.0635075E1,5.2042866E1,1.7681161E2,9.848007E0,-6.157213E0,6.103568E0,1.8734533E1,3.936031E1,7.656869E1,1.6844156E2,2.5195688E2,9.195411E0,2.793122E1,-8.294107E0,-4.1597085E0,5.1107183E0,1.7947412E1,1.7599531E1,3.5597565E1,3.3591682E1,4.6680126E1,6.820504E1,9.82248E1,1.450853E2,1.9349434E2,2.0094318E1,2.578981E2,9.125923E0,5.0649952E1,2.4489508E1,4.3006645E1,-9.462301E0,-5.7135143E0,-4.509287E0,1.1210437E1,3.0319223E0,9.929375E0,1.5151817E1,3.5116524E1,1.4204736E1,2.2061398E1,3.1587305E1,5.6160294E1,3.242145E1,5.360423E1,4.5002045E1,6.1035084E1,6.3112442E1,7.7205765E1,9.570048E1,1.124432E2,1.3662708E2,2.6746817E2,1.760707E2,2.4911871E2,2.15197E2,2.6421542E2,8.66706E-1,1.4122905E0,3.8592317E0,7.5845027E0,2.1860235E0,2.921605E0,3.9671247E0,5.085277E0,-1.2513403E0,-8.5533714E-1,-6.4023346E-1,2.41229E-2,-5.7753557E-1,-2.3099974E-1,1.0480474E0,3.6810193E0,5.5909216E-2,9.5907384E-1,8.5779095E-1,1.5145308E0,1.3143754E0,1.9366468E0,3.098771E0,5.0938354E0,1.2564019E0,2.0306547E0,2.0387766E0,2.9529881E0,2.9075792E0,3.756949E0,5.243919E0,7.9621506E0,3.072677E0,3.966851E0,4.995958E0,8.470717E0,4.314943E0,5.2790775E0,5.85156E0,9.241943E0,6.185493E0,9.188329E0,7.5311594E0,9.595214E0,9.248683E0,1.0846236E1,1.1007062E1,1.6447481E1,1.2843135E1,1.644122E1,2.3328146E1,3.2992485E1,2.6639154E1,1.6864435E1,1.5968002E1,3.093852E1,2.2381046E1,1.4715468E1,2.593669E1,3.1889334E1],"categories":[],"categories_nodes":[],"categories_segments":[],"categories_sizes":[],"default_left":[0,0,0,0,0,0,0,0,0,0,0,0,0,0,0,0,0,0,0,0,0,0,0,0,0,0,0,0,0,0,0,0,0,0,0,0,0,0,0,0,0,0,0,0,0,0,0,0,0,0,0,0,0,0,0,0,0,0,0,0,0,0,0,0,0,0,0,0,0,0,0,0,0,0,0,0,0,0,0,0,0,0,0,0,0,0,0,0,0,0,0,0,0,0,0,0,0,0,0,0,0,0,0,0,0,0,0,0,0,0,0,0,0,0,0,0,0,0,0,0,0],"id":8,"left_children":[1,3,5,7,9,11,13,15,17,19,21,23,25,27,29,31,33,35,37,39,41,43,45,47,49,51,53,55,57,-1,59,61,63,65,67,69,71,73,75,77,79,81,83,85,87,89,91,93,95,97,99,101,103,105,107,109,111,113,115,117,119,-1,-1,-1,-1,-1,-1,-1,-1,-1,-1,-1,-1,-1,-1,-1,-1,-1,-1,-1,-1,-1,-1,-1,-1,-1,-1,-1,-1,-1,-1,-1,-1,-1,-1,-1,-1,-1,-1,-1,-1,-1,-1,-1,-1,-1,-1,-1,-1,-1,-1,-1,-1,-1,-1,-1,-1,-1,-1,-1,-1],"loss_changes":[2.5928978E8,4.4046308E7,7.233608E7,9.962904E6,7.270882E6,1.8574144E7,3.126896E6,4.7626525E5,4.50598E6,1.493719E6,1.359656E6,1.660784E6,3.680248E6,2.626664E6,1.00582E5,1.1180275E5,7.189075E4,1.5375E6,2.931731E6,1.1740618E6,4.71042E5,1.00836E6,3.67729E5,5.1397E5,4.1516E5,6.68368E5,1.92688E5,2.398068E6,2.074728E6,0E0,6.3674E4,8.909575E4,1.6808062E4,1.3610375E4,4.7777188E3,9.73558E5,6.51925E5,1.485469E6,2.26356E5,1.3280895E6,2.48879E5,7.1265375E4,8.823575E4,3.7838E5,3.59028E5,5.527225E4,5.954175E4,2.54314E5,1.334865E5,2.21902E5,1.37935E5,3.33884E5,1.81058E5,1.87668E5,8.6676E4,4.80292E5,2.45391E5,1.073848E6,2.74804E6,3.951E3,1.93E4,0E0,0E0,0E0,0E0,0E0,0E0,0E0,0E0,0E0,0E0,0E0,0E0,0E0,0E0,0E0,0E0,0E0,0E0,0E0,0E0,0E0,0E0,0E0,0E0,0E0,0E0,0E0,0E0,0E0,0E0,0E0,0E0,0E0,0E0,0E0,0E0,0E0,0E0,0E0,0E0,0E0,0E0,0E0,0E0,0E0,0E0,0E0,0E0,0E0,0E0,0E0,0E0,0E0,0E0,0E0,0E0,0E0,0E0,0E0,0E0],"parents":[2147483647,0,0,1,1,2,2,3,3,4,4,5,5,6,6,7,7,8,8,9,9,10,10,11,11,12,12,13,13,14,14,15,15,16,16,17,17,18,18,19,19,20,20,21,21,22,22,23,23,24,24,25,25,26,26,27,27,28,28,30,30,31,31,32,32,33,33,34,34,35,35,36,36,37,37,38,38,39,39,40,40,41,41,42,42,43,43,44,44,45,45,46,46,47,47,48,48,49,49,50,50,51,51,52,52,53,53,54,54,55,55,56,56,57,57,58,58,59,59,60,60],"right_children":[2,4,6,8,10,12,14,16,18,20,22,24,26,28,30,32,34,36,38,40,42,44,46,48,50,52,54,56,58,-1,60,62,64,66,68,70,72,74,76,78,80,82,84,86,88,90,92,94,96,98,100,102,104,106,108,110,112,114,116,118,120,-1,-1,-1,-1,-1,-1,-1,-1,-1,-1,-1,-1,-1,-1,-1,-1,-1,-1,-1,-1,-1,-1,-1,-1,-1,-1,-1,-1,-1,-1,-1,-1,-1,-1,-1,-1,-1,-1,-1,-1,-1,-1,-1,-1,-1,-1,-1,-1,-1,-1,-1,-1,-1,-1,-1,-1,-1,-1,-1,-1],"split_conditions":[1.5754225E0,1.3278525E-1,6.604582E0,-1.396668E-1,6.857962E-1,3.0606015E0,1.6744196E1,6.5727916E0,-3.0000594E-1,1.4551553E0,1.8906988E0,2.2005653E0,4.749224E0,6.660666E0,-1.1162966E0,2.7844412E0,1.0492683E1,3.963883E-2,-9.918862E-2,-1.5150891E-1,4.286188E0,1.0704994E0,5.157275E0,2.3262422E0,1.4551553E0,3.93173E0,1.1284976E0,3.4684536E1,1.0341752E0,2.0094318E1,7.78965E-2,4.1773024E0,5.005896E0,8.314965E0,1.3432602E1,-4.202257E-1,1.5640411E0,-6.9247045E-2,7.913312E-1,1.0320224E-1,8.2980734E-1,2.544014E0,7.770536E0,1.2564666E0,2.109785E0,1.2147632E0,9.839368E0,3.0484354E0,7.4438787E0,4.285747E0,6.246134E0,2.8706717E0,1.672927E0,9.149662E0,7.2261066E0,1.3330923E1,5.3700188E1,-8.1896466E-1,-1.2621357E0,1.5340713E0,2.5723708E0,8.66706E-1,1.4122905E0,3.8592317E0,7.5845027E0,2.1860235E0,2.921605E0,3.9671247E0,5.085277E0,-1.2513403E0,-8.5533714E-1,-6.4023346E-1,2.41229E-2,-5.7753557E-1,-2.3099974E-1,1.0480474E0,3.6810193E0,5.5909216E-2,9.5907384E-1,8.5779095E-1,1.5145308E0,1.3143754E0,1.9366468E0,3.098771E0,5.0938354E0,1.2564019E0,2.0306547E0,2.0387766E0,2.9529881E0,2.9075792E0,3.756949E0,5.243919E0,7.9621506E0,3.072677E0,3.966851E0,4.995958E0,8.470717E0,4.314943E0,5.2790775E0,5.85156E0,9.241943E0,6.185493E0,9.188329E0,7.5311594E0,9.595214E0,9.248683E0,1.0846236E1,1.1007062E1,1.6447481E1,1.2843135E1,1.644122E1,2.3328146E1,3.2992485E1,2.6639154E1,1.6864435E1,1.5968002E1,3.093852E1,2.2381046E1,1.4715468E1,2.593669E1,3.1889334E1],"split_indices":[148,148,178,161,148,178,165,149,148,149,149,148,148,161,184,162,149,149,161,165,149,148,149,149,149,148,149,162,146,0,193,149,162,149,149,148,149,149,161,161,165,149,149,165,165,148,149,165,149,165,149,149,149,165,149,165,162,150,150,187,161,0,0,0,0,0,0,0,0,0,0,0,0,0,0,0,0,0,0,0,0,0,0,0,0,0,0,0,0,0,0,0,0,0,0,0,0,0,0,0,0,0,0,0,0,0,0,0,0,0,0,0,0,0,0,0,0,0,0,0,0],"split_type":[0,0,0,0,0,0,0,0,0,0,0,0,0,0,0,0,0,0,0,0,0,0,0,0,0,0,0,0,0,0,0,0,0,0,0,0,0,0,0,0,0,0,0,0,0,0,0,0,0,0,0,0,0,0,0,0,0,0,0,0,0,0,0,0,0,0,0,0,0,0,0,0,0,0,0,0,0,0,0,0,0,0,0,0,0,0,0,0,0,0,0,0,0,0,0,0,0,0,0,0,0,0,0,0,0,0,0,0,0,0,0,0,0,0,0,0,0,0,0,0,0],"sum_hessian":[1.358898E6,1.294137E6,6.4761E4,1.096033E6,1.98104E5,5.9723E4,5.038E3,4.0379E4,1.055654E6,1.27033E5,7.1071E4,3.9368E4,2.0355E4,4.536E3,5.02E2,3.8974E4,1.405E3,5.1003E5,5.45624E5,1.17209E5,9.824E3,6.6591E4,4.48E3,2.202E4,1.7348E4,1.4687E4,5.668E3,2.351E3,2.185E3,5.6E1,4.46E2,3.891E4,6.4E1,1.146E3,2.59E2,3.51093E5,1.58937E5,5.33491E5,1.2133E4,8.1885E4,3.5324E4,8.45E3,1.374E3,3.782E4,2.8771E4,3.751E3,7.29E2,2.0806E4,1.214E3,1.5536E4,1.812E3,9.385E3,5.302E3,4.82E3,8.48E2,2.201E3,1.5E2,1.667E3,5.18E2,6.2E1,3.84E2,3.564E4,3.27E3,4.5E1,1.9E1,7.4E2,4.06E2,1.86E2,7.3E1,8.0582E4,2.70511E5,1.42458E5,1.6479E4,3.38579E5,1.94912E5,1.1798E4,3.35E2,5.9466E4,2.2419E4,2.8057E4,7.267E3,5.726E3,2.724E3,1.092E3,2.82E2,2.9808E4,8.012E3,2.3507E4,5.264E3,2.646E3,1.105E3,6.32E2,9.7E1,1.6867E4,3.939E3,1.089E3,1.25E2,1.2556E4,2.98E3,1.68E3,1.32E2,8.995E3,3.9E2,4.82E3,4.82E2,3.857E3,9.63E2,8.14E2,3.4E1,1.704E3,4.97E2,1E2,5E1,1.24E2,1.543E3,2.1E2,3.08E2,5.3E1,9E0,3.58E2,2.6E1],"tree_param":{"num_deleted":"0","num_feature":"197","num_nodes":"121","size_leaf_vector":"1"}},{"base_weights":[4.4209557E-3,-2.5671663E0,6.0108105E1,-4.6155047E0,1.2881624E1,5.0190166E1,1.5997443E2,-5.4370894E0,9.199482E0,8.40646E0,2.0300928E1,3.991154E1,7.37475E1,1.5220166E2,2.292903E2,-6.9040303E0,-2.8811858E0,6.759533E0,2.15933E1,6.163548E0,1.868788E1,1.6922623E1,2.734959E1,3.514124E1,4.955566E1,6.604238E1,8.955217E1,1.3134181E2,1.7422386E2,2.2140224E2,2.7684137E2,-7.290656E0,8.222893E-1,-3.8566234E0,6.394019E-2,5.315416E0,9.931736E0,1.8330431E1,3.8419025E1,4.5851893E0,1.1408882E1,1.68455E1,3.4874367E1,1.3854699E1,2.1121819E1,2.6470137E1,5.745924E1,3.2287132E1,4.3666298E1,4.618814E1,5.775427E1,6.160901E1,7.3586494E1,8.5691864E1,9.701102E1,1.2401122E2,2.4268843E2,2.1639145E2,1.5950298E2,2.5108981E2,2.0512428E2,1.7771744E1,3.2686768E1,-5.440642E-1,-9.025874E-1,-1.1857944E-1,6.1062324E-1,-1.9088434E-1,-5.399207E-1,1.4042127E-1,-1.8438603E-1,3.7659857E-1,6.6170746E-1,8.348247E-1,1.506233E0,1.6404688E0,2.3844507E0,3.608673E0,8.038702E0,2.1665795E-1,1.0971502E0,9.5546687E-1,1.4406017E0,1.3059094E0,2.041489E0,3.2817295E0,7.0972605E0,1.2689501E0,2.0019403E0,1.9891795E0,2.732907E0,2.5299695E0,4.0904713E0,5.395799E0,1.0513228E1,3.066806E0,4.0073147E0,4.2504864E0,8.181561E0,4.4893074E0,5.414142E0,5.6352487E0,9.954711E0,5.6325707E0,6.6884727E0,7.219172E0,1.1539739E1,8.288866E0,9.506436E0,9.612933E0,1.604472E1,1.1681081E1,1.629819E1,2.0982117E1,3.0336487E1,1.4818187E1,2.5520008E1,3.0310135E1,1.5525085E1,2.0197237E1,3.0503897E1,2.2473528E1,1.879077E1],"categories":[],"categories_nodes":[],"categories_segments":[],"categories_sizes":[],"default_left":[0,0,0,0,0,0,0,0,0,0,0,0,0,0,0,0,0,0,0,0,0,0,0,0,0,0,0,0,0,0,0,0,0,0,0,0,0,0,0,0,0,0,0,0,0,0,0,0,0,0,0,0,0,0,0,0,0,0,0,0,0,0,0,0,0,0,0,0,0,0,0,0,0,0,0,0,0,0,0,0,0,0,0,0,0,0,0,0,0,0,0,0,0,0,0,0,0,0,0,0,0,0,0,0,0,0,0,0,0,0,0,0,0,0,0,0,0,0,0,0,0,0,0],"id":9,"left_children":[1,3,5,7,9,11,13,15,17,19,21,23,25,27,29,31,33,35,37,39,41,43,45,47,49,51,53,55,57,59,61,63,65,67,69,71,73,75,77,79,81,83,85,87,89,91,93,95,97,99,101,103,105,107,109,111,113,115,117,119,121,-1,-1,-1,-1,-1,-1,-1,-1,-1,-1,-1,-1,-1,-1,-1,-1,-1,-1,-1,-1,-1,-1,-1,-1,-1,-1,-1,-1,-1,-1,-1,-1,-1,-1,-1,-1,-1,-1,-1,-1,-1,-1,-1,-1,-1,-1,-1,-1,-1,-1,-1,-1,-1,-1,-1,-1,-1,-1,-1,-1,-1,-1],"loss_changes":[2.1009394E8,4.1248944E7,5.523235E7,1.3063164E7,5.066512E6,1.2281864E7,2.679408E6,4.072962E6,1.953495E6,2.194924E6,1.36668E6,1.623392E6,1.870768E6,2.059456E6,1.2845E5,2.061728E6,1.1379948E6,2.4722525E5,5.82659E5,6.4688525E5,5.077475E5,4.99737E5,4.91E5,5.73728E5,3.20014E5,3.42084E5,1.3702E5,1.873332E6,1.332328E6,1.60598E5,2.790575E5,2.109984E6,3.4901156E5,8.94078E5,2.5201264E5,7.478831E4,1.3704962E5,9.413225E4,1.659335E5,9.278006E5,1.00303E5,2.06593E5,1.2694125E5,1.608665E5,1.245445E5,3.04315E5,8.227575E4,2.22056E5,2.59079E5,8.2946E4,1.93505E5,1.78344E5,2.15062E5,7.9724E4,8.0416E4,5.9546E5,2.21476E5,1.46306E6,9.51836E5,3.38467E5,5.5306E4,0E0,0E0,0E0,0E0,0E0,0E0,0E0,0E0,0E0,0E0,0E0,0E0,0E0,0E0,0E0,0E0,0E0,0E0,0E0,0E0,0E0,0E0,0E0,0E0,0E0,0E0,0E0,0E0,0E0,0E0,0E0,0E0,0E0,0E0,0E0,0E0,0E0,0E0,0E0,0E0,0E0,0E0,0E0,0E0,0E0,0E0,0E0,0E0,0E0,0E0,0E0,0E0,0E0,0E0,0E0,0E0,0E0,0E0,0E0,0E0,0E0,0E0],"parents":[2147483647,0,0,1,1,2,2,3,3,4,4,5,5,6,6,7,7,8,8,9,9,10,10,11,11,12,12,13,13,14,14,15,15,16,16,17,17,18,18,19,19,20,20,21,21,22,22,23,23,24,24,25,25,26,26,27,27,28,28,29,29,30,30,31,31,32,32,33,33,34,34,35,35,36,36,37,37,38,38,39,39,40,40,41,41,42,42,43,43,44,44,45,45,46,46,47,47,48,48,49,49,50,50,51,51,52,52,53,53,54,54,55,55,56,56,57,57,58,58,59,59,60,60],"right_children":[2,4,6,8,10,12,14,16,18,20,22,24,26,28,30,32,34,36,38,40,42,44,46,48,50,52,54,56,58,60,62,64,66,68,70,72,74,76,78,80,82,84,86,88,90,92,94,96,98,100,102,104,106,108,110,112,114,116,118,120,122,-1,-1,-1,-1,-1,-1,-1,-1,-1,-1,-1,-1,-1,-1,-1,-1,-1,-1,-1,-1,-1,-1,-1,-1,-1,-1,-1,-1,-1,-1,-1,-1,-1,-1,-1,-1,-1,-1,-1,-1,-1,-1,-1,-1,-1,-1,-1,-1,-1,-1,-1,-1,-1,-1,-1,-1,-1,-1,-1,-1,-1,-1],"split_conditions":[1.7189518E0,3.0109292E-1,6.604582E0,-1.0123707E-1,8.7814784E-1,3.490942E0,1.6744196E1,-2.5191802E-1,2.3240387E0,3.3972216E-1,-1.0123707E-1,2.6574004E0,4.959162E0,6.660666E0,1.059506E0,1.6503621E0,-1.1478482E-2,1.3686271E0,4.7493143E0,6.591436E-1,3.426437E0,1.286895E0,6.5866446E0,3.3972216E-1,1.9273575E-1,-1.0123707E-1,-2.774387E-2,3.4684536E1,-5.8790743E-1,-8.959338E-1,-1.0462741E0,2.2034338E-1,3.0889888E0,2.5150472E-1,6.0019684E-1,-3.5522435E-2,-5.956639E-2,-5.956639E-2,9.893839E0,5.4846215E-1,1.043137E0,-2.2062314E-1,7.836029E0,1.4389819E0,2.4511125E0,3.0884433E0,1.1241206E1,3.688424E0,5.8063946E0,5.2670636E0,5.966242E0,4.0731673E0,5.3750467E0,9.149662E0,9.16319E0,1.8492544E1,5.3700188E1,-1.5491166E0,-1.6691058E0,6.635986E-1,-9.5836973E-1,1.7771744E1,3.2686768E1,-5.440642E-1,-9.025874E-1,-1.1857944E-1,6.1062324E-1,-1.9088434E-1,-5.399207E-1,1.4042127E-1,-1.8438603E-1,3.7659857E-1,6.6170746E-1,8.348247E-1,1.506233E0,1.6404688E0,2.3844507E0,3.608673E0,8.038702E0,2.1665795E-1,1.0971502E0,9.5546687E-1,1.4406017E0,1.3059094E0,2.041489E0,3.2817295E0,7.0972605E0,1.2689501E0,2.0019403E0,1.9891795E0,2.732907E0,2.5299695E0,4.0904713E0,5.395799E0,1.0513228E1,3.066806E0,4.0073147E0,4.2504864E0,8.181561E0,4.4893074E0,5.414142E0,5.6352487E0,9.954711E0,5.6325707E0,6.6884727E0,7.219172E0,1.1539739E1,8.288866E0,9.506436E0,9.612933E0,1.604472E1,1.1681081E1,1.629819E1,2.0982117E1,3.0336487E1,1.4818187E1,2.5520008E1,3.0310135E1,1.5525085E1,2.0197237E1,3.0503897E1,2.2473528E1,1.879077E1],"split_indices":[178,148,178,163,148,178,165,148,163,163,163,148,178,161,153,152,148,163,163,165,163,148,163,163,163,163,163,162,147,153,151,181,152,181,181,148,148,148,163,161,165,161,163,161,165,149,152,165,152,165,152,178,149,165,152,163,162,147,153,151,154,0,0,0,0,0,0,0,0,0,0,0,0,0,0,0,0,0,0,0,0,0,0,0,0,0,0,0,0,0,0,0,0,0,0,0,0,0,0,0,0,0,0,0,0,0,0,0,0,0,0,0,0,0,0,0,0,0,0,0,0,0,0],"split_type":[0,0,0,0,0,0,0,0,0,0,0,0,0,0,0,0,0,0,0,0,0,0,0,0,0,0,0,0,0,0,0,0,0,0,0,0,0,0,0,0,0,0,0,0,0,0,0,0,0,0,0,0,0,0,0,0,0,0,0,0,0,0,0,0,0,0,0,0,0,0,0,0,0,0,0,0,0,0,0,0,0,0,0,0,0,0,0,0,0,0,0,0,0,0,0,0,0,0,0,0,0,0,0,0,0,0,0,0,0,0,0,0,0,0,0,0,0,0,0,0,0,0,0],"sum_hessian":[1.359285E6,1.303514E6,5.5771E4,1.150916E6,1.52598E5,5.0734E4,5.037E3,1.086313E6,6.4603E4,9.5186E4,5.7412E4,3.5324E4,1.541E4,4.532E3,5.05E2,6.90185E5,3.96128E5,5.3978E4,1.0625E4,7.8141E4,1.7045E4,3.8813E4,1.8599E4,2.3637E4,1.1687E4,1.0363E4,5.047E3,2.331E3,2.201E3,4.38E2,6.7E1,6.57294E5,3.2891E4,2.97571E5,9.8557E4,3.7094E4,1.6884E4,8.901E3,1.724E3,6.0068E4,1.8073E4,1.5305E4,1.74E3,2.243E4,1.6383E4,1.8073E4,5.26E2,1.7712E4,5.925E3,8.289E3,3.398E3,6.533E3,3.83E3,3.334E3,1.713E3,2.189E3,1.42E2,5.66E2,1.635E3,1.5E2,2.88E2,2.4E1,4.3E1,3.18126E5,3.39168E5,2.3834E4,9.057E3,1.31514E5,1.66057E5,5.7889E4,4.0668E4,1.6937E4,2.0157E4,1.2904E4,3.98E3,6.6E3,2.301E3,1.635E3,8.9E1,4.3569E4,1.6499E4,1.1168E4,6.905E3,7.429E3,7.876E3,1.648E3,9.2E1,1.8867E4,3.563E3,1.3677E4,2.706E3,1.672E4,1.353E3,4.92E2,3.4E1,1.4667E4,3.045E3,5.752E3,1.73E2,7.134E3,1.155E3,3.29E3,1.08E2,3.27E3,3.263E3,3.709E3,1.21E2,2.574E3,7.6E2,1.692E3,2.1E1,1.851E3,3.38E2,9.5E1,4.7E1,2.07E2,3.59E2,4.5E1,1.59E3,8.1E1,6.9E1,1.29E2,1.59E2],"tree_param":{"num_deleted":"0","num_feature":"197","num_nodes":"123","size_leaf_vector":"1"}},{"base_weights":[7.352475E-3,-2.522195E0,4.9683125E1,-4.5678034E0,8.233445E0,4.181497E1,1.4432472E2,-5.155657E0,8.147033E0,4.779102E0,1.5026548E1,3.164478E1,6.2147755E1,1.3673764E2,2.1120288E2,-7.6831017E0,-4.0541873E0,6.4886785E0,2.3567492E1,3.1284618E0,1.6055899E1,1.255126E1,2.2299126E1,2.693042E1,3.7914577E1,5.535508E1,7.974014E1,1.1827905E2,1.5663931E2,2.0633621E2,2.6660367E2,-8.487559E0,-3.5100415E0,-4.8764577E0,-1.0845304E0,5.1625433E0,1.1956561E1,2.10698E1,4.600665E1,1.6526183E0,6.979897E0,1.3644912E1,2.776065E1,1.109044E1,1.9040308E1,2.0939245E1,4.106244E1,2.438608E1,3.520906E1,3.520731E1,4.6142075E1,5.1941715E1,6.457215E1,7.58325E1,8.7200775E1,1.12836296E2,2.4275424E2,1.9521286E2,1.4294348E2,1.8217926E2,2.1498051E2,2.7859106E2,1.3174861E1,-8.100688E-1,-1.6922687E0,-4.6256644E-1,3.889619E-1,-4.5235878E-1,-1.1918362E0,-8.305283E-3,-5.3649026E-1,3.5082307E-1,6.717574E-1,1.1336044E0,1.6012957E0,1.780393E0,2.5298824E0,4.3273015E0,1.0803624E1,4.4836797E-2,8.2250875E-1,5.57751E-1,1.0083086E0,1.0342125E0,1.6492103E0,2.5304787E0,4.857805E0,8.9165586E-1,1.7623758E0,1.7430938E0,2.2812119E0,1.8114802E0,2.6430519E0,3.8584E0,8.726025E0,2.2943246E0,3.0131822E0,3.384843E0,6.1320205E0,3.274892E0,3.9168446E0,4.52367E0,9.106509E0,4.7698283E0,5.946312E0,6.229231E0,9.238806E0,7.320516E0,8.598818E0,8.618289E0,1.4497333E1,1.0385132E1,1.3616611E1,2.0207602E1,2.7485083E1,1.4247988E1,2.3242712E1,1.6382936E1,1.13120165E1,1.8677505E1,1.1463674E1,2.425572E1,2.0474087E1,1.3997934E1,2.9240332E1],"categories":[],"categories_nodes":[],"categories_segments":[],"categories_sizes":[],"default_left":[0,0,0,0,0,0,0,0,0,0,0,0,0,0,0,0,0,0,0,0,0,0,0,0,0,0,0,0,0,0,0,0,0,0,0,0,0,0,0,0,0,0,0,0,0,0,0,0,0,0,0,0,0,0,0,0,0,0,0,0,0,0,0,0,0,0,0,0,0,0,0,0,0,0,0,0,0,0,0,0,0,0,0,0,0,0,0,0,0,0,0,0,0,0,0,0,0,0,0,0,0,0,0,0,0,0,0,0,0,0,0,0,0,0,0,0,0,0,0,0,0,0,0,0,0],"id":10,"left_children":[1,3,5,7,9,11,13,15,17,19,21,23,25,27,29,31,33,35,37,39,41,43,45,47,49,51,53,55,57,59,61,63,65,67,69,71,73,75,77,79,81,83,85,87,89,91,93,95,97,99,101,103,105,107,109,111,113,115,117,119,121,123,-1,-1,-1,-1,-1,-1,-1,-1,-1,-1,-1,-1,-1,-1,-1,-1,-1,-1,-1,-1,-1,-1,-1,-1,-1,-1,-1,-1,-1,-1,-1,-1,-1,-1,-1,-1,-1,-1,-1,-1,-1,-1,-1,-1,-1,-1,-1,-1,-1,-1,-1,-1,-1,-1,-1,-1,-1,-1,-1,-1,-1,-1,-1],"loss_changes":[1.7074027E8,2.8447078E7,4.9020544E7,8.119786E6,4.848155E6,1.2567856E7,2.535032E6,2.890568E6,1.2274815E6,2.5493868E6,1.253463E6,1.196696E6,2.417352E6,1.649608E6,8.3258E4,1.057972E6,1.765874E6,3.14245E5,2.60255E5,6.7910875E5,4.93128E5,4.923605E5,4.50357E5,4.86401E5,3.8569E5,4.5672E5,1.57884E5,1.571446E6,1.124804E6,6.0194E4,2.468425E4,8.62096E5,4.2051475E5,1.407258E6,6.722345E5,8.972244E4,2.1110125E4,5.7498125E4,7.4327625E4,6.8367644E5,1.4398475E5,1.36208E5,1.5142175E5,6.022745E5,5.755075E4,2.55289E5,1.33332E5,1.46023E5,1.910435E5,1.26162E5,1.70838E5,3.37926E5,2.44595E5,9.271E4,1.01156E5,4.602E5,7.2363E4,1.083462E6,9.86778E5,1.9533E4,4.7712E4,2.412075E4,0E0,0E0,0E0,0E0,0E0,0E0,0E0,0E0,0E0,0E0,0E0,0E0,0E0,0E0,0E0,0E0,0E0,0E0,0E0,0E0,0E0,0E0,0E0,0E0,0E0,0E0,0E0,0E0,0E0,0E0,0E0,0E0,0E0,0E0,0E0,0E0,0E0,0E0,0E0,0E0,0E0,0E0,0E0,0E0,0E0,0E0,0E0,0E0,0E0,0E0,0E0,0E0,0E0,0E0,0E0,0E0,0E0,0E0,0E0,0E0,0E0,0E0,0E0],"parents":[2147483647,0,0,1,1,2,2,3,3,4,4,5,5,6,6,7,7,8,8,9,9,10,10,11,11,12,12,13,13,14,14,15,15,16,16,17,17,18,18,19,19,20,20,21,21,22,22,23,23,24,24,25,25,26,26,27,27,28,28,29,29,30,30,31,31,32,32,33,33,34,34,35,35,36,36,37,37,38,38,39,39,40,40,41,41,42,42,43,43,44,44,45,45,46,46,47,47,48,48,49,49,50,50,51,51,52,52,53,53,54,54,55,55,56,56,57,57,58,58,59,59,60,60,61,61],"right_children":[2,4,6,8,10,12,14,16,18,20,22,24,26,28,30,32,34,36,38,40,42,44,46,48,50,52,54,56,58,60,62,64,66,68,70,72,74,76,78,80,82,84,86,88,90,92,94,96,98,100,102,104,106,108,110,112,114,116,118,120,122,124,-1,-1,-1,-1,-1,-1,-1,-1,-1,-1,-1,-1,-1,-1,-1,-1,-1,-1,-1,-1,-1,-1,-1,-1,-1,-1,-1,-1,-1,-1,-1,-1,-1,-1,-1,-1,-1,-1,-1,-1,-1,-1,-1,-1,-1,-1,-1,-1,-1,-1,-1,-1,-1,-1,-1,-1,-1,-1,-1,-1,-1,-1,-1],"split_conditions":[1.4658104E0,1.0874129E-1,6.604582E0,2.6622894E-1,6.857962E-1,3.0606015E0,1.6744196E1,-3.4809384E-1,3.132464E0,5.6020176E-1,1.1924254E-1,2.2005653E0,4.749224E0,6.660666E0,2.0866327E0,6.912778E-1,2.574106E-1,1.9565727E0,6.5866446E0,-1.5150891E-1,2.6915047E0,1.6404599E0,5.0432873E0,4.1321537E-1,4.1321537E-1,3.3972216E-1,-2.774387E-2,4.330378E1,-5.7989734E-1,-3.959047E-1,1.1818181E0,1.6485841E0,2.769294E0,1.6190716E0,9.4234383E-1,1.1481475E0,-2.2062314E-1,4.087876E0,1.2392608E1,4.6750578E-1,7.018096E-1,-2.2062314E-1,5.998699E0,1.2365911E0,2.195117E0,1.1711347E0,9.893839E0,3.0057695E0,5.266161E0,2.6574004E0,7.0851736E0,3.93173E0,4.1773024E0,9.149662E0,8.044258E0,9.276678E-1,-1.0264591E0,-1.4289654E0,-1.2667668E-1,-2.3809524E-1,-2.5148425E-1,-1.2830279E0,1.3174861E1,-8.100688E-1,-1.6922687E0,-4.6256644E-1,3.889619E-1,-4.5235878E-1,-1.1918362E0,-8.305283E-3,-5.3649026E-1,3.5082307E-1,6.717574E-1,1.1336044E0,1.6012957E0,1.780393E0,2.5298824E0,4.3273015E0,1.0803624E1,4.4836797E-2,8.2250875E-1,5.57751E-1,1.0083086E0,1.0342125E0,1.6492103E0,2.5304787E0,4.857805E0,8.9165586E-1,1.7623758E0,1.7430938E0,2.2812119E0,1.8114802E0,2.6430519E0,3.8584E0,8.726025E0,2.2943246E0,3.0131822E0,3.384843E0,6.1320205E0,3.274892E0,3.9168446E0,4.52367E0,9.106509E0,4.7698283E0,5.946312E0,6.229231E0,9.238806E0,7.320516E0,8.598818E0,8.618289E0,1.4497333E1,1.0385132E1,1.3616611E1,2.0207602E1,2.7485083E1,1.4247988E1,2.3242712E1,1.6382936E1,1.13120165E1,1.8677505E1,1.1463674E1,2.425572E1,2.0474087E1,1.3997934E1,2.9240332E1],"split_indices":[178,148,178,163,148,178,165,148,163,163,163,148,148,161,161,152,149,163,163,165,163,165,163,163,163,163,163,162,147,149,64,181,152,181,183,163,161,163,163,161,165,161,163,161,165,165,163,165,149,148,152,148,149,165,152,163,147,147,153,81,147,173,0,0,0,0,0,0,0,0,0,0,0,0,0,0,0,0,0,0,0,0,0,0,0,0,0,0,0,0,0,0,0,0,0,0,0,0,0,0,0,0,0,0,0,0,0,0,0,0,0,0,0,0,0,0,0,0,0,0,0,0,0,0,0],"split_type":[0,0,0,0,0,0,0,0,0,0,0,0,0,0,0,0,0,0,0,0,0,0,0,0,0,0,0,0,0,0,0,0,0,0,0,0,0,0,0,0,0,0,0,0,0,0,0,0,0,0,0,0,0,0,0,0,0,0,0,0,0,0,0,0,0,0,0,0,0,0,0,0,0,0,0,0,0,0,0,0,0,0,0,0,0,0,0,0,0,0,0,0,0,0,0,0,0,0,0,0,0,0,0,0,0,0,0,0,0,0,0,0,0,0,0,0,0,0,0,0,0,0,0,0,0],"sum_hessian":[1.358776E6,1.292939E6,6.5837E4,1.086331E6,2.06608E5,6.0785E4,5.052E3,1.038326E6,4.8005E4,1.36963E5,6.9645E4,4.052E4,2.0265E4,4.54E3,5.12E2,3.15157E5,7.23169E5,4.3345E4,4.66E3,1.19476E5,1.7487E4,5.1962E4,1.7683E4,2.3132E4,1.7388E4,1.4623E4,5.642E3,2.359E3,2.181E3,4.75E2,3.7E1,2.64221E5,5.0936E4,5.66351E5,1.56818E5,3.4886E4,8.459E3,4.195E3,4.65E2,8.6378E4,3.3098E4,1.4502E4,2.985E3,4.2416E4,9.546E3,1.649E4,1.193E3,1.7697E4,5.435E3,1.3087E4,4.301E3,1.0676E4,3.947E3,3.71E3,1.932E3,2.262E3,9.7E1,5.68E2,1.613E3,1.31E2,3.44E2,3.3E1,4E0,2.52636E5,1.1585E4,4.4263E4,6.673E3,5.39327E5,2.7024E4,1.27085E5,2.9733E4,1.6905E4,1.7981E4,7.34E3,1.119E3,2.37E3,1.825E3,4.47E2,1.8E1,7.3003E4,1.3375E4,2.2798E4,1.03E4,6.716E3,7.786E3,2.672E3,3.13E2,3.1828E4,1.0588E4,6.695E3,2.851E3,1.0892E4,5.598E3,1.134E3,5.9E1,1.4149E4,3.548E3,5.168E3,2.67E2,8.081E3,5.006E3,4.218E3,8.3E1,6.83E3,3.846E3,3.651E3,2.96E2,2.954E3,7.56E2,1.901E3,3.1E1,1.637E3,6.25E2,4.6E1,5.1E1,2.37E2,3.31E2,9.46E2,6.67E2,1.21E2,1E1,8.7E1,2.57E2,4E0,2.9E1],"tree_param":{"num_deleted":"0","num_feature":"197","num_nodes":"125","size_leaf_vector":"1"}},{"base_weights":[2.1288674E-3,-1.9397664E0,5.2819633E1,-3.5663238E0,1.2586551E1,4.3378563E1,1.2844777E2,-4.2926464E0,7.697169E0,8.901867E0,1.9163088E1,3.654616E1,6.398122E1,1.2216475E2,1.8604454E2,-5.1912413E0,-6.7080945E-1,5.6899834E0,1.7571354E1,6.404494E0,1.5004666E1,1.6280252E1,2.4907513E1,3.2161316E1,4.5256676E1,5.6593964E1,7.128211E1,1.0554554E2,1.4064656E2,2.1380368E2,1.762472E2,-4.021657E0,-7.293268E0,3.0329007E-1,-3.047923E0,4.547942E0,8.047795E0,1.574819E1,3.73968E1,5.1077657E0,1.1387788E1,1.3976598E1,3.3569996E1,1.3799722E1,1.9423183E1,2.3828396E1,4.4660774E1,2.8844938E1,3.8027225E1,4.1372177E1,5.1873325E1,5.5799465E1,8.855941E1,7.052485E1,1.0433064E1,1.3056995E2,9.7012474E1,1.2813452E2,1.8174155E2,1.6495387E2,2.4448706E2,2.059445E2,1.5843616E2,-5.4448026E-1,-2.0540619E-1,-6.7917556E-1,-1.5115768E0,-1.1175989E-1,1.7672119E-1,-1.2157738E0,-2.519054E-1,3.0126086E-1,5.913262E-1,6.7055416E-1,1.4269027E0,1.3725656E0,2.15385E0,3.5259132E0,8.607753E0,3.0636692E-1,1.0807799E0,1.0392354E0,1.5786637E0,1.3226255E0,2.4744499E0,2.8556926E0,4.9564047E0,1.2650265E0,1.9556767E0,1.8294805E0,2.658949E0,2.2778509E0,4.324822E0,4.0699625E0,8.519107E0,2.7391346E0,3.635445E0,3.686569E0,6.2624245E0,4.0030704E0,5.2421145E0,5.106041E0,1.10028E1,5.3974247E0,6.719842E0,8.261806E0,1.2740708E1,6.876593E0,8.610477E0,1.7490131E1,1.1555339E1,8.66539E0,1.261799E1,2.0979752E1,1.2135094E1,1.2671376E1,2.5241901E1,3.1041891E1,1.4377337E1,2.742179E1,1.8376776E1,1.4644361E1,2.5441267E1,1.32811E1,1.8069939E1],"categories":[],"categories_nodes":[],"categories_segments":[],"categories_sizes":[],"default_left":[0,0,0,0,0,0,0,0,0,0,0,0,0,0,0,0,0,0,0,0,0,0,0,0,0,0,0,0,0,0,0,0,0,0,0,0,0,0,0,0,0,0,0,0,0,0,0,0,0,0,0,0,0,0,0,0,0,0,0,0,0,0,0,0,0,0,0,0,0,0,0,0,0,0,0,0,0,0,0,0,0,0,0,0,0,0,0,0,0,0,0,0,0,0,0,0,0,0,0,0,0,0,0,0,0,0,0,0,0,0,0,0,0,0,0,0,0,0,0,0,0,0,0,0,0],"id":11,"left_children":[1,3,5,7,9,11,13,15,17,19,21,23,25,27,29,31,33,35,37,39,41,43,45,47,49,51,53,55,57,59,61,63,65,67,69,71,73,75,77,79,81,83,85,87,89,91,93,95,97,99,101,103,105,107,-1,109,111,113,115,117,119,121,123,-1,-1,-1,-1,-1,-1,-1,-1,-1,-1,-1,-1,-1,-1,-1,-1,-1,-1,-1,-1,-1,-1,-1,-1,-1,-1,-1,-1,-1,-1,-1,-1,-1,-1,-1,-1,-1,-1,-1,-1,-1,-1,-1,-1,-1,-1,-1,-1,-1,-1,-1,-1,-1,-1,-1,-1,-1,-1,-1,-1,-1,-1],"loss_changes":[1.3936042E8,3.0965672E7,3.439829E7,9.641949E6,3.197782E6,6.027776E6,1.912224E6,3.603416E6,1.4149375E6,1.289028E6,7.84348E5,1.22732E6,5.7126E5,1.466832E6,1.04788E5,2.180894E6,5.0963875E5,1.5974E5,4.3535125E5,3.878075E5,4.683075E5,2.45743E5,3.36426E5,4.1526E5,2.74658E5,1.29824E5,1.26792E5,5.30546E5,1.149532E6,1.57481E5,1.75208E5,1.595991E6,1.244028E6,3.247426E5,3.0819312E5,8.3782E4,1.6157562E5,1.290735E5,1.02576875E5,5.54934E5,5.4099375E4,1.87714E5,1.01847625E5,1.164815E5,1.12046E5,3.05144E5,1.28007875E5,1.48293E5,2.18444E5,9.8547E4,1.8252E5,1.04154E5,1.87655E4,1.37768E5,0E0,4.08474E5,5.63398E5,9.45058E5,2.029266E6,1.21699875E5,9.2176E4,3.77984E5,1.18595E5,0E0,0E0,0E0,0E0,0E0,0E0,0E0,0E0,0E0,0E0,0E0,0E0,0E0,0E0,0E0,0E0,0E0,0E0,0E0,0E0,0E0,0E0,0E0,0E0,0E0,0E0,0E0,0E0,0E0,0E0,0E0,0E0,0E0,0E0,0E0,0E0,0E0,0E0,0E0,0E0,0E0,0E0,0E0,0E0,0E0,0E0,0E0,0E0,0E0,0E0,0E0,0E0,0E0,0E0,0E0,0E0,0E0,0E0,0E0,0E0,0E0,0E0],"parents":[2147483647,0,0,1,1,2,2,3,3,4,4,5,5,6,6,7,7,8,8,9,9,10,10,11,11,12,12,13,13,14,14,15,15,16,16,17,17,18,18,19,19,20,20,21,21,22,22,23,23,24,24,25,25,26,26,27,27,28,28,29,29,30,30,31,31,32,32,33,33,34,34,35,35,36,36,37,37,38,38,39,39,40,40,41,41,42,42,43,43,44,44,45,45,46,46,47,47,48,48,49,49,50,50,51,51,52,52,53,53,55,55,56,56,57,57,58,58,59,59,60,60,61,61,62,62],"right_children":[2,4,6,8,10,12,14,16,18,20,22,24,26,28,30,32,34,36,38,40,42,44,46,48,50,52,54,56,58,60,62,64,66,68,70,72,74,76,78,80,82,84,86,88,90,92,94,96,98,100,102,104,106,108,-1,110,112,114,116,118,120,122,124,-1,-1,-1,-1,-1,-1,-1,-1,-1,-1,-1,-1,-1,-1,-1,-1,-1,-1,-1,-1,-1,-1,-1,-1,-1,-1,-1,-1,-1,-1,-1,-1,-1,-1,-1,-1,-1,-1,-1,-1,-1,-1,-1,-1,-1,-1,-1,-1,-1,-1,-1,-1,-1,-1,-1,-1,-1,-1,-1,-1,-1,-1],"split_conditions":[2.0082138E0,4.213127E-1,6.3120813E0,-1.0123707E-1,1.0704994E0,3.93173E0,1.6744196E1,-1.557422E-1,2.2505455E0,-1.0123707E-1,-1.0123707E-1,2.969972E0,4.749224E0,6.660666E0,-2.0142126E-1,5.687401E-1,5.6586146E-1,1.2951338E0,5.704726E0,9.151392E-1,4.161369E0,1.4792466E0,3.5685308E0,-1.0123707E-1,-1.0123707E-1,1.46708975E1,1.8492544E1,3.604822E-1,1.0341752E0,-1.1791166E0,-1.0727754E0,-1.7813292E-1,1.8623315E0,1.2565472E-2,5.0732625E-1,3.6609426E-2,-1.8014497E-1,3.6469164E0,1.0996237E1,7.1037483E-1,1.5124621E0,3.0884433E0,1.8981847E-1,1.7223291E0,2.5723708E0,4.1773024E0,1.0441969E1,4.1150837E0,4.0480733E0,6.03505E0,8.683647E0,7.4856915E0,1.8492544E1,9.789651E0,1.0433064E1,-4.1372257E-1,1.3330923E1,-8.1896466E-1,-1.0704942E0,8.504243E-3,1.6355726E0,5.4551834E-1,1.3785663E0,-5.4448026E-1,-2.0540619E-1,-6.7917556E-1,-1.5115768E0,-1.1175989E-1,1.7672119E-1,-1.2157738E0,-2.519054E-1,3.0126086E-1,5.913262E-1,6.7055416E-1,1.4269027E0,1.3725656E0,2.15385E0,3.5259132E0,8.607753E0,3.0636692E-1,1.0807799E0,1.0392354E0,1.5786637E0,1.3226255E0,2.4744499E0,2.8556926E0,4.9564047E0,1.2650265E0,1.9556767E0,1.8294805E0,2.658949E0,2.2778509E0,4.324822E0,4.0699625E0,8.519107E0,2.7391346E0,3.635445E0,3.686569E0,6.2624245E0,4.0030704E0,5.2421145E0,5.106041E0,1.10028E1,5.3974247E0,6.719842E0,8.261806E0,1.2740708E1,6.876593E0,8.610477E0,1.7490131E1,1.1555339E1,8.66539E0,1.261799E1,2.0979752E1,1.2135094E1,1.2671376E1,2.5241901E1,3.1041891E1,1.4377337E1,2.742179E1,1.8376776E1,1.4644361E1,2.5441267E1,1.32811E1,1.8069939E1],"split_indices":[148,148,148,163,148,148,165,148,163,163,163,148,148,161,147,181,157,163,163,165,163,148,152,163,163,163,163,165,146,151,146,149,181,148,158,148,161,163,163,161,165,149,165,161,161,149,152,165,152,165,152,165,163,165,0,150,165,150,150,146,146,147,147,0,0,0,0,0,0,0,0,0,0,0,0,0,0,0,0,0,0,0,0,0,0,0,0,0,0,0,0,0,0,0,0,0,0,0,0,0,0,0,0,0,0,0,0,0,0,0,0,0,0,0,0,0,0,0,0,0,0,0,0,0,0],"split_type":[0,0,0,0,0,0,0,0,0,0,0,0,0,0,0,0,0,0,0,0,0,0,0,0,0,0,0,0,0,0,0,0,0,0,0,0,0,0,0,0,0,0,0,0,0,0,0,0,0,0,0,0,0,0,0,0,0,0,0,0,0,0,0,0,0,0,0,0,0,0,0,0,0,0,0,0,0,0,0,0,0,0,0,0,0,0,0,0,0,0,0,0,0,0,0,0,0,0,0,0,0,0,0,0,0,0,0,0,0,0,0,0,0,0,0,0,0,0,0,0,0,0,0,0,0],"sum_hessian":[1.358736E6,1.310553E6,4.8183E4,1.178584E6,1.31969E5,4.2837E4,5.346E3,1.107188E6,7.1396E4,8.4582E4,4.7387E4,3.2171E4,1.0666E4,4.823E3,5.23E2,8.87095E5,2.20093E5,5.9336E4,1.206E4,6.0022E4,2.456E4,3.1555E4,1.5832E4,2.1402E4,1.0769E4,5.306E3,5.36E3,2.543E3,2.28E3,1.31E2,3.92E2,5.69965E5,3.1713E5,1.56119E5,6.3974E4,3.9976E4,1.936E4,1.1046E4,1.014E3,4.763E4,1.2392E4,2.3273E4,1.287E3,1.7639E4,1.3916E4,1.5014E4,8.18E2,1.3676E4,7.726E3,6.79E3,3.979E3,5.18E3,1.26E2,5.243E3,1.17E2,6.43E2,1.9E3,1.751E3,5.29E2,5.3E1,7.8E1,1.43E2,2.49E2,3.30741E5,2.39224E5,2.98025E5,1.9105E4,7.9224E4,7.6895E4,3.509E3,6.0465E4,1.8818E4,2.1158E4,1.5926E4,3.434E3,8.189E3,2.857E3,9.73E2,4.1E1,3.5059E4,1.2571E4,1.0108E4,2.284E3,2.1759E4,1.514E3,9.82E2,3.05E2,1.4706E4,2.933E3,1.2026E4,1.89E3,1.4246E4,7.68E2,7.47E2,7.1E1,1.1462E4,2.214E3,7.38E3,3.46E2,6.059E3,7.31E2,3.926E3,5.3E1,4.47E3,7.1E2,1.12E2,1.4E1,4.716E3,5.27E2,1.6E2,4.83E2,1.405E3,4.95E2,1.32E2,1.619E3,2.99E2,2.3E2,5E0,4.8E1,5E1,2.8E1,6.6E1,7.7E1,1.19E2,1.3E2],"tree_param":{"num_deleted":"0","num_feature":"197","num_nodes":"125","size_leaf_vector":"1"}},{"base_weights":[5.2261626E-4,-2.0272021E0,4.062275E1,-3.7586017E0,6.534195E0,3.4137913E1,1.16918816E2,-4.214111E0,6.5935917E0,3.558148E0,1.1920826E1,2.7046074E1,5.2962406E1,1.11014885E2,1.6839539E2,-4.7275987E0,-4.5434352E-2,5.258688E0,1.9499016E1,2.2681746E0,1.3398927E1,1.0087141E1,1.9197906E1,2.239356E1,3.2836052E1,4.7559494E1,6.538919E1,9.604177E1,1.2684715E2,1.636445E2,2.2941477E1,-7.5857573E0,-3.9188597E0,-1.2819824E0,4.6657257E0,4.13615E0,9.594556E0,1.7240059E1,3.7439045E1,1.1599418E0,5.5927253E0,1.0845932E1,2.1156675E1,8.126023E0,1.38308735E1,1.7924007E1,3.5924725E1,1.9542227E1,2.7697184E1,2.9647364E1,3.8340317E1,4.403396E1,5.350923E1,6.2825676E1,7.356152E1,8.98257E1,1.8883719E2,1.0939912E2,1.5120836E2,1.8464754E2,1.5378082E2,-7.234518E-1,-1.4527919E0,-2.2248976E-1,-5.2160853E-1,-3.652318E-1,3.8167231E-3,4.2061692E-1,2.9691646E0,2.9612797E-1,5.4785913E-1,9.108061E-1,1.2989479E0,1.5101649E0,2.1386797E0,3.529429E0,8.992561E0,3.0903341E-3,5.390848E-1,4.323565E-1,7.7150494E-1,7.768948E-1,1.3408216E0,1.6551075E0,2.8632543E0,6.75893E-1,1.1623495E0,1.2990022E0,2.1038065E0,1.4174494E0,2.3229172E0,3.2866712E0,7.0395064E0,1.8454106E0,2.6580074E0,2.6410644E0,4.616289E0,2.6557963E0,3.3326013E0,3.7412078E0,6.8925524E0,4.2455115E0,5.602221E0,5.239925E0,9.039985E0,6.1128097E0,7.341967E0,8.414145E0,6.871616E0,8.14606E0,1.10157385E1,1.5909456E1,2.3656176E1,9.9413E0,1.519751E1,1.4517295E1,2.0511995E1,1.634044E1,2.7536604E1,1.7148624E1,1.3347007E1],"categories":[],"categories_nodes":[],"categories_segments":[],"categories_sizes":[],"default_left":[0,0,0,0,0,0,0,0,0,0,0,0,0,0,0,0,0,0,0,0,0,0,0,0,0,0,0,0,0,0,0,0,0,0,0,0,0,0,0,0,0,0,0,0,0,0,0,0,0,0,0,0,0,0,0,0,0,0,0,0,0,0,0,0,0,0,0,0,0,0,0,0,0,0,0,0,0,0,0,0,0,0,0,0,0,0,0,0,0,0,0,0,0,0,0,0,0,0,0,0,0,0,0,0,0,0,0,0,0,0,0,0,0,0,0,0,0,0,0,0,0],"id":12,"left_children":[1,3,5,7,9,11,13,15,17,19,21,23,25,27,29,31,33,35,37,39,41,43,45,47,49,51,53,55,57,59,-1,61,63,65,67,69,71,73,75,77,79,81,83,85,87,89,91,93,95,97,99,101,103,105,107,109,111,113,115,117,119,-1,-1,-1,-1,-1,-1,-1,-1,-1,-1,-1,-1,-1,-1,-1,-1,-1,-1,-1,-1,-1,-1,-1,-1,-1,-1,-1,-1,-1,-1,-1,-1,-1,-1,-1,-1,-1,-1,-1,-1,-1,-1,-1,-1,-1,-1,-1,-1,-1,-1,-1,-1,-1,-1,-1,-1,-1,-1,-1,-1],"loss_changes":[1.1198421E8,1.9194272E7,3.1975784E7,5.078933E6,3.491768E6,7.951704E6,1.52E6,2.208352E6,7.8193725E5,1.781035E6,1.034154E6,1.16497E6,1.09134E6,1.065224E6,1.12875E5,2.123146E6,6.591288E5,2.001995E5,1.7178612E5,4.5702138E5,3.218045E5,4.544665E5,3.317595E5,3.62347E5,3.37214E5,2.36024E5,9.8796E4,1.332774E6,9.21108E5,7.2046E4,0E0,4.93858E5,1.573244E6,2.8044234E5,2.7040562E5,5.1528812E4,1.3852125E4,3.3201125E4,5.028475E4,4.4440922E5,8.34985E4,9.636375E4,1.3810575E5,1.942055E5,1.28702E5,2.88058E5,1.13944E5,1.190465E5,1.98046E5,1.37884E5,1.98074E5,1.32792E5,1.68212E5,6.3209E4,5.4335E4,3.64326E5,1.695645E5,5.3291E5,2.68886E5,2.44032E5,9.791E4,0E0,0E0,0E0,0E0,0E0,0E0,0E0,0E0,0E0,0E0,0E0,0E0,0E0,0E0,0E0,0E0,0E0,0E0,0E0,0E0,0E0,0E0,0E0,0E0,0E0,0E0,0E0,0E0,0E0,0E0,0E0,0E0,0E0,0E0,0E0,0E0,0E0,0E0,0E0,0E0,0E0,0E0,0E0,0E0,0E0,0E0,0E0,0E0,0E0,0E0,0E0,0E0,0E0,0E0,0E0,0E0,0E0,0E0,0E0,0E0],"parents":[2147483647,0,0,1,1,2,2,3,3,4,4,5,5,6,6,7,7,8,8,9,9,10,10,11,11,12,12,13,13,14,14,15,15,16,16,17,17,18,18,19,19,20,20,21,21,22,22,23,23,24,24,25,25,26,26,27,27,28,28,29,29,31,31,32,32,33,33,34,34,35,35,36,36,37,37,38,38,39,39,40,40,41,41,42,42,43,43,44,44,45,45,46,46,47,47,48,48,49,49,50,50,51,51,52,52,53,53,54,54,55,55,56,56,57,57,58,58,59,59,60,60],"right_children":[2,4,6,8,10,12,14,16,18,20,22,24,26,28,30,32,34,36,38,40,42,44,46,48,50,52,54,56,58,60,-1,62,64,66,68,70,72,74,76,78,80,82,84,86,88,90,92,94,96,98,100,102,104,106,108,110,112,114,116,118,120,-1,-1,-1,-1,-1,-1,-1,-1,-1,-1,-1,-1,-1,-1,-1,-1,-1,-1,-1,-1,-1,-1,-1,-1,-1,-1,-1,-1,-1,-1,-1,-1,-1,-1,-1,-1,-1,-1,-1,-1,-1,-1,-1,-1,-1,-1,-1,-1,-1,-1,-1,-1,-1,-1,-1,-1,-1,-1,-1,-1],"split_conditions":[1.5754225E0,8.4697336E-2,6.604582E0,4.1321537E-1,5.038729E-1,3.378719E0,1.6744196E1,8.511252E-1,3.2059572E0,6.33695E-1,4.1321537E-1,2.2252347E0,4.959162E0,6.660666E0,2.5723708E0,-3.7213778E-1,2.2897518E0,1.9565727E0,6.5866446E0,-1.5150891E-1,2.2505455E0,1.1185874E0,3.5685308E0,-1.0123707E-1,-1.0123707E-1,-1.0123707E-1,5.6020176E-1,3.4684536E1,7.7116317E-1,-8.959338E-1,2.2941477E1,1.6190716E0,1.6058917E-1,-3.4809384E-1,2.2463675E-1,1.2216406E0,-2.2062314E-1,4.455342E0,1.2392608E1,3.055931E-1,6.164777E-1,-2.2062314E-1,-2.2062314E-1,1.0858029E0,2.0866327E0,-2.2062314E-1,1.0441969E1,3.219099E0,3.248836E0,2.7315176E0,1.0996237E1,7.229696E0,5.966242E0,9.789651E0,-4.4131553E-1,9.276678E-1,5.3700188E1,1.6335702E0,3.816422E0,1.0792059E0,-2.5283507E-1,-7.234518E-1,-1.4527919E0,-2.2248976E-1,-5.2160853E-1,-3.652318E-1,3.8167231E-3,4.2061692E-1,2.9691646E0,2.9612797E-1,5.4785913E-1,9.108061E-1,1.2989479E0,1.5101649E0,2.1386797E0,3.529429E0,8.992561E0,3.0903341E-3,5.390848E-1,4.323565E-1,7.7150494E-1,7.768948E-1,1.3408216E0,1.6551075E0,2.8632543E0,6.75893E-1,1.1623495E0,1.2990022E0,2.1038065E0,1.4174494E0,2.3229172E0,3.2866712E0,7.0395064E0,1.8454106E0,2.6580074E0,2.6410644E0,4.616289E0,2.6557963E0,3.3326013E0,3.7412078E0,6.8925524E0,4.2455115E0,5.602221E0,5.239925E0,9.039985E0,6.1128097E0,7.341967E0,8.414145E0,6.871616E0,8.14606E0,1.10157385E1,1.5909456E1,2.3656176E1,9.9413E0,1.519751E1,1.4517295E1,2.0511995E1,1.634044E1,2.7536604E1,1.7148624E1,1.3347007E1],"split_indices":[148,148,178,163,178,148,165,152,163,163,163,178,178,161,161,148,152,163,163,165,163,148,152,163,163,163,163,162,193,153,0,181,181,148,161,163,161,163,163,161,165,161,161,165,161,161,152,165,152,178,163,165,152,165,181,163,162,170,165,151,154,0,0,0,0,0,0,0,0,0,0,0,0,0,0,0,0,0,0,0,0,0,0,0,0,0,0,0,0,0,0,0,0,0,0,0,0,0,0,0,0,0,0,0,0,0,0,0,0,0,0,0,0,0,0,0,0,0,0,0,0],"split_type":[0,0,0,0,0,0,0,0,0,0,0,0,0,0,0,0,0,0,0,0,0,0,0,0,0,0,0,0,0,0,0,0,0,0,0,0,0,0,0,0,0,0,0,0,0,0,0,0,0,0,0,0,0,0,0,0,0,0,0,0,0,0,0,0,0,0,0,0,0,0,0,0,0,0,0,0,0,0,0,0,0,0,0,0,0,0,0,0,0,0,0,0,0,0,0,0,0,0,0,0,0,0,0,0,0,0,0,0,0,0,0,0,0,0,0,0,0,0,0,0,0],"sum_hessian":[1.359513E6,1.294878E6,6.4635E4,1.077061E6,2.17817E5,5.9573E4,5.062E3,1.031667E6,4.5394E4,1.40303E5,7.7514E4,4.3273E4,1.63E4,4.544E3,5.18E2,9.18525E5,1.13142E5,4.114E4,4.254E3,1.24044E5,1.6259E4,6.1915E4,1.5599E4,2.3996E4,1.9277E4,1.1364E4,4.936E3,2.339E3,2.205E3,4.84E2,3.4E1,2.0258E5,7.15945E5,8.962E4,2.3522E4,3.2681E4,8.459E3,3.78E3,4.74E2,9.3033E4,3.1011E4,1.2235E4,4.024E3,4.0633E4,2.1282E4,1.4497E4,1.102E3,1.5609E4,8.387E3,1.221E4,7.067E3,7.141E3,4.223E3,3.764E3,1.172E3,2.194E3,1.45E2,1.288E3,9.17E2,1.49E2,3.35E2,1.92826E5,9.754E3,3.10494E5,4.05451E5,3.2058E4,5.7562E4,2.3099E4,4.23E2,1.743E4,1.5251E4,7.402E3,1.057E3,2.497E3,1.283E3,4.57E2,1.7E1,7.3437E4,1.9596E4,1.9408E4,1.1603E4,5.561E3,6.674E3,2.492E3,1.532E3,2.9216E4,1.1417E4,1.9061E4,2.221E3,8.496E3,6.001E3,1.014E3,8.8E1,1.3522E4,2.087E3,7.843E3,5.44E2,6.641E3,5.569E3,6.861E3,2.06E2,6.314E3,8.27E2,4.102E3,1.21E2,3.25E3,5.14E2,3.63E2,8.09E2,1.558E3,6.36E2,9.2E1,5.3E1,1.046E3,2.42E2,8.28E2,8.9E1,1.23E2,2.6E1,1.75E2,1.6E2],"tree_param":{"num_deleted":"0","num_feature":"197","num_nodes":"121","size_leaf_vector":"1"}},{"base_weights":[-2.9755882E-3,-1.6150473E0,4.1670067E1,-2.9499607E0,9.508758E0,3.4551643E1,1.0618328E2,-3.5171251E0,6.1098533E0,6.790183E0,1.526546E1,2.8922014E1,5.2389183E1,1.0090733E2,1.51553E2,-4.902161E0,-1.828403E0,4.332391E0,1.3427351E1,4.7534213E0,1.184072E1,1.3456599E1,2.172267E1,2.4593954E1,3.5098465E1,4.6599594E1,5.924818E1,8.665578E1,1.15812294E2,1.4705695E2,2.0651056E2,-5.4022264E0,-2.0848969E-1,-7.312489E-1,-3.4747112E0,3.3026776E0,5.793514E0,1.1002368E1,2.2711441E1,3.9365942E0,1.068696E1,1.1065952E1,2.8980968E1,1.2309265E1,1.8731447E1,1.8156832E1,2.863475E1,2.371273E1,4.181205E1,3.3981415E1,5.045556E1,4.546479E1,6.8064476E1,5.8448242E1,9.186135E1,8.183471E1,1.912399E2,1.04982025E2,1.5079733E2,1.6915875E2,1.3649188E2,2.2413576E2,1.1458978E1,-6.112508E-1,-2.2580507E-1,-1.1753889E-1,5.153646E-1,-2.0495474E-1,7.174283E-2,-3.1209236E-1,-1.0823811E0,1.23720944E-1,4.078024E-1,4.230717E-1,9.990552E-1,9.887724E-1,1.6430143E0,2.0229876E0,3.9318051E0,1.8253194E-1,7.8619653E-1,1.0264316E0,2.3834503E0,1.0576689E0,2.3815231E0,2.433084E0,4.4173856E0,1.0761243E0,1.8955446E0,1.7251829E0,2.2121642E0,1.5703647E0,3.3173661E0,2.695402E0,4.961943E0,2.6860235E0,2.011176E0,3.2249153E0,5.421306E0,3.3342683E0,5.592775E0,4.2298803E0,6.5762963E0,4.4603596E0,6.543659E0,5.6435733E0,8.208402E0,5.6847806E0,6.9325595E0,8.346136E0,1.3123179E1,7.4881067E0,1.0410787E1,1.5559054E1,2.1602728E1,1.7606121E1,9.862354E0,4.9166923E0,1.847218E1,1.2495391E1,2.1346441E1,1.2790481E1,1.7282408E1,2.343203E1,9.93312E0],"categories":[],"categories_nodes":[],"categories_segments":[],"categories_sizes":[],"default_left":[0,0,0,0,0,0,0,0,0,0,0,0,0,0,0,0,0,0,0,0,0,0,0,0,0,0,0,0,0,0,0,0,0,0,0,0,0,0,0,0,0,0,0,0,0,0,0,0,0,0,0,0,0,0,0,0,0,0,0,0,0,0,0,0,0,0,0,0,0,0,0,0,0,0,0,0,0,0,0,0,0,0,0,0,0,0,0,0,0,0,0,0,0,0,0,0,0,0,0,0,0,0,0,0,0,0,0,0,0,0,0,0,0,0,0,0,0,0,0,0,0,0,0,0,0],"id":13,"left_children":[1,3,5,7,9,11,13,15,17,19,21,23,25,27,29,31,33,35,37,39,41,43,45,47,49,51,53,55,57,59,61,63,65,67,69,71,73,75,77,79,81,83,85,87,89,91,93,95,97,99,101,103,105,107,109,111,113,115,117,119,121,123,-1,-1,-1,-1,-1,-1,-1,-1,-1,-1,-1,-1,-1,-1,-1,-1,-1,-1,-1,-1,-1,-1,-1,-1,-1,-1,-1,-1,-1,-1,-1,-1,-1,-1,-1,-1,-1,-1,-1,-1,-1,-1,-1,-1,-1,-1,-1,-1,-1,-1,-1,-1,-1,-1,-1,-1,-1,-1,-1,-1,-1,-1,-1],"loss_changes":[9.131129E7,1.9431606E7,2.3243136E7,6.003598E6,2.194199E6,4.576764E6,1.188704E6,2.571752E6,8.9523475E5,9.79631E5,5.25009E5,9.25582E5,4.31506E5,9.47736E5,9.8579E4,1.417877E6,8.949145E5,8.330569E4,3.0260175E5,3.2890025E5,3.6312775E5,2.124035E5,2.42006E5,3.08243E5,2.43194E5,1.41461E5,1.2511E5,1.148538E6,8.18098E5,9.0364E4,3.4227E4,1.21917E6,3.0156534E5,5.678125E5,5.15133E5,5.2025656E4,1.5012075E5,6.4376625E4,1.139695E5,4.9441094E5,4.5383875E4,1.63093E5,8.249594E4,2.967275E5,3.1091E4,2.38707E5,1.1670225E5,2.19233E5,1.1576525E5,1.84731E5,1.17821E5,9.4076E4,4.3610375E4,8.1088E4,2.804975E4,3.34315E5,5.560025E4,7.43702E5,1.776832E6,2.72947E5,8.20695E4,1.48235E4,0E0,0E0,0E0,0E0,0E0,0E0,0E0,0E0,0E0,0E0,0E0,0E0,0E0,0E0,0E0,0E0,0E0,0E0,0E0,0E0,0E0,0E0,0E0,0E0,0E0,0E0,0E0,0E0,0E0,0E0,0E0,0E0,0E0,0E0,0E0,0E0,0E0,0E0,0E0,0E0,0E0,0E0,0E0,0E0,0E0,0E0,0E0,0E0,0E0,0E0,0E0,0E0,0E0,0E0,0E0,0E0,0E0,0E0,0E0,0E0,0E0,0E0,0E0],"parents":[2147483647,0,0,1,1,2,2,3,3,4,4,5,5,6,6,7,7,8,8,9,9,10,10,11,11,12,12,13,13,14,14,15,15,16,16,17,17,18,18,19,19,20,20,21,21,22,22,23,23,24,24,25,25,26,26,27,27,28,28,29,29,30,30,31,31,32,32,33,33,34,34,35,35,36,36,37,37,38,38,39,39,40,40,41,41,42,42,43,43,44,44,45,45,46,46,47,47,48,48,49,49,50,50,51,51,52,52,53,53,54,54,55,55,56,56,57,57,58,58,59,59,60,60,61,61],"right_children":[2,4,6,8,10,12,14,16,18,20,22,24,26,28,30,32,34,36,38,40,42,44,46,48,50,52,54,56,58,60,62,64,66,68,70,72,74,76,78,80,82,84,86,88,90,92,94,96,98,100,102,104,106,108,110,112,114,116,118,120,122,124,-1,-1,-1,-1,-1,-1,-1,-1,-1,-1,-1,-1,-1,-1,-1,-1,-1,-1,-1,-1,-1,-1,-1,-1,-1,-1,-1,-1,-1,-1,-1,-1,-1,-1,-1,-1,-1,-1,-1,-1,-1,-1,-1,-1,-1,-1,-1,-1,-1,-1,-1,-1,-1,-1,-1,-1,-1,-1,-1,-1,-1,-1,-1],"split_conditions":[1.8708367E0,3.732248E-1,6.604582E0,-1.0123707E-1,1.0704994E0,3.93173E0,1.6744196E1,-2.7596197E-1,2.103559E0,-1.0123707E-1,4.1321537E-1,2.7315176E0,4.959162E0,6.660666E0,2.0866327E0,8.0183995E-1,5.687401E-1,1.1481475E0,4.087876E0,9.127657E-1,4.3083553E0,2.3657806E0,1.2373835E0,2.544014E0,1.9995847E0,2.544014E0,4.286188E0,4.330378E1,1.0485922E0,-1.0624775E0,1.3247048E0,5.314304E-1,2.1084704E0,-2.870188E-1,1.973058E0,-8.361034E-2,-8.361034E-2,-1.8014497E-1,7.3215766E0,6.164777E-1,1.7223291E0,3.7283783E0,-1.396668E-1,2.0866327E0,2.9204376E0,2.449599E0,6.5727916E0,4.4200993E-1,2.6180115E0,3.248836E0,2.8384912E0,2.449599E0,2.9854777E0,9.789651E0,9.730482E0,1.8830795E0,-1.0285727E0,-8.1896466E-1,-1.5529003E0,5.5553097E-1,1.2133586E0,2.2539682E0,1.1458978E1,-6.112508E-1,-2.2580507E-1,-1.1753889E-1,5.153646E-1,-2.0495474E-1,7.174283E-2,-3.1209236E-1,-1.0823811E0,1.23720944E-1,4.078024E-1,4.230717E-1,9.990552E-1,9.887724E-1,1.6430143E0,