{"learner":{"attributes":{"best_iteration":"199","best_score":"0.18568695882433825"},"feature_names":[],"feature_types":[],"gradient_booster":{"model":{"cats":{"enc":[],"feature_segments":[],"sorted_idx":[]},"gbtree_model_param":{"num_parallel_tree":"1","num_trees":"200"},"iteration_indptr":[0,1,2,3,4,5,6,7,8,9,10,11,12,13,14,15,16,17,18,19,20,21,22,23,24,25,26,27,28,29,30,31,32,33,34,35,36,37,38,39,40,41,42,43,44,45,46,47,48,49,50,51,52,53,54,55,56,57,58,59,60,61,62,63,64,65,66,67,68,69,70,71,72,73,74,75,76,77,78,79,80,81,82,83,84,85,86,87,88,89,90,91,92,93,94,95,96,97,98,99,100,101,102,103,104,105,106,107,108,109,110,111,112,113,114,115,116,117,118,119,120,121,122,123,124,125,126,127,128,129,130,131,132,133,134,135,136,137,138,139,140,141,142,143,144,145,146,147,148,149,150,151,152,153,154,155,156,157,158,159,160,161,162,163,164,165,166,167,168,169,170,171,172,173,174,175,176,177,178,179,180,181,182,183,184,185,186,187,188,189,190,191,192,193,194,195,196,197,198,199,200],"tree_info":[0,0,0,0,0,0,0,0,0,0,0,0,0,0,0,0,0,0,0,0,0,0,0,0,0,0,0,0,0,0,0,0,0,0,0,0,0,0,0,0,0,0,0,0,0,0,0,0,0,0,0,0,0,0,0,0,0,0,0,0,0,0,0,0,0,0,0,0,0,0,0,0,0,0,0,0,0,0,0,0,0,0,0,0,0,0,0,0,0,0,0,0,0,0,0,0,0,0,0,0,0,0,0,0,0,0,0,0,0,0,0,0,0,0,0,0,0,0,0,0,0,0,0,0,0,0,0,0,0,0,0,0,0,0,0,0,0,0,0,0,0,0,0,0,0,0,0,0,0,0,0,0,0,0,0,0,0,0,0,0,0,0,0,0,0,0,0,0,0,0,0,0,0,0,0,0,0,0,0,0,0,0,0,0,0,0,0,0,0,0,0,0,0,0,0,0,0,0,0,0],"trees":[{"base_weights":[-1.3533336E-3,-3.0333728E-1,6.3881717E0,-5.342862E-1,1.2563152E0,5.331487E0,1.7586996E1,1.02254E0,-5.974866E-1,8.207775E-1,2.1076052E0,4.22629E0,8.070397E0,1.6750805E1,2.2253824E1,9.5348084E-1,2.9177527E0,-6.9517E-1,-9.84605E-2,7.553489E-1,2.2552848E0,1.802026E0,2.5433376E0,3.618047E0,5.1561103E0,7.1940784E0,9.831501E0,2.1534384E1,1.6150732E1,1.453331E1,2.920421E1,9.075673E-1,1.4941353E0,2.4866998E0,4.2053413E0,-7.4919766E-1,-4.0729076E-1,-2.1345289E-1,9.384217E-1,5.212742E-1,1.0679427E0,1.9844279E0,3.9385324E0,1.7204719E0,3.2487137E0,2.46224E0,4.042521E0,3.5270176E0,5.160067E0,4.850078E0,5.7556424E0,6.6795926E0,7.9060283E0,9.71691E0,1.1490492E1,1.6670868E1,2.9304535E1,1.792051E1,1.4612364E1,1.3417611E1,2.0513532E0,2.5178642E1,3.2483292E0,8.18145E-2,1.02261655E-1,1.4007719E-1,1.961787E-1,2.3073831E-1,2.9597184E-1,3.7448654E-1,4.9727485E-1,-8.7626725E-2,-6.433919E-2,-4.80227E-2,-1.6801283E-2,-3.0554298E-2,-9.068124E-3,8.873643E-2,2.547776E-1,3.4453716E-2,8.964561E-2,9.886294E-2,1.55036E-1,1.7549293E-1,2.3813985E-1,3.4467727E-1,5.0554293E-1,1.5454789E-1,1.89193E-1,2.8965527E-1,4.564353E-1,2.3051627E-1,2.7043355E-1,3.6772752E-1,5.395756E-1,3.217653E-1,3.8992208E-1,4.784554E-1,6.443789E-1,4.7700164E-1,6.544381E-1,5.641746E-1,7.167383E-1,6.5988374E-1,8.478463E-1,7.775905E-1,9.156788E-1,8.608074E-1,9.854523E-1,1.1211064E0,1.3910891E0,2.4527357E0,1.5197487E0,1.5251797E0,3.1740422E0,1.602225E0,2.6718152E0,1.5383755E0,1.3494571E0,1.237271E0,1.4900426E0,2.749367E0,2.2975633E0],"categories":[],"categories_nodes":[],"categories_segments":[],"categories_sizes":[],"default_left":[0,0,0,0,0,0,0,0,0,0,0,0,0,0,0,0,0,0,0,0,0,0,0,0,0,0,0,0,0,0,0,0,0,0,0,0,0,0,0,0,0,0,0,0,0,0,0,0,0,0,0,0,0,0,0,0,0,0,0,0,0,0,0,0,0,0,0,0,0,0,0,0,0,0,0,0,0,0,0,0,0,0,0,0,0,0,0,0,0,0,0,0,0,0,0,0,0,0,0,0,0,0,0,0,0,0,0,0,0,0,0,0,0,0,0,0,0,0,0,0,0,0,0],"id":0,"left_children":[1,3,5,7,9,11,13,15,17,19,21,23,25,27,29,31,33,35,37,39,41,43,45,47,49,51,53,55,57,59,61,63,65,67,69,71,73,75,77,79,81,83,85,87,89,91,93,95,97,99,101,103,105,107,109,111,113,115,117,119,-1,121,-1,-1,-1,-1,-1,-1,-1,-1,-1,-1,-1,-1,-1,-1,-1,-1,-1,-1,-1,-1,-1,-1,-1,-1,-1,-1,-1,-1,-1,-1,-1,-1,-1,-1,-1,-1,-1,-1,-1,-1,-1,-1,-1,-1,-1,-1,-1,-1,-1,-1,-1,-1,-1,-1,-1,-1,-1,-1,-1,-1,-1],"loss_changes":[2.620959E6,4.671933E5,7.253165E5,1.1115884E5,6.2023906E4,1.6953E5,2.024725E4,5.7653125E3,5.292275E4,1.0385328E4,7.5339688E3,2.2554125E4,2.478075E4,1.25255E4,4.2499688E4,1.054043E3,8.485967E2,1.4121281E4,2.119151E4,7.743996E3,2.1923125E3,3.920875E3,2.8267031E3,3.3684688E3,2.8666562E3,3.8859375E3,9.0290625E2,1.8288625E4,1.05978125E4,2.2634453E3,4.720375E3,4.0226953E2,1.4217725E2,9.128955E1,1.1726074E2,1.0277406E4,2.503787E3,1.8087656E3,1.4553301E3,4.012957E3,1.73225E3,3.744004E2,3.486211E2,9.4216406E2,8.084219E2,8.352969E2,5.703887E2,2.6110312E3,6.154453E2,1.385875E3,8.149844E2,8.50625E2,6.6059375E2,6.77625E2,7.148047E1,3.1885547E3,6.015078E3,3.0479812E4,1.63475E3,3.1491406E2,0E0,3.4758594E2,0E0,0E0,0E0,0E0,0E0,0E0,0E0,0E0,0E0,0E0,0E0,0E0,0E0,0E0,0E0,0E0,0E0,0E0,0E0,0E0,0E0,0E0,0E0,0E0,0E0,0E0,0E0,0E0,0E0,0E0,0E0,0E0,0E0,0E0,0E0,0E0,0E0,0E0,0E0,0E0,0E0,0E0,0E0,0E0,0E0,0E0,0E0,0E0,0E0,0E0,0E0,0E0,0E0,0E0,0E0,0E0,0E0,0E0,0E0,0E0,0E0],"parents":[2147483647,0,0,1,1,2,2,3,3,4,4,5,5,6,6,7,7,8,8,9,9,10,10,11,11,12,12,13,13,14,14,15,15,16,16,17,17,18,18,19,19,20,20,21,21,22,22,23,23,24,24,25,25,26,26,27,27,28,28,29,29,30,30,31,31,32,32,33,33,34,34,35,35,36,36,37,37,38,38,39,39,40,40,41,41,42,42,43,43,44,44,45,45,46,46,47,47,48,48,49,49,50,50,51,51,52,52,53,53,54,54,55,55,56,56,57,57,58,58,59,59,61,61],"right_children":[2,4,6,8,10,12,14,16,18,20,22,24,26,28,30,32,34,36,38,40,42,44,46,48,50,52,54,56,58,60,62,64,66,68,70,72,74,76,78,80,82,84,86,88,90,92,94,96,98,100,102,104,106,108,110,112,114,116,118,120,-1,122,-1,-1,-1,-1,-1,-1,-1,-1,-1,-1,-1,-1,-1,-1,-1,-1,-1,-1,-1,-1,-1,-1,-1,-1,-1,-1,-1,-1,-1,-1,-1,-1,-1,-1,-1,-1,-1,-1,-1,-1,-1,-1,-1,-1,-1,-1,-1,-1,-1,-1,-1,-1,-1,-1,-1,-1,-1,-1,-1,-1,-1],"split_conditions":[1.5670669E0,2.2896107E-1,6.3120813E0,-1.396668E-1,8.300599E-1,3.378719E0,1.2648481E0,6.463906E0,-1.3169825E-1,2.2173564E0,1.2147632E0,2.416961E0,4.749224E0,-6.43978E-1,-1.4369756E0,4.1773024E0,9.621596E0,4.7518232E-1,-9.918862E-2,4.9344456E-1,5.5928187E0,2.1084704E0,2.2173564E0,2.3262422E0,2.969972E0,4.0731673E0,2.3262422E0,-2.2059429E0,-3.9311388E-1,-1.6593928E0,-9.783987E-1,7.8627723E-1,-1.3169825E-1,8.2060795E0,1.2125971E1,-3.240499E-1,1.4551553E0,1.2565472E-2,4.612846E0,-9.918862E-2,9.127657E-1,3.415101E0,8.314965E0,9.983676E-1,4.939503E0,1.3645538E0,5.157275E0,2.0082138E0,5.157275E0,2.6529E0,1.8906988E0,2.8706717E0,1.672927E0,4.959162E0,7.770536E0,6.7992735E-1,-1.6556365E0,8.2587105E-1,4.3071818E-1,-2.2059429E0,2.0513532E0,1.6541088E0,3.2483292E0,8.18145E-2,1.02261655E-1,1.4007719E-1,1.961787E-1,2.3073831E-1,2.9597184E-1,3.7448654E-1,4.9727485E-1,-8.7626725E-2,-6.433919E-2,-4.80227E-2,-1.6801283E-2,-3.0554298E-2,-9.068124E-3,8.873643E-2,2.547776E-1,3.4453716E-2,8.964561E-2,9.886294E-2,1.55036E-1,1.7549293E-1,2.3813985E-1,3.4467727E-1,5.0554293E-1,1.5454789E-1,1.89193E-1,2.8965527E-1,4.564353E-1,2.3051627E-1,2.7043355E-1,3.6772752E-1,5.395756E-1,3.217653E-1,3.8992208E-1,4.784554E-1,6.443789E-1,4.7700164E-1,6.544381E-1,5.641746E-1,7.167383E-1,6.5988374E-1,8.478463E-1,7.775905E-1,9.156788E-1,8.608074E-1,9.854523E-1,1.1211064E0,1.3910891E0,2.4527357E0,1.5197487E0,1.5251797E0,3.1740422E0,1.602225E0,2.6718152E0,1.5383755E0,1.3494571E0,1.237271E0,1.4900426E0,2.749367E0,2.2975633E0],"split_indices":[178,148,148,161,148,148,146,149,148,149,148,148,148,147,147,149,149,149,161,148,149,149,149,149,148,178,149,147,146,150,147,158,148,149,149,148,149,148,149,161,161,149,149,148,149,178,149,148,149,149,149,149,149,178,149,146,146,147,146,147,0,146,0,0,0,0,0,0,0,0,0,0,0,0,0,0,0,0,0,0,0,0,0,0,0,0,0,0,0,0,0,0,0,0,0,0,0,0,0,0,0,0,0,0,0,0,0,0,0,0,0,0,0,0,0,0,0,0,0,0,0,0,0],"split_type":[0,0,0,0,0,0,0,0,0,0,0,0,0,0,0,0,0,0,0,0,0,0,0,0,0,0,0,0,0,0,0,0,0,0,0,0,0,0,0,0,0,0,0,0,0,0,0,0,0,0,0,0,0,0,0,0,0,0,0,0,0,0,0,0,0,0,0,0,0,0,0,0,0,0,0,0,0,0,0,0,0,0,0,0,0,0,0,0,0,0,0,0,0,0,0,0,0,0,0,0,0,0,0,0,0,0,0,0,0,0,0,0,0,0,0,0,0,0,0,0,0,0,0],"sum_hessian":[1.358336E6,1.297036E6,6.13E4,1.129747E6,1.67289E5,5.6016E4,5.284E3,4.4073E4,1.085674E6,1.1067E5,5.6619E4,3.9913E4,1.6103E4,4.485E3,7.99E2,4.2525E4,1.548E3,9.07945E5,1.77729E5,1.05844E5,4.826E3,3.3283E4,2.3336E4,2.4132E4,1.5781E4,1.0756E4,5.347E3,4.96E2,3.989E3,3.8E2,4.19E2,3.9199E4,3.326E3,1.162E3,3.86E2,7.64471E5,1.43474E5,1.59987E5,1.7742E4,6.0525E4,4.5319E4,4.159E3,6.67E2,3.1509E4,1.774E3,2.2141E4,1.195E3,2.279E4,1.342E3,1.0454E4,5.327E3,6.25E3,4.506E3,5.008E3,3.39E2,3.07E2,1.89E2,1.85E3,2.139E3,3.23E2,5.7E1,1.92E2,2.27E2,2.2061E4,1.7138E4,2.776E3,5.5E2,8.47E2,3.15E2,2.45E2,1.41E2,3.4733E5,4.17141E5,1.09956E5,3.3518E4,9.1415E4,6.8572E4,1.7198E4,5.44E2,4.1145E4,1.938E4,3.8923E4,6.396E3,2.639E3,1.52E3,4.66E2,2.01E2,1.5599E4,1.591E4,1.402E3,3.72E2,1.3435E4,8.706E3,9.44E2,2.51E2,1.2451E4,1.0339E4,1.042E3,3E2,9.986E3,4.68E2,4.934E3,3.93E2,5.986E3,2.64E2,4.088E3,4.18E2,5.6E2,4.448E3,3.09E2,3E1,4.6E1,2.61E2,2.9E1,1.6E2,1.524E3,3.26E2,1.258E3,8.81E2,1.95E2,1.28E2,8.8E1,1.04E2],"tree_param":{"num_deleted":"0","num_feature":"201","num_nodes":"123","size_leaf_vector":"1"}},{"base_weights":[1.0259653E-3,-2.5857586E-1,6.0708675E0,-4.701817E-1,1.2630873E0,5.054003E0,1.6138296E1,9.189888E-1,-5.288345E-1,8.53419E-1,2.0912576E0,4.0147595E0,7.4438915E0,1.545421E1,2.2126354E1,8.502661E-1,2.427016E0,-6.25275E-1,-6.6852696E-2,7.728119E-1,1.8541635E0,1.8152274E0,2.5333974E0,3.5528705E0,4.957248E0,6.5841684E0,8.914633E0,1.4736115E1,2.0557701E1,2.1368729E1,2.649218E1,8.194247E-1,2.9921134E0,2.054021E0,3.6030855E0,-6.8564975E-1,-4.1280374E-1,-1.8119338E-1,8.374341E-1,5.6487954E-1,1.105361E0,1.6357056E0,3.2851787E0,1.7165388E0,2.8290455E0,2.419277E0,3.5169363E0,3.2370212E0,3.9415066E0,4.8355565E0,5.874919E0,6.1094346E0,7.115351E0,8.7674885E0,9.987751E0,1.3343651E1,1.632776E1,1.3608897E1,2.5552067E1,2.2803919E1,1.9870853E1,2.021736E0,2.9531076E0,7.7552475E-2,1.2166752E-1,2.508076E-1,5.3557295E-1,1.8039563E-1,2.3333123E-1,3.040205E-1,4.1836664E-1,-7.7906825E-2,-5.6622215E-2,-4.8668135E-2,-2.125894E-2,-2.6439039E-2,-5.323156E-3,7.792019E-2,1.9983475E-1,3.989647E-2,8.556976E-2,1.0194812E-1,1.5497749E-1,1.4007422E-1,1.9899158E-1,2.918054E-1,4.4418105E-1,1.6821079E-1,3.0641282E-1,2.569737E-1,3.9928058E-1,2.3870097E-1,3.9166954E-1,3.2075447E-1,4.6714216E-1,3.154864E-1,4.6197963E-1,3.8330042E-1,5.042622E-1,4.5546055E-1,5.215068E-1,5.5936426E-1,7.306678E-1,6.025357E-1,7.609692E-1,7.01552E-1,8.511233E-1,8.630695E-1,9.867919E-1,9.603977E-1,1.1172174E0,1.3008051E0,2.6158216E0,2.1955469E0,1.5339062E0,1.2071251E0,1.8171055E0,2.2264376E0,2.9056058E0,2.0109107E0,2.7651105E0,1.9327288E0,2.585887E0],"categories":[],"categories_nodes":[],"categories_segments":[],"categories_sizes":[],"default_left":[0,0,0,0,0,0,0,0,0,0,0,0,0,0,0,0,0,0,0,0,0,0,0,0,0,0,0,0,0,0,0,0,0,0,0,0,0,0,0,0,0,0,0,0,0,0,0,0,0,0,0,0,0,0,0,0,0,0,0,0,0,0,0,0,0,0,0,0,0,0,0,0,0,0,0,0,0,0,0,0,0,0,0,0,0,0,0,0,0,0,0,0,0,0,0,0,0,0,0,0,0,0,0,0,0,0,0,0,0,0,0,0,0,0,0,0,0,0,0,0,0,0,0],"id":1,"left_children":[1,3,5,7,9,11,13,15,17,19,21,23,25,27,29,31,33,35,37,39,41,43,45,47,49,51,53,55,57,59,61,63,65,67,69,71,73,75,77,79,81,83,85,87,89,91,93,95,97,99,101,103,105,107,109,111,113,115,117,119,121,-1,-1,-1,-1,-1,-1,-1,-1,-1,-1,-1,-1,-1,-1,-1,-1,-1,-1,-1,-1,-1,-1,-1,-1,-1,-1,-1,-1,-1,-1,-1,-1,-1,-1,-1,-1,-1,-1,-1,-1,-1,-1,-1,-1,-1,-1,-1,-1,-1,-1,-1,-1,-1,-1,-1,-1,-1,-1,-1,-1,-1,-1],"loss_changes":[2.1418435E6,4.197213E5,5.7064125E5,9.3242516E4,5.3989812E4,1.2573475E5,2.0603E4,4.802164E3,4.892047E4,8.58718E3,6.4226562E3,1.53455E4,1.9342438E4,1.6526E4,1.1557031E3,2.9262285E3,8.7814355E2,1.165225E4,1.9607215E4,6.8128867E3,2.4750605E3,3.2391875E3,2.2626719E3,2.8943438E3,1.2664688E3,2.3982188E3,8.039375E2,8.7108125E3,1.922189E4,5.1E2,7.899922E2,7.611797E2,7.0540576E2,1.0265234E2,1.4505518E2,7.8914375E3,2.9730117E3,1.7921626E3,1.4371543E3,2.925043E3,1.4449688E3,5.700547E2,4.321621E2,1.3656406E3,8.566797E2,8.664531E2,7.3503906E2,1.4699219E3,1.2481094E3,1.0683594E3,5.03125E2,5.989844E2,5.750156E2,6.6328125E2,1.9744531E2,8.9235625E3,1.009775E4,1.4471953E3,3.115E3,2.3520625E3,2.378125E2,0E0,0E0,0E0,0E0,0E0,0E0,0E0,0E0,0E0,0E0,0E0,0E0,0E0,0E0,0E0,0E0,0E0,0E0,0E0,0E0,0E0,0E0,0E0,0E0,0E0,0E0,0E0,0E0,0E0,0E0,0E0,0E0,0E0,0E0,0E0,0E0,0E0,0E0,0E0,0E0,0E0,0E0,0E0,0E0,0E0,0E0,0E0,0E0,0E0,0E0,0E0,0E0,0E0,0E0,0E0,0E0,0E0,0E0,0E0,0E0,0E0,0E0],"parents":[2147483647,0,0,1,1,2,2,3,3,4,4,5,5,6,6,7,7,8,8,9,9,10,10,11,11,12,12,13,13,14,14,15,15,16,16,17,17,18,18,19,19,20,20,21,21,22,22,23,23,24,24,25,25,26,26,27,27,28,28,29,29,30,30,31,31,32,32,33,33,34,34,35,35,36,36,37,37,38,38,39,39,40,40,41,41,42,42,43,43,44,44,45,45,46,46,47,47,48,48,49,49,50,50,51,51,52,52,53,53,54,54,55,55,56,56,57,57,58,58,59,59,60,60],"right_children":[2,4,6,8,10,12,14,16,18,20,22,24,26,28,30,32,34,36,38,40,42,44,46,48,50,52,54,56,58,60,62,64,66,68,70,72,74,76,78,80,82,84,86,88,90,92,94,96,98,100,102,104,106,108,110,112,114,116,118,120,122,-1,-1,-1,-1,-1,-1,-1,-1,-1,-1,-1,-1,-1,-1,-1,-1,-1,-1,-1,-1,-1,-1,-1,-1,-1,-1,-1,-1,-1,-1,-1,-1,-1,-1,-1,-1,-1,-1,-1,-1,-1,-1,-1,-1,-1,-1,-1,-1,-1,-1,-1,-1,-1,-1,-1,-1,-1,-1,-1,-1,-1,-1],"split_conditions":[1.7189518E0,2.7704898E-1,6.604582E0,-1.396668E-1,9.2623574E-1,3.490942E0,1.6744196E1,5.919476E0,-1.3169825E-1,1.5640411E0,1.2632972E0,2.6574004E0,4.749224E0,1.4048996E0,1.0897838E0,9.802579E0,9.077167E0,2.574106E-1,-9.918862E-2,5.8962035E-1,4.7217317E0,1.4551553E0,1.3462694E0,2.2005653E0,1.3462694E0,4.0731673E0,1.4551553E0,6.660666E0,-1.4209554E0,-7.9473203E-1,-1.0124415E0,3.7417586E0,1.6356323E1,7.008335E0,1.0819341E1,-3.0000594E-1,1.1284976E0,3.6609426E-2,3.7417586E0,-1.5150891E-1,1.1711347E0,5.8962035E-1,7.879422E0,2.769294E0,4.1773024E0,3.248836E0,3.7417586E0,2.3262422E0,1.672927E0,3.0606015E0,4.1773024E0,2.3262422E0,2.2173564E0,9.789651E0,3.8506446E0,4.330378E1,-6.43978E-1,-1.6593928E0,-8.6887133E-1,9.3774974E-1,2.5723708E0,2.021736E0,2.9531076E0,7.7552475E-2,1.2166752E-1,2.508076E-1,5.3557295E-1,1.8039563E-1,2.3333123E-1,3.040205E-1,4.1836664E-1,-7.7906825E-2,-5.6622215E-2,-4.8668135E-2,-2.125894E-2,-2.6439039E-2,-5.323156E-3,7.792019E-2,1.9983475E-1,3.989647E-2,8.556976E-2,1.0194812E-1,1.5497749E-1,1.4007422E-1,1.9899158E-1,2.918054E-1,4.4418105E-1,1.6821079E-1,3.0641282E-1,2.569737E-1,3.9928058E-1,2.3870097E-1,3.9166954E-1,3.2075447E-1,4.6714216E-1,3.154864E-1,4.6197963E-1,3.8330042E-1,5.042622E-1,4.5546055E-1,5.215068E-1,5.5936426E-1,7.306678E-1,6.025357E-1,7.609692E-1,7.01552E-1,8.511233E-1,8.630695E-1,9.867919E-1,9.603977E-1,1.1172174E0,1.3008051E0,2.6158216E0,2.1955469E0,1.5339062E0,1.2071251E0,1.8171055E0,2.2264376E0,2.9056058E0,2.0109107E0,2.7651105E0,1.9327288E0,2.585887E0],"split_indices":[178,148,178,161,148,178,165,149,148,149,178,148,148,146,146,152,149,149,161,148,149,149,149,148,149,178,149,161,147,146,147,149,152,149,149,148,149,148,149,165,165,148,149,152,149,152,149,149,149,178,149,149,149,165,149,162,147,150,150,150,161,0,0,0,0,0,0,0,0,0,0,0,0,0,0,0,0,0,0,0,0,0,0,0,0,0,0,0,0,0,0,0,0,0,0,0,0,0,0,0,0,0,0,0,0,0,0,0,0,0,0,0,0,0,0,0,0,0,0,0,0,0,0],"split_type":[0,0,0,0,0,0,0,0,0,0,0,0,0,0,0,0,0,0,0,0,0,0,0,0,0,0,0,0,0,0,0,0,0,0,0,0,0,0,0,0,0,0,0,0,0,0,0,0,0,0,0,0,0,0,0,0,0,0,0,0,0,0,0,0,0,0,0,0,0,0,0,0,0,0,0,0,0,0,0,0,0,0,0,0,0,0,0,0,0,0,0,0,0,0,0,0,0,0,0,0,0,0,0,0,0,0,0,0,0,0,0,0,0,0,0,0,0,0,0,0,0,0,0],"sum_hessian":[1.359258E6,1.303509E6,5.5749E4,1.144371E6,1.59138E5,5.0636E4,5.113E3,4.6359E4,1.098012E6,1.06472E5,5.2666E4,3.5292E4,1.5344E4,4.592E3,5.21E2,4.434E4,2.019E3,9.08383E5,1.89629E5,9.8537E4,7.935E3,3.2427E4,2.0239E4,2.3688E4,1.1604E4,9.687E3,5.657E3,4.029E3,5.63E2,4.49E2,7.2E1,4.3712E4,6.28E2,1.535E3,4.84E2,7.07376E5,2.01007E5,1.68344E5,2.1285E4,6.063E4,3.7907E4,6.886E3,1.049E3,2.9553E4,2.874E3,1.8138E4,2.101E3,1.3073E4,1.0615E4,1.0251E4,1.353E3,5.122E3,4.565E3,4.983E3,6.74E2,2.154E3,1.875E3,2.37E2,3.26E2,2.22E2,2.27E2,2.6E1,4.6E1,3.9365E4,4.347E3,5.23E2,1.05E2,8.14E2,7.21E2,2.49E2,2.35E2,3.96904E5,3.10472E5,1.46827E5,5.418E4,1.02015E5,6.6329E4,2.027E4,1.015E3,3.8607E4,2.2023E4,3.1771E4,6.136E3,4.143E3,2.743E3,7.99E2,2.5E2,2.8819E4,7.34E2,2.353E3,5.21E2,1.7758E4,3.8E2,1.66E3,4.41E2,1.2343E4,7.3E2,9.667E3,9.48E2,5.898E3,4.353E3,1.135E3,2.18E2,4.855E3,2.67E2,4.266E3,2.99E2,4.44E3,5.43E2,5.16E2,1.58E2,2.101E3,5.3E1,2.77E2,1.598E3,1.8E2,5.7E1,1.72E2,1.54E2,1.46E2,7.6E1,2.12E2,1.5E1],"tree_param":{"num_deleted":"0","num_feature":"201","num_nodes":"123","size_leaf_vector":"1"}},{"base_weights":[8.217505E-5,-2.4568301E-1,5.1730857E0,-4.3738773E-1,9.829989E-1,4.338209E0,1.44739275E1,-5.0580305E-1,8.2603306E-1,5.9627044E-1,1.6366853E0,3.4646444E0,6.683988E0,1.3883278E1,1.9712854E1,-5.975897E-1,-2.699795E-1,6.549087E-1,2.2288427E0,3.6191016E-1,1.3397357E0,1.3654591E0,2.3022017E0,2.9738815E0,4.303469E0,5.9777594E0,8.145251E0,1.2206611E1,1.5691953E1,1.9108847E1,2.3312368E1,-5.0192636E-1,-7.152741E-1,-3.516842E-1,-1.1734825E-1,5.252643E-1,1.0561491E0,1.9475728E0,3.9107301E0,2.1587013E-1,6.547764E-1,1.1943488E0,2.5839646E0,1.0717102E0,1.7090898E0,2.2022946E0,3.8918266E0,2.6653492E0,3.6181397E0,3.97819E0,4.938949E0,5.4193606E0,6.392804E0,7.84429E0,8.858703E0,1.1745093E1,2.2918266E1,1.426912E1,2.0288311E1,2.0791512E1,1.7509483E1,1.7310257E0,2.5575578E0,-5.6596078E-2,-3.0908788E-2,-7.455172E-2,-3.306783E-2,-2.4564935E-2,-4.5553878E-2,-1.5505103E-3,-2.1477683E-2,4.7778226E-2,6.7679696E-2,9.274296E-2,1.24712564E-1,1.6842471E-1,2.3764575E-1,3.5489875E-1,5.824408E-1,5.368119E-3,6.908632E-2,5.6897998E-2,9.3645334E-2,1.0230627E-1,1.3788754E-1,2.2669128E-1,3.943956E-1,9.982413E-2,1.4111696E-1,1.6152453E-1,2.0808315E-1,1.9638497E-1,2.5779563E-1,3.532507E-1,5.475107E-1,2.4202481E-1,3.033689E-1,3.532566E-1,5.13977E-1,3.683449E-1,4.3875057E-1,4.8549348E-1,6.665885E-1,5.086707E-1,6.0641205E-1,6.056339E-1,7.045283E-1,7.711329E-1,8.695822E-1,8.726077E-1,1.0060333E0,1.1095419E0,1.3351582E0,1.9348961E0,2.5884435E0,2.0020483E0,1.3756943E0,1.1266568E0,2.3650177E0,1.8270524E0,2.5210497E0,1.7150052E0,2.2721486E0],"categories":[],"categories_nodes":[],"categories_segments":[],"categories_sizes":[],"default_left":[0,0,0,0,0,0,0,0,0,0,0,0,0,0,0,0,0,0,0,0,0,0,0,0,0,0,0,0,0,0,0,0,0,0,0,0,0,0,0,0,0,0,0,0,0,0,0,0,0,0,0,0,0,0,0,0,0,0,0,0,0,0,0,0,0,0,0,0,0,0,0,0,0,0,0,0,0,0,0,0,0,0,0,0,0,0,0,0,0,0,0,0,0,0,0,0,0,0,0,0,0,0,0,0,0,0,0,0,0,0,0,0,0,0,0,0,0,0,0,0,0,0,0],"id":2,"left_children":[1,3,5,7,9,11,13,15,17,19,21,23,25,27,29,31,33,35,37,39,41,43,45,47,49,51,53,55,57,59,61,63,65,67,69,71,73,75,77,79,81,83,85,87,89,91,93,95,97,99,101,103,105,107,109,111,113,115,117,119,121,-1,-1,-1,-1,-1,-1,-1,-1,-1,-1,-1,-1,-1,-1,-1,-1,-1,-1,-1,-1,-1,-1,-1,-1,-1,-1,-1,-1,-1,-1,-1,-1,-1,-1,-1,-1,-1,-1,-1,-1,-1,-1,-1,-1,-1,-1,-1,-1,-1,-1,-1,-1,-1,-1,-1,-1,-1,-1,-1,-1,-1,-1],"loss_changes":[1.727906E6,3.05613E5,4.78589E5,9.701419E4,4.4267953E4,1.15890375E5,1.5433125E4,2.3045781E4,1.3838613E4,1.917014E4,1.1745781E4,1.6954812E4,1.57888125E4,1.365225E4,6.634531E2,8.627781E3,3.7199336E3,2.67242E3,2.9569668E3,3.5777988E3,4.7667266E3,4.666117E3,2.9836953E3,5.1594844E3,3.1239062E3,2.3631562E3,1.002E3,1.14635E4,1.40489375E4,8.27E2,4.9029297E2,5.2201016E3,3.9967344E3,2.139412E3,1.031996E3,2.790254E2,3.0708496E2,6.0228516E2,5.9934766E2,4.3004155E3,6.7200195E2,7.446797E2,1.1796562E3,6.2024414E2,7.397617E2,1.5829062E3,6.129492E2,1.5801484E3,1.0772266E3,1.1975469E3,7.131094E2,9.1603906E2,1.2583125E3,3.303125E2,1.4540625E2,2.2269375E3,5.2159766E2,4.6640938E3,1.5380266E4,1.885625E3,4.4703125E1,0E0,0E0,0E0,0E0,0E0,0E0,0E0,0E0,0E0,0E0,0E0,0E0,0E0,0E0,0E0,0E0,0E0,0E0,0E0,0E0,0E0,0E0,0E0,0E0,0E0,0E0,0E0,0E0,0E0,0E0,0E0,0E0,0E0,0E0,0E0,0E0,0E0,0E0,0E0,0E0,0E0,0E0,0E0,0E0,0E0,0E0,0E0,0E0,0E0,0E0,0E0,0E0,0E0,0E0,0E0,0E0,0E0,0E0,0E0,0E0,0E0,0E0],"parents":[2147483647,0,0,1,1,2,2,3,3,4,4,5,5,6,6,7,7,8,8,9,9,10,10,11,11,12,12,13,13,14,14,15,15,16,16,17,17,18,18,19,19,20,20,21,21,22,22,23,23,24,24,25,25,26,26,27,27,28,28,29,29,30,30,31,31,32,32,33,33,34,34,35,35,36,36,37,37,38,38,39,39,40,40,41,41,42,42,43,43,44,44,45,45,46,46,47,47,48,48,49,49,50,50,51,51,52,52,53,53,54,54,55,55,56,56,57,57,58,58,59,59,60,60],"right_children":[2,4,6,8,10,12,14,16,18,20,22,24,26,28,30,32,34,36,38,40,42,44,46,48,50,52,54,56,58,60,62,64,66,68,70,72,74,76,78,80,82,84,86,88,90,92,94,96,98,100,102,104,106,108,110,112,114,116,118,120,122,-1,-1,-1,-1,-1,-1,-1,-1,-1,-1,-1,-1,-1,-1,-1,-1,-1,-1,-1,-1,-1,-1,-1,-1,-1,-1,-1,-1,-1,-1,-1,-1,-1,-1,-1,-1,-1,-1,-1,-1,-1,-1,-1,-1,-1,-1,-1,-1,-1,-1,-1,-1,-1,-1,-1,-1,-1,-1,-1,-1,-1,-1],"split_conditions":[1.5670669E0,2.049171E-1,6.604582E0,-1.0123707E-1,6.3044363E-1,3.490942E0,1.6744196E1,-2.2787407E-1,2.8384912E0,-2.774387E-2,-2.774387E-2,2.453062E0,4.959162E0,6.660666E0,1.0485922E0,3.7199518E-1,-5.956639E-2,1.6625999E0,5.704726E0,-1.5150891E-1,2.6915047E0,1.1185874E0,5.263767E0,-2.774387E-2,-2.774387E-2,3.93173E0,1.9273575E-1,4.330378E1,1.0382943E0,-8.256257E-1,-1.0784793E0,1.485247E-1,1.3306674E0,3.6377993E-1,4.0211782E-1,1.2951338E0,2.1770523E0,3.867396E0,9.085414E0,3.8654944E-1,8.2980734E-1,6.33695E-1,4.896301E0,1.3844644E0,2.109785E0,1.0860982E0,7.836029E0,2.0227215E0,4.286188E0,2.969972E0,4.7217317E0,-2.774387E-2,-2.774387E-2,9.789651E0,3.8506446E0,9.276678E-1,5.3700188E1,-8.1896466E-1,-1.4230819E0,9.3774974E-1,2.5723708E0,1.7310257E0,2.5575578E0,-5.6596078E-2,-3.0908788E-2,-7.455172E-2,-3.306783E-2,-2.4564935E-2,-4.5553878E-2,-1.5505103E-3,-2.1477683E-2,4.7778226E-2,6.7679696E-2,9.274296E-2,1.24712564E-1,1.6842471E-1,2.3764575E-1,3.5489875E-1,5.824408E-1,5.368119E-3,6.908632E-2,5.6897998E-2,9.3645334E-2,1.0230627E-1,1.3788754E-1,2.2669128E-1,3.943956E-1,9.982413E-2,1.4111696E-1,1.6152453E-1,2.0808315E-1,1.9638497E-1,2.5779563E-1,3.532507E-1,5.475107E-1,2.4202481E-1,3.033689E-1,3.532566E-1,5.13977E-1,3.683449E-1,4.3875057E-1,4.8549348E-1,6.665885E-1,5.086707E-1,6.0641205E-1,6.056339E-1,7.045283E-1,7.711329E-1,8.695822E-1,8.726077E-1,1.0060333E0,1.1095419E0,1.3351582E0,1.9348961E0,2.5884435E0,2.0020483E0,1.3756943E0,1.1266568E0,2.3650177E0,1.8270524E0,2.5210497E0,1.7150052E0,2.2721486E0],"split_indices":[178,148,178,163,178,178,165,148,163,163,163,178,178,161,146,181,148,163,163,165,163,148,163,163,163,148,163,162,146,146,150,149,152,181,181,163,163,163,163,161,165,163,163,165,165,178,163,178,149,148,149,163,163,165,149,163,162,150,154,150,161,0,0,0,0,0,0,0,0,0,0,0,0,0,0,0,0,0,0,0,0,0,0,0,0,0,0,0,0,0,0,0,0,0,0,0,0,0,0,0,0,0,0,0,0,0,0,0,0,0,0,0,0,0,0,0,0,0,0,0,0,0,0],"split_type":[0,0,0,0,0,0,0,0,0,0,0,0,0,0,0,0,0,0,0,0,0,0,0,0,0,0,0,0,0,0,0,0,0,0,0,0,0,0,0,0,0,0,0,0,0,0,0,0,0,0,0,0,0,0,0,0,0,0,0,0,0,0,0,0,0,0,0,0,0,0,0,0,0,0,0,0,0,0,0,0,0,0,0,0,0,0,0,0,0,0,0,0,0,0,0,0,0,0,0,0,0,0,0,0,0,0,0,0,0,0,0,0,0,0,0,0,0,0,0,0,0,0,0],"sum_hessian":[1.359115E6,1.297474E6,6.1641E4,1.122359E6,1.75115E5,5.6565E4,5.076E3,1.064705E6,5.7654E4,1.10025E5,6.509E4,4.1218E4,1.5347E4,4.565E3,5.11E2,7.66405E5,2.983E5,5.1387E4,6.267E3,8.3656E4,2.6369E4,4.6246E4,1.8844E4,2.6007E4,1.5211E4,1.035E4,4.997E3,2.373E3,2.192E3,4.43E2,6.8E1,4.22759E5,3.43646E5,1.94292E5,1.04008E5,3.884E4,1.2547E4,5.371E3,8.96E2,5.5822E4,2.7834E4,2.3612E4,2.757E3,2.4935E4,2.1311E4,1.7732E4,1.112E3,1.7589E4,8.418E3,1.0066E4,5.145E3,4.419E3,5.931E3,3.523E3,1.474E3,2.277E3,9.6E1,1.677E3,5.15E2,2.1E2,2.33E2,2.1E1,4.7E1,3.1737E5,1.05389E5,3.18592E5,2.5054E4,9.6139E4,9.8153E4,5.0853E4,5.3155E4,2.9577E4,9.263E3,7.499E3,5.048E3,3.331E3,2.04E3,7.56E2,1.4E2,4.1614E4,1.4208E4,2.1338E4,6.496E3,1.2249E4,1.1363E4,2.238E3,5.19E2,2.0502E4,4.433E3,1.702E4,4.291E3,1.0851E4,6.881E3,9.09E2,2.03E2,1.0566E4,7.023E3,7.973E3,4.45E2,5.858E3,4.208E3,4.91E3,2.35E2,2.921E3,1.498E3,3.92E3,2.011E3,3.056E3,4.67E2,1.335E3,1.39E2,1.627E3,6.5E2,4.7E1,4.9E1,1.34E2,1.543E3,1.41E2,3.74E2,1.37E2,7.3E1,2.22E2,1.1E1],"tree_param":{"num_deleted":"0","num_feature":"201","num_nodes":"123","size_leaf_vector":"1"}},{"base_weights":[-6.5347215E-4,-2.1563818E-1,4.774561E0,-3.772087E-1,1.0288794E0,3.994895E0,1.3037902E1,-4.447004E-1,7.59592E-1,6.9128287E-1,1.6181122E0,3.1481695E0,5.9214606E0,1.2508257E1,1.783245E1,-5.252858E-1,-1.8246502E-1,6.158641E-1,2.062672E0,4.6684772E-1,1.3520206E0,1.3664653E0,2.2124166E0,2.7350492E0,3.822272E0,5.2473803E0,7.223062E0,1.511833E1,1.1579603E1,1.7244764E1,2.1310911E1,-5.610683E-1,-2.4544838E-1,-2.504832E-1,1.1749623E-2,5.1142865E-1,1.0137224E0,1.7855809E0,3.4150991E0,3.1000635E-1,6.8924886E-1,1.233736E0,2.6229718E0,1.1314907E0,1.69003E0,2.1385226E0,3.8599856E0,2.4605942E0,3.310379E0,3.5289865E0,4.395802E0,4.817773E0,5.69547E0,6.900513E0,7.840936E0,1.0904617E1,1.912716E1,1.4004586E1,1.0900224E1,1.7036547E1,2.31217E0,1.6948252E0,2.376807E0,-5.8343977E-2,-1.7781092E-2,-3.0384524E-2,-1.681443E-3,-3.0059278E-2,-1.0585481E-2,-1.5126884E-3,4.0170603E-2,4.6055485E-2,6.7702346E-2,9.0557806E-2,1.3015513E-1,1.5980951E-1,2.2184491E-1,3.064197E-1,4.8602548E-1,1.8948866E-2,5.359269E-2,6.166601E-2,9.6784845E-2,1.13881245E-1,1.5125534E-1,2.3451555E-1,3.9299485E-1,1.0594714E-1,1.476888E-1,1.6189545E-1,2.0663379E-1,1.9256485E-1,2.4563949E-1,3.4669742E-1,5.118403E-1,2.2339833E-1,2.730285E-1,3.2270747E-1,4.5068976E-1,3.1620988E-1,3.7495282E-1,4.3502933E-1,7.011551E-1,4.5150766E-1,5.4060835E-1,5.39226E-1,6.2694436E-1,6.71617E-1,7.584812E-1,7.7843547E-1,1.0482916E0,1.331865E0,9.666209E-1,9.164246E-1,2.1232274E0,1.1424077E0,2.253301E0,1.1740738E0,1.0248199E0,1.8177636E0,1.5975798E0],"categories":[],"categories_nodes":[],"categories_segments":[],"categories_sizes":[],"default_left":[0,0,0,0,0,0,0,0,0,0,0,0,0,0,0,0,0,0,0,0,0,0,0,0,0,0,0,0,0,0,0,0,0,0,0,0,0,0,0,0,0,0,0,0,0,0,0,0,0,0,0,0,0,0,0,0,0,0,0,0,0,0,0,0,0,0,0,0,0,0,0,0,0,0,0,0,0,0,0,0,0,0,0,0,0,0,0,0,0,0,0,0,0,0,0,0,0,0,0,0,0,0,0,0,0,0,0,0,0,0,0,0,0,0,0,0,0,0,0,0,0],"id":3,"left_children":[1,3,5,7,9,11,13,15,17,19,21,23,25,27,29,31,33,35,37,39,41,43,45,47,49,51,53,55,57,59,61,63,65,67,69,71,73,75,77,79,81,83,85,87,89,91,93,95,97,99,101,103,105,107,109,111,113,115,117,119,-1,-1,-1,-1,-1,-1,-1,-1,-1,-1,-1,-1,-1,-1,-1,-1,-1,-1,-1,-1,-1,-1,-1,-1,-1,-1,-1,-1,-1,-1,-1,-1,-1,-1,-1,-1,-1,-1,-1,-1,-1,-1,-1,-1,-1,-1,-1,-1,-1,-1,-1,-1,-1,-1,-1,-1,-1,-1,-1,-1,-1],"loss_changes":[1.3958711E6,2.6162775E5,3.773435E5,8.835778E4,2.9739625E4,8.730081E4,1.25979375E4,2.297236E4,1.2086094E4,1.4094859E4,8.141078E3,1.0345219E4,1.4299125E4,1.085325E4,6.507656E2,8.326297E3,3.375705E3,2.4146602E3,2.395875E3,2.4746826E3,3.6194219E3,2.9067656E3,1.9631719E3,3.6326562E3,2.360125E3,2.0447812E3,1.0550625E3,1.9906844E4,5.382E3,1.3192969E2,3.2204492E2,6.321172E3,1.258689E3,1.3715137E3,6.9472424E2,3.8748535E2,3.7477148E2,4.280703E2,5.3655664E2,1.1328135E3,5.926543E2,5.8159375E2,7.348721E2,5.4961914E2,4.267422E2,1.0440156E3,3.2462988E2,9.4783594E2,7.2677344E2,7.442422E2,5.3689844E2,9.5491406E2,8.814844E2,4.105625E2,2.0119531E2,1.611875E3,1.2574984E4,1.58488125E4,1.3188438E3,2.1696875E2,0E0,0E0,0E0,0E0,0E0,0E0,0E0,0E0,0E0,0E0,0E0,0E0,0E0,0E0,0E0,0E0,0E0,0E0,0E0,0E0,0E0,0E0,0E0,0E0,0E0,0E0,0E0,0E0,0E0,0E0,0E0,0E0,0E0,0E0,0E0,0E0,0E0,0E0,0E0,0E0,0E0,0E0,0E0,0E0,0E0,0E0,0E0,0E0,0E0,0E0,0E0,0E0,0E0,0E0,0E0,0E0,0E0,0E0,0E0,0E0,0E0],"parents":[2147483647,0,0,1,1,2,2,3,3,4,4,5,5,6,6,7,7,8,8,9,9,10,10,11,11,12,12,13,13,14,14,15,15,16,16,17,17,18,18,19,19,20,20,21,21,22,22,23,23,24,24,25,25,26,26,27,27,28,28,29,29,30,30,31,31,32,32,33,33,34,34,35,35,36,36,37,37,38,38,39,39,40,40,41,41,42,42,43,43,44,44,45,45,46,46,47,47,48,48,49,49,50,50,51,51,52,52,53,53,54,54,55,55,56,56,57,57,58,58,59,59],"right_children":[2,4,6,8,10,12,14,16,18,20,22,24,26,28,30,32,34,36,38,40,42,44,46,48,50,52,54,56,58,60,62,64,66,68,70,72,74,76,78,80,82,84,86,88,90,92,94,96,98,100,102,104,106,108,110,112,114,116,118,120,-1,-1,-1,-1,-1,-1,-1,-1,-1,-1,-1,-1,-1,-1,-1,-1,-1,-1,-1,-1,-1,-1,-1,-1,-1,-1,-1,-1,-1,-1,-1,-1,-1,-1,-1,-1,-1,-1,-1,-1,-1,-1,-1,-1,-1,-1,-1,-1,-1,-1,-1,-1,-1,-1,-1,-1,-1,-1,-1,-1,-1],"split_conditions":[1.7196862E0,3.0109292E-1,6.604582E0,-1.0123707E-1,8.7814784E-1,3.378719E0,1.6744196E1,-2.0383011E-1,2.9119844E0,-2.774387E-2,-2.774387E-2,2.453062E0,4.749224E0,-4.3371347E-1,1.6335702E0,6.929541E-1,6.065338E-2,1.736093E0,5.4842467E0,4.2793047E-1,3.2059572E0,1.1620407E0,5.998699E0,-2.774387E-2,-2.774387E-2,3.93173E0,-2.774387E-2,-1.6593928E0,-8.6070067E-1,6.660666E0,-1.0124415E0,1.4905148E0,1.7818129E0,1.485247E-1,-9.918862E-2,1.3278525E-1,-8.361034E-2,4.087876E0,8.423975E0,-9.918862E-2,9.578051E-1,1.4421202E0,5.704726E0,1.6404599E0,2.4084466E0,1.286895E0,8.423975E0,2.0227215E0,3.8506446E0,2.7315176E0,1.2392608E1,-2.774387E-2,-2.774387E-2,9.149662E0,6.7654786E0,1.6335702E0,-6.7345303E-1,5.041876E-1,-1.5150891E-1,-5.259857E-1,2.31217E0,1.6948252E0,2.376807E0,-5.8343977E-2,-1.7781092E-2,-3.0384524E-2,-1.681443E-3,-3.0059278E-2,-1.0585481E-2,-1.5126884E-3,4.0170603E-2,4.6055485E-2,6.7702346E-2,9.0557806E-2,1.3015513E-1,1.5980951E-1,2.2184491E-1,3.064197E-1,4.8602548E-1,1.8948866E-2,5.359269E-2,6.166601E-2,9.6784845E-2,1.13881245E-1,1.5125534E-1,2.3451555E-1,3.9299485E-1,1.0594714E-1,1.476888E-1,1.6189545E-1,2.0663379E-1,1.9256485E-1,2.4563949E-1,3.4669742E-1,5.118403E-1,2.2339833E-1,2.730285E-1,3.2270747E-1,4.5068976E-1,3.1620988E-1,3.7495282E-1,4.3502933E-1,7.011551E-1,4.5150766E-1,5.4060835E-1,5.39226E-1,6.2694436E-1,6.71617E-1,7.584812E-1,7.7843547E-1,1.0482916E0,1.331865E0,9.666209E-1,9.164246E-1,2.1232274E0,1.1424077E0,2.253301E0,1.1740738E0,1.0248199E0,1.8177636E0,1.5975798E0],"split_indices":[148,148,178,163,148,148,165,148,163,163,163,178,148,147,170,149,148,163,163,178,163,178,163,163,163,148,163,150,153,161,147,152,149,149,161,148,148,163,163,161,165,163,163,165,165,148,163,178,149,178,163,163,163,165,152,170,170,151,165,153,0,0,0,0,0,0,0,0,0,0,0,0,0,0,0,0,0,0,0,0,0,0,0,0,0,0,0,0,0,0,0,0,0,0,0,0,0,0,0,0,0,0,0,0,0,0,0,0,0,0,0,0,0,0,0,0,0,0,0,0,0],"split_type":[0,0,0,0,0,0,0,0,0,0,0,0,0,0,0,0,0,0,0,0,0,0,0,0,0,0,0,0,0,0,0,0,0,0,0,0,0,0,0,0,0,0,0,0,0,0,0,0,0,0,0,0,0,0,0,0,0,0,0,0,0,0,0,0,0,0,0,0,0,0,0,0,0,0,0,0,0,0,0,0,0,0,0,0,0,0,0,0,0,0,0,0,0,0,0,0,0,0,0,0,0,0,0,0,0,0,0,0,0,0,0,0,0,0,0,0,0,0,0,0,0],"sum_hessian":[1.359704E6,1.301127E6,5.8577E4,1.151618E6,1.49509E5,5.3528E4,5.049E3,1.087079E6,6.4539E4,9.5052E4,5.4457E4,3.7187E4,1.6341E4,4.55E3,4.99E2,8.31543E5,2.55536E5,5.8129E4,6.41E3,7.0953E4,2.4099E4,3.826E4,1.6197E4,2.306E4,1.4127E4,1.0769E4,5.572E3,1.19E3,3.36E3,4.32E2,6.7E1,7.37268E5,9.4275E4,1.89255E5,6.6281E4,4.6045E4,1.2084E4,5.322E3,1.088E3,4.1611E4,2.9342E4,2.2049E4,2.05E3,2.2167E4,1.6093E4,1.5504E4,6.93E2,1.5616E4,7.444E3,9.352E3,4.775E3,5.504E3,5.265E3,3.669E3,1.903E3,5.82E2,6.08E2,7.31E2,2.629E3,4.21E2,1.1E1,2.7E1,4E1,6.96605E5,4.0663E4,7.5094E4,1.9181E4,1.40555E5,4.87E4,6.2008E4,4.273E3,3.5227E4,1.0818E4,8.787E3,3.297E3,3.717E3,1.605E3,8.78E2,2.1E2,2.7137E4,1.4474E4,2.328E4,6.062E3,1.6453E4,5.596E3,1.693E3,3.57E2,1.8346E4,3.821E3,1.3541E4,2.552E3,9.29E3,6.214E3,5.31E2,1.62E2,8.491E3,7.125E3,6.963E3,4.81E2,3.517E3,5.835E3,4.696E3,7.9E1,3.64E3,1.864E3,3.452E3,1.813E3,2.899E3,7.7E2,1.867E3,3.6E1,1.94E2,3.88E2,1.07E2,5.01E2,5.63E2,1.68E2,1.141E3,1.488E3,1.95E2,2.26E2],"tree_param":{"num_deleted":"0","num_feature":"201","num_nodes":"121","size_leaf_vector":"1"}},{"base_weights":[-6.0517463E-4,-1.8567479E-1,4.4886928E0,-3.36143E-1,9.889183E-1,3.7417192E0,1.1707935E1,-3.980018E-1,6.86424E-1,6.954438E-1,1.6048051E0,2.978313E0,5.4182816E0,1.1206355E1,1.6130524E1,-5.015338E-1,-2.1967289E-1,5.345283E-1,1.6762754E0,4.76057E-1,1.2508975E0,1.3778582E0,2.1392448E0,2.628519E0,3.627579E0,4.838243E0,6.601759E0,9.837713E0,1.2671789E1,1.5582274E1,1.9423166E1,-5.290502E-1,-2.467324E-1,-2.9381782E-1,-3.765514E-2,4.4220114E-1,7.9687434E-1,1.4431641E0,2.8896692E0,3.179468E-1,7.19477E-1,1.1647571E0,2.7296128E0,1.1675048E0,1.6591679E0,2.0738225E0,3.7731004E0,2.384883E0,3.1413736E0,3.35478E0,4.157725E0,4.448432E0,5.2322135E0,6.3178234E0,7.1388035E0,1.1536317E1,9.136644E0,1.1509217E1,1.6573414E1,1.5311537E1,2.0301828E0,1.3313886E0,2.0734365E0,-6.467046E-2,-4.701249E-2,-3.1596933E-2,2.4537125E-3,-3.1323176E-2,-5.5495827E-3,-5.7992293E-3,3.749616E-2,3.587691E-2,5.557968E-2,6.9205336E-2,1.07603885E-1,1.2553266E-1,1.765493E-1,2.5072834E-1,3.9745006E-1,2.0247532E-2,5.101177E-2,6.618063E-2,1.0761845E-1,9.73944E-2,1.3175862E-1,2.4328998E-1,4.1561207E-1,1.097457E-1,1.4920308E-1,1.5934381E-1,2.0116968E-1,1.9137016E-1,2.3974676E-1,3.5111296E-1,5.510399E-1,2.192425E-1,2.6789248E-1,3.080446E-1,4.646309E-1,3.1396338E-1,3.644617E-1,4.1020465E-1,6.027896E-1,4.1845855E-1,5.00052E-1,4.9663258E-1,5.757896E-1,6.197431E-1,7.0641744E-1,7.0984745E-1,9.9389166E-1,1.4986752E0,1.0486308E0,8.388757E-1,1.0754665E0,1.7502078E0,1.1084646E0,1.0605705E0,2.0196507E0,1.6520548E0,1.410392E0],"categories":[],"categories_nodes":[],"categories_segments":[],"categories_sizes":[],"default_left":[0,0,0,0,0,0,0,0,0,0,0,0,0,0,0,0,0,0,0,0,0,0,0,0,0,0,0,0,0,0,0,0,0,0,0,0,0,0,0,0,0,0,0,0,0,0,0,0,0,0,0,0,0,0,0,0,0,0,0,0,0,0,0,0,0,0,0,0,0,0,0,0,0,0,0,0,0,0,0,0,0,0,0,0,0,0,0,0,0,0,0,0,0,0,0,0,0,0,0,0,0,0,0,0,0,0,0,0,0,0,0,0,0,0,0,0,0,0,0,0,0],"id":4,"left_children":[1,3,5,7,9,11,13,15,17,19,21,23,25,27,29,31,33,35,37,39,41,43,45,47,49,51,53,55,57,59,61,63,65,67,69,71,73,75,77,79,81,83,85,87,89,91,93,95,97,99,101,103,105,107,109,111,113,115,117,119,-1,-1,-1,-1,-1,-1,-1,-1,-1,-1,-1,-1,-1,-1,-1,-1,-1,-1,-1,-1,-1,-1,-1,-1,-1,-1,-1,-1,-1,-1,-1,-1,-1,-1,-1,-1,-1,-1,-1,-1,-1,-1,-1,-1,-1,-1,-1,-1,-1,-1,-1,-1,-1,-1,-1,-1,-1,-1,-1,-1,-1],"loss_changes":[1.1300432E6,2.308713E5,2.903505E5,7.324598E4,2.6809953E4,6.2445938E4,1.10166875E4,2.0159234E4,9.930225E3,1.2241941E4,5.8029453E3,7.6061875E3,1.04478125E4,8.97475E3,6.1809375E2,4.843297E3,5.412715E3,1.386627E3,2.4808477E3,2.7715938E3,3.6196719E3,1.9863398E3,1.5165977E3,2.715625E3,1.6830312E3,1.5499219E3,7.18875E2,2.6922031E3,9.731E3,2.5291406E2,2.7326367E2,4.322125E3,1.2646953E3,1.318502E3,9.741532E2,4.011953E2,4.3526172E2,4.438838E2,5.763633E2,9.6874023E2,5.825029E2,7.823906E2,6.516367E2,4.3526953E2,3.2952734E2,7.059844E2,2.2915625E2,8.3016406E2,6.283203E2,4.7152344E2,3.891172E2,7.2964844E2,6.820469E2,2.5070312E2,1.2288281E2,2.3147969E3,1.9275156E3,4.100625E3,1.05935E4,3.8297656E2,0E0,0E0,0E0,0E0,0E0,0E0,0E0,0E0,0E0,0E0,0E0,0E0,0E0,0E0,0E0,0E0,0E0,0E0,0E0,0E0,0E0,0E0,0E0,0E0,0E0,0E0,0E0,0E0,0E0,0E0,0E0,0E0,0E0,0E0,0E0,0E0,0E0,0E0,0E0,0E0,0E0,0E0,0E0,0E0,0E0,0E0,0E0,0E0,0E0,0E0,0E0,0E0,0E0,0E0,0E0,0E0,0E0,0E0,0E0,0E0,0E0],"parents":[2147483647,0,0,1,1,2,2,3,3,4,4,5,5,6,6,7,7,8,8,9,9,10,10,11,11,12,12,13,13,14,14,15,15,16,16,17,17,18,18,19,19,20,20,21,21,22,22,23,23,24,24,25,25,26,26,27,27,28,28,29,29,30,30,31,31,32,32,33,33,34,34,35,35,36,36,37,37,38,38,39,39,40,40,41,41,42,42,43,43,44,44,45,45,46,46,47,47,48,48,49,49,50,50,51,51,52,52,53,53,54,54,55,55,56,56,57,57,58,58,59,59],"right_children":[2,4,6,8,10,12,14,16,18,20,22,24,26,28,30,32,34,36,38,40,42,44,46,48,50,52,54,56,58,60,62,64,66,68,70,72,74,76,78,80,82,84,86,88,90,92,94,96,98,100,102,104,106,108,110,112,114,116,118,120,-1,-1,-1,-1,-1,-1,-1,-1,-1,-1,-1,-1,-1,-1,-1,-1,-1,-1,-1,-1,-1,-1,-1,-1,-1,-1,-1,-1,-1,-1,-1,-1,-1,-1,-1,-1,-1,-1,-1,-1,-1,-1,-1,-1,-1,-1,-1,-1,-1,-1,-1,-1,-1,-1,-1,-1,-1,-1,-1,-1,-1],"split_conditions":[1.839906E0,3.2513687E-1,6.604582E0,-1.0123707E-1,9.983676E-1,3.490942E0,1.6744196E1,-2.5191802E-1,2.5445182E0,-1.0123707E-1,-2.774387E-2,2.6574004E0,4.959162E0,6.660666E0,1.2133586E0,1.0109726E0,-3.5522435E-2,1.5156134E0,5.0432873E0,5.038729E-1,3.867396E0,1.3830708E0,6.5866446E0,-2.774387E-2,-2.774387E-2,4.0731673E0,-2.774387E-2,4.456411E0,1.0485922E0,2.5723708E0,-1.1446078E0,-3.7213778E-1,2.6094465E0,1.0109726E0,-9.918862E-2,3.6609426E-2,-8.361034E-2,3.49993E0,7.3215766E0,-1.5150891E-1,1.0746783E0,4.8670858E-1,6.5866446E0,1.8537894E0,2.621776E0,1.4792466E0,7.018096E-1,2.2252347E0,9.085414E0,3.0606015E0,5.8063946E0,4.5749336E-2,-2.774387E-2,9.789651E0,8.204105E0,-4.3371347E-1,1.3330923E1,-1.0084364E0,-1.2681246E0,-8.050299E-1,2.0301828E0,1.3313886E0,2.0734365E0,-6.467046E-2,-4.701249E-2,-3.1596933E-2,2.4537125E-3,-3.1323176E-2,-5.5495827E-3,-5.7992293E-3,3.749616E-2,3.587691E-2,5.557968E-2,6.9205336E-2,1.07603885E-1,1.2553266E-1,1.765493E-1,2.5072834E-1,3.9745006E-1,2.0247532E-2,5.101177E-2,6.618063E-2,1.0761845E-1,9.73944E-2,1.3175862E-1,2.4328998E-1,4.1561207E-1,1.097457E-1,1.4920308E-1,1.5934381E-1,2.0116968E-1,1.9137016E-1,2.3974676E-1,3.5111296E-1,5.510399E-1,2.192425E-1,2.6789248E-1,3.080446E-1,4.646309E-1,3.1396338E-1,3.644617E-1,4.1020465E-1,6.027896E-1,4.1845855E-1,5.00052E-1,4.9663258E-1,5.757896E-1,6.197431E-1,7.0641744E-1,7.0984745E-1,9.9389166E-1,1.4986752E0,1.0486308E0,8.388757E-1,1.0754665E0,1.7502078E0,1.1084646E0,1.0605705E0,2.0196507E0,1.6520548E0,1.410392E0],"split_indices":[148,148,178,163,148,178,165,148,163,163,163,148,178,161,146,152,148,163,163,178,163,148,163,163,163,178,163,165,146,161,147,148,152,152,161,148,148,163,163,165,161,163,163,165,165,148,165,178,163,178,152,163,163,165,152,147,165,147,150,146,0,0,0,0,0,0,0,0,0,0,0,0,0,0,0,0,0,0,0,0,0,0,0,0,0,0,0,0,0,0,0,0,0,0,0,0,0,0,0,0,0,0,0,0,0,0,0,0,0,0,0,0,0,0,0,0,0,0,0,0,0],"split_type":[0,0,0,0,0,0,0,0,0,0,0,0,0,0,0,0,0,0,0,0,0,0,0,0,0,0,0,0,0,0,0,0,0,0,0,0,0,0,0,0,0,0,0,0,0,0,0,0,0,0,0,0,0,0,0,0,0,0,0,0,0,0,0,0,0,0,0,0,0,0,0,0,0,0,0,0,0,0,0,0,0,0,0,0,0,0,0,0,0,0,0,0,0,0,0,0,0,0,0,0,0,0,0,0,0,0,0,0,0,0,0,0,0,0,0,0,0,0,0,0,0],"sum_hessian":[1.360132E6,1.306282E6,5.385E4,1.157947E6,1.48335E5,4.8802E4,5.048E3,1.091895E6,6.6052E4,1.00465E5,4.787E4,3.3535E4,1.5267E4,4.537E3,5.11E2,6.90823E5,4.01072E5,5.7266E4,8.786E3,7.2021E4,2.8444E4,3.3604E4,1.4266E4,2.1797E4,1.1738E4,1.0249E4,5.018E3,2.35E3,2.187E3,4.43E2,6.8E1,6.2349E5,6.7333E4,2.84983E5,1.16089E5,4.2361E4,1.4905E4,7.372E3,1.414E3,4.3663E4,2.8358E4,2.688E4,1.564E3,1.923E4,1.4374E4,1.3719E4,5.47E2,1.4781E4,7.016E3,7.755E3,3.983E3,5.158E3,5.091E3,3.291E3,1.727E3,6.82E2,1.668E3,1.688E3,4.99E2,4.23E2,2E1,1.4E1,5.4E1,2.08057E5,4.15433E5,5.3642E4,1.3691E4,2.63516E5,2.1467E4,1.10637E5,5.452E3,2.4426E4,1.7935E4,1.0839E4,4.066E3,4.661E3,2.711E3,1.048E3,3.66E2,2.7276E4,1.6387E4,2.4414E4,3.944E3,1.1958E4,1.4922E4,1.297E3,2.67E2,1.582E4,3.41E3,1.212E4,2.254E3,9.183E3,4.536E3,4.78E2,6.9E1,8.939E3,5.842E3,6.746E3,2.7E2,4.458E3,3.297E3,3.871E3,1.12E2,3.496E3,1.662E3,3.388E3,1.703E3,2.842E3,4.49E2,1.706E3,2.1E1,1.56E2,5.26E2,1.145E3,5.23E2,1.09E2,1.579E3,1.9E2,3.09E2,2.05E2,2.18E2],"tree_param":{"num_deleted":"0","num_feature":"201","num_nodes":"121","size_leaf_vector":"1"}},{"base_weights":[2.6822946E-4,-1.670346E-1,4.0480638E0,-2.993264E-1,9.124862E-1,3.3544514E0,1.0378647E1,-3.5594127E-1,6.216714E-1,6.6241544E-1,1.4778363E0,2.6811748E0,4.8475847E0,9.900167E0,1.4696808E1,-4.2091155E-1,-1.1613224E-1,4.8931113E-1,1.5474786E0,4.8316973E-1,1.2181184E0,1.2825323E0,1.9824675E0,2.369732E0,3.2661593E0,4.3111644E0,5.813318E0,8.695543E0,1.123901E1,1.409389E1,1.8000935E1,-3.3914983E-1,-5.3302085E-1,-1.794069E-1,4.2653553E-2,4.0906838E-1,7.519573E-1,1.3023394E0,2.4760327E0,3.400765E-1,7.201901E-1,1.1346567E0,2.570462E0,1.129501E0,1.5651673E0,1.9228357E0,3.404616E0,2.1594956E0,2.877778E0,3.0277197E0,3.767473E0,4.090756E0,4.8452177E0,5.5682306E0,6.3620462E0,8.236711E0,1.5816001E1,1.0156255E1,1.4805368E1,1.526414E1,1.3042437E1,1.389984E0,2.0017552E0,-4.3989938E-2,-2.7862716E-2,-5.0909784E-2,-8.587869E-2,-8.918255E-3,-2.779373E-2,1.359437E-3,3.7359204E-2,3.5715126E-2,5.7121415E-2,6.6215865E-2,1.0296398E-1,1.1409016E-1,1.5390699E-1,2.2248876E-1,3.7229666E-1,2.1553148E-2,5.106143E-2,6.723093E-2,1.0889651E-1,9.75513E-2,1.3120736E-1,2.315666E-1,3.9778444E-1,1.0642784E-1,1.4636765E-1,1.5150954E-1,1.9861965E-1,1.7673524E-1,2.1655162E-1,3.1444323E-1,5.081705E-1,1.9518325E-1,2.3815624E-1,2.8299275E-1,4.645031E-1,2.8327283E-1,3.2908282E-1,3.7198064E-1,5.825108E-1,3.7795088E-1,4.444348E-1,4.758024E-1,6.329941E-1,5.4259926E-1,6.151948E-1,6.2581915E-1,7.552954E-1,7.867616E-1,1.0237479E0,1.3631682E0,1.9997377E0,1.4797509E0,9.7698396E-1,1.0146326E0,1.8739319E0,1.1800153E0,1.8301156E0,1.267163E0,1.7876698E0],"categories":[],"categories_nodes":[],"categories_segments":[],"categories_sizes":[],"default_left":[0,0,0,0,0,0,0,0,0,0,0,0,0,0,0,0,0,0,0,0,0,0,0,0,0,0,0,0,0,0,0,0,0,0,0,0,0,0,0,0,0,0,0,0,0,0,0,0,0,0,0,0,0,0,0,0,0,0,0,0,0,0,0,0,0,0,0,0,0,0,0,0,0,0,0,0,0,0,0,0,0,0,0,0,0,0,0,0,0,0,0,0,0,0,0,0,0,0,0,0,0,0,0,0,0,0,0,0,0,0,0,0,0,0,0,0,0,0,0,0,0,0,0],"id":5,"left_children":[1,3,5,7,9,11,13,15,17,19,21,23,25,27,29,31,33,35,37,39,41,43,45,47,49,51,53,55,57,59,61,63,65,67,69,71,73,75,77,79,81,83,85,87,89,91,93,95,97,99,101,103,105,107,109,111,113,115,117,119,121,-1,-1,-1,-1,-1,-1,-1,-1,-1,-1,-1,-1,-1,-1,-1,-1,-1,-1,-1,-1,-1,-1,-1,-1,-1,-1,-1,-1,-1,-1,-1,-1,-1,-1,-1,-1,-1,-1,-1,-1,-1,-1,-1,-1,-1,-1,-1,-1,-1,-1,-1,-1,-1,-1,-1,-1,-1,-1,-1,-1,-1,-1],"loss_changes":[9.199923E5,1.8631055E5,2.3672925E5,6.059817E4,2.013379E4,4.8841438E4,1.08521875E4,1.7058406E4,8.246355E3,9.834973E3,4.3016875E3,6.0945E3,7.7973438E3,7.6353125E3,7.969219E2,7.8961875E3,2.344978E3,1.240625E3,1.912543E3,2.5319531E3,2.7148242E3,1.3600586E3,1.0262734E3,2.3284688E3,1.3786875E3,1.1225938E3,6.8828125E2,8.1298125E3,8.605E3,3.542578E2,3.6345312E2,3.0374297E3,2.8307969E3,1.483582E3,6.3952167E2,3.794287E2,3.4273535E2,2.5258008E2,5.413467E2,9.8871387E2,4.953672E2,6.389707E2,4.9183496E2,4.435664E2,2.297832E2,4.3713672E2,1.9657422E2,7.0821875E2,5.2697656E2,3.9485156E2,3.4478906E2,7.3978125E2,3.3539844E2,2.7547656E2,1.5628906E2,1.6737344E3,1.1123242E3,2.9789688E3,9.44775E3,1.9692305E3,2.0960156E2,0E0,0E0,0E0,0E0,0E0,0E0,0E0,0E0,0E0,0E0,0E0,0E0,0E0,0E0,0E0,0E0,0E0,0E0,0E0,0E0,0E0,0E0,0E0,0E0,0E0,0E0,0E0,0E0,0E0,0E0,0E0,0E0,0E0,0E0,0E0,0E0,0E0,0E0,0E0,0E0,0E0,0E0,0E0,0E0,0E0,0E0,0E0,0E0,0E0,0E0,0E0,0E0,0E0,0E0,0E0,0E0,0E0,0E0,0E0,0E0,0E0,0E0],"parents":[2147483647,0,0,1,1,2,2,3,3,4,4,5,5,6,6,7,7,8,8,9,9,10,10,11,11,12,12,13,13,14,14,15,15,16,16,17,17,18,18,19,19,20,20,21,21,22,22,23,23,24,24,25,25,26,26,27,27,28,28,29,29,30,30,31,31,32,32,33,33,34,34,35,35,36,36,37,37,38,38,39,39,40,40,41,41,42,42,43,43,44,44,45,45,46,46,47,47,48,48,49,49,50,50,51,51,52,52,53,53,54,54,55,55,56,56,57,57,58,58,59,59,60,60],"right_children":[2,4,6,8,10,12,14,16,18,20,22,24,26,28,30,32,34,36,38,40,42,44,46,48,50,52,54,56,58,60,62,64,66,68,70,72,74,76,78,80,82,84,86,88,90,92,94,96,98,100,102,104,106,108,110,112,114,116,118,120,122,-1,-1,-1,-1,-1,-1,-1,-1,-1,-1,-1,-1,-1,-1,-1,-1,-1,-1,-1,-1,-1,-1,-1,-1,-1,-1,-1,-1,-1,-1,-1,-1,-1,-1,-1,-1,-1,-1,-1,-1,-1,-1,-1,-1,-1,-1,-1,-1,-1,-1,-1,-1,-1,-1,-1,-1,-1,-1,-1,-1,-1,-1],"split_conditions":[1.839906E0,3.4918082E-1,6.3120813E0,-1.0123707E-1,9.3421334E-1,3.490942E0,1.6744196E1,-1.7978616E-1,2.6180115E0,4.5749336E-2,4.5749336E-2,2.6574004E0,4.749224E0,6.660666E0,1.0897838E0,4.3406606E-1,8.4697336E-2,1.5891067E0,4.7493143E0,6.857962E-1,4.087876E0,1.4792466E0,6.5866446E0,1.1924254E-1,4.5749336E-2,1.9273575E-1,1.1924254E-1,3.4684536E1,1.0485922E0,-8.359236E-1,-1.0124415E0,-3.4809384E-1,1.7793456E0,4.4200993E-1,-1.5150891E-1,1.568292E-1,-3.5522435E-2,3.426437E0,7.836029E0,-9.918862E-2,1.2365911E0,5.038729E-1,6.9541106E0,1.7223291E0,2.5723708E0,1.3645538E0,9.893839E0,2.2005653E0,9.893839E0,3.0606015E0,1.2392608E1,4.0731673E0,1.46708975E1,9.149662E0,1.8492544E1,1.8492544E1,5.3700188E1,-8.1896466E-1,-1.2142254E0,6.0759646E-1,2.5723708E0,1.389984E0,2.0017552E0,-4.3989938E-2,-2.7862716E-2,-5.0909784E-2,-8.587869E-2,-8.918255E-3,-2.779373E-2,1.359437E-3,3.7359204E-2,3.5715126E-2,5.7121415E-2,6.6215865E-2,1.0296398E-1,1.1409016E-1,1.5390699E-1,2.2248876E-1,3.7229666E-1,2.1553148E-2,5.106143E-2,6.723093E-2,1.0889651E-1,9.75513E-2,1.3120736E-1,2.315666E-1,3.9778444E-1,1.0642784E-1,1.4636765E-1,1.5150954E-1,1.9861965E-1,1.7673524E-1,2.1655162E-1,3.1444323E-1,5.081705E-1,1.9518325E-1,2.3815624E-1,2.8299275E-1,4.645031E-1,2.8327283E-1,3.2908282E-1,3.7198064E-1,5.825108E-1,3.7795088E-1,4.444348E-1,4.758024E-1,6.329941E-1,5.4259926E-1,6.151948E-1,6.2581915E-1,7.552954E-1,7.867616E-1,1.0237479E0,1.3631682E0,1.9997377E0,1.4797509E0,9.7698396E-1,1.0146326E0,1.8739319E0,1.1800153E0,1.8301156E0,1.267163E0,1.7876698E0],"split_indices":[148,148,148,163,178,178,165,148,163,163,163,148,148,161,146,181,148,163,163,148,163,148,163,163,163,163,163,162,146,146,147,148,181,181,165,148,148,163,163,161,161,178,163,161,161,178,163,148,163,178,163,178,163,165,163,163,162,150,150,147,161,0,0,0,0,0,0,0,0,0,0,0,0,0,0,0,0,0,0,0,0,0,0,0,0,0,0,0,0,0,0,0,0,0,0,0,0,0,0,0,0,0,0,0,0,0,0,0,0,0,0,0,0,0,0,0,0,0,0,0,0,0,0],"split_type":[0,0,0,0,0,0,0,0,0,0,0,0,0,0,0,0,0,0,0,0,0,0,0,0,0,0,0,0,0,0,0,0,0,0,0,0,0,0,0,0,0,0,0,0,0,0,0,0,0,0,0,0,0,0,0,0,0,0,0,0,0,0,0,0,0,0,0,0,0,0,0,0,0,0,0,0,0,0,0,0,0,0,0,0,0,0,0,0,0,0,0,0,0,0,0,0,0,0,0,0,0,0,0,0,0,0,0,0,0,0,0,0,0,0,0,0,0,0,0,0,0,0,0],"sum_hessian":[1.358506E6,1.304586E6,5.392E4,1.162167E6,1.42419E5,4.8597E4,5.323E3,1.094865E6,6.7302E4,9.8744E4,4.3675E4,3.3496E4,1.5101E4,4.795E3,5.28E2,8.6147E5,2.33395E5,5.8885E4,8.417E3,7.4663E4,2.4081E4,3.1491E4,1.2184E4,2.1862E4,1.1634E4,9.712E3,5.389E3,2.528E3,2.267E3,4.51E2,7.7E1,4.98163E5,3.63307E5,1.66891E5,6.6504E4,4.5107E4,1.3778E4,6.661E3,1.756E3,4.6558E4,2.8105E4,2.2683E4,1.398E3,2.0433E4,1.1058E4,1.1696E4,4.88E2,1.5467E4,6.395E3,7.889E3,3.745E3,6.881E3,2.831E3,3.733E3,1.656E3,2.377E3,1.51E2,1.742E3,5.25E2,2.07E2,2.44E2,2.8E1,4.9E1,1.86949E5,3.11214E5,3.38455E5,2.4852E4,8.7119E4,7.9772E4,6.1137E4,5.367E3,3.417E4,1.0937E4,1.0414E4,3.364E3,3.964E3,2.697E3,1.464E3,2.92E2,2.6909E4,1.9649E4,2.4878E4,3.227E3,1.1961E4,1.0722E4,1.186E3,2.12E2,1.71E4,3.333E3,9.887E3,1.171E3,7.134E3,4.562E3,4.25E2,6.3E1,7.998E3,7.469E3,6.229E3,1.66E2,4.538E3,3.351E3,3.663E3,8.2E1,3.666E3,3.215E3,2.678E3,1.53E2,3.01E3,7.23E2,1.529E3,1.27E2,2.011E3,3.66E2,1.02E2,4.9E1,1.31E2,1.611E3,2.42E2,2.83E2,9.9E1,1.08E2,2.3E2,1.4E1],"tree_param":{"num_deleted":"0","num_feature":"201","num_nodes":"123","size_leaf_vector":"1"}},{"base_weights":[1.9950699E-4,-1.4601368E-1,3.7794244E0,-2.6739907E-1,8.66121E-1,3.1296375E0,9.570257E0,-3.1922865E-1,5.6180346E-1,6.231316E-1,1.3788896E0,2.622548E0,4.7296853E0,9.155141E0,1.3261645E1,-4.0882275E-1,-1.6788489E-1,4.305483E-1,1.3130852E0,4.4145325E-1,1.0724592E0,1.2133563E0,1.8607725E0,2.2324553E0,3.174199E0,4.197921E0,5.356846E0,1.1082109E1,8.546733E0,1.28315115E1,1.6359606E1,-4.6363953E-1,-2.5326538E-1,-2.2918719E-1,-5.0600995E-3,3.535333E-1,6.022638E-1,1.1072085E0,2.1824973E0,3.133267E-1,6.5014726E-1,9.8811346E-1,2.0912242E0,1.0449735E0,1.4534633E0,1.7728617E0,2.927827E0,2.0078752E0,2.6337996E0,2.9422078E0,3.6215987E0,3.9519086E0,4.6173368E0,5.143067E0,5.8553033E0,7.900518E0,1.5198779E1,1.6622545E1,8.400845E0,1.3633662E1,1.1687433E1,1.0945228E0,1.8853E0,-3.7910588E-2,-5.6260843E-2,-3.051889E-2,-3.924499E-3,-2.8128421E-2,-8.424612E-3,-2.6426746E-3,3.417325E-2,2.9368067E-2,5.0229162E-2,5.0445624E-2,8.4679835E-2,1.0037508E-1,1.406097E-1,1.8492433E-1,2.9415044E-1,2.4329552E-2,5.769545E-2,5.8786E-2,9.08283E-2,8.470493E-2,1.14785396E-1,1.8817328E-1,3.2408422E-1,9.765931E-2,1.3271293E-1,1.3895659E-1,1.7687653E-1,1.7262755E-1,3.2994986E-1,2.194536E-1,3.3612058E-1,1.8221307E-1,2.1874185E-1,2.5700352E-1,4.2263323E-1,2.7337152E-1,3.2757738E-1,3.5340118E-1,5.0118506E-1,3.8510254E-1,4.4795248E-1,4.5465562E-1,6.4715785E-1,5.051039E-1,5.7386774E-1,5.7254237E-1,6.993842E-1,7.430293E-1,9.804873E-1,1.0767337E0,1.7251529E0,7.1374255E-1,1.98342E0,9.1955405E-1,7.532998E-1,1.2163199E0,1.8379835E0,1.2736206E0,9.8382473E-1],"categories":[],"categories_nodes":[],"categories_segments":[],"categories_sizes":[],"default_left":[0,0,0,0,0,0,0,0,0,0,0,0,0,0,0,0,0,0,0,0,0,0,0,0,0,0,0,0,0,0,0,0,0,0,0,0,0,0,0,0,0,0,0,0,0,0,0,0,0,0,0,0,0,0,0,0,0,0,0,0,0,0,0,0,0,0,0,0,0,0,0,0,0,0,0,0,0,0,0,0,0,0,0,0,0,0,0,0,0,0,0,0,0,0,0,0,0,0,0,0,0,0,0,0,0,0,0,0,0,0,0,0,0,0,0,0,0,0,0,0,0,0,0],"id":6,"left_children":[1,3,5,7,9,11,13,15,17,19,21,23,25,27,29,31,33,35,37,39,41,43,45,47,49,51,53,55,57,59,61,63,65,67,69,71,73,75,77,79,81,83,85,87,89,91,93,95,97,99,101,103,105,107,109,111,113,115,117,119,121,-1,-1,-1,-1,-1,-1,-1,-1,-1,-1,-1,-1,-1,-1,-1,-1,-1,-1,-1,-1,-1,-1,-1,-1,-1,-1,-1,-1,-1,-1,-1,-1,-1,-1,-1,-1,-1,-1,-1,-1,-1,-1,-1,-1,-1,-1,-1,-1,-1,-1,-1,-1,-1,-1,-1,-1,-1,-1,-1,-1,-1,-1],"loss_changes":[7.510277E5,1.6076303E5,1.9046088E5,5.021461E4,1.7458258E4,3.69195E4,7.7020625E3,1.4910773E4,6.7771914E3,7.7606406E3,3.5911328E3,7.4310312E3,3.6294062E3,5.28925E3,4.7208594E2,5.8899062E3,4.0816055E3,7.7351855E2,1.8269082E3,1.8100283E3,2.3497422E3,1.3540898E3,1.0746953E3,1.8196328E3,1.4745781E3,5.9296875E2,5.0392188E2,1.4271844E4,3.9767188E3,2.5660938E2,5.8718164E2,4.272797E3,2.0001162E3,2.243127E3,8.2874084E2,3.5946826E2,4.327246E2,2.5398242E2,4.8883594E2,7.742842E2,4.133877E2,5.6852344E2,4.9721582E2,3.788711E2,2.756797E2,7.507344E2,2.701372E2,4.288164E2,7.259961E2,6.4647656E2,5.7614844E2,1.813086E2,2.565078E2,1.6304688E2,1.8049219E2,4.8241016E2,4.159633E3,1.7139766E3,2.29875E3,1.6019062E3,2.5061914E2,0E0,0E0,0E0,0E0,0E0,0E0,0E0,0E0,0E0,0E0,0E0,0E0,0E0,0E0,0E0,0E0,0E0,0E0,0E0,0E0,0E0,0E0,0E0,0E0,0E0,0E0,0E0,0E0,0E0,0E0,0E0,0E0,0E0,0E0,0E0,0E0,0E0,0E0,0E0,0E0,0E0,0E0,0E0,0E0,0E0,0E0,0E0,0E0,0E0,0E0,0E0,0E0,0E0,0E0,0E0,0E0,0E0,0E0,0E0,0E0,0E0,0E0],"parents":[2147483647,0,0,1,1,2,2,3,3,4,4,5,5,6,6,7,7,8,8,9,9,10,10,11,11,12,12,13,13,14,14,15,15,16,16,17,17,18,18,19,19,20,20,21,21,22,22,23,23,24,24,25,25,26,26,27,27,28,28,29,29,30,30,31,31,32,32,33,33,34,34,35,35,36,36,37,37,38,38,39,39,40,40,41,41,42,42,43,43,44,44,45,45,46,46,47,47,48,48,49,49,50,50,51,51,52,52,53,53,54,54,55,55,56,56,57,57,58,58,59,59,60,60],"right_children":[2,4,6,8,10,12,14,16,18,20,22,24,26,28,30,32,34,36,38,40,42,44,46,48,50,52,54,56,58,60,62,64,66,68,70,72,74,76,78,80,82,84,86,88,90,92,94,96,98,100,102,104,106,108,110,112,114,116,118,120,122,-1,-1,-1,-1,-1,-1,-1,-1,-1,-1,-1,-1,-1,-1,-1,-1,-1,-1,-1,-1,-1,-1,-1,-1,-1,-1,-1,-1,-1,-1,-1,-1,-1,-1,-1,-1,-1,-1,-1,-1,-1,-1,-1,-1,-1,-1,-1,-1,-1,-1,-1,-1,-1,-1,-1,-1,-1,-1,-1,-1,-1,-1],"split_conditions":[1.8708367E0,3.732248E-1,6.604582E0,-1.0123707E-1,1.0704994E0,3.93173E0,1.6744196E1,-2.5191802E-1,2.397532E0,-1.0123707E-1,1.9273575E-1,2.7315176E0,4.959162E0,-5.7989734E-1,1.2004387E0,1.485247E-1,-1.1478482E-2,1.3686271E0,4.6023283E0,5.798153E-1,3.5734231E0,1.4792466E0,3.8506446E0,-1.0123707E-1,-2.774387E-2,-1.0123707E-1,1.9273575E-1,-1.5491166E0,-1.6691058E0,-2.9697025E-1,-1.039271E0,3.2443318E-1,1.2373835E0,1.485247E-1,-1.5150891E-1,1.568292E-1,-8.361034E-2,-1.1478482E-2,6.5866446E0,6.164777E-1,1.2564666E0,6.617522E-1,6.2191787E0,1.9817873E0,2.79244E0,5.8063946E0,2.8384912E0,2.2252347E0,5.048389E0,3.378719E0,4.1773024E0,7.4856915E0,4.939503E0,9.789651E0,3.8506446E0,-1.7882943E0,-8.509137E-1,-4.2950538E-1,-1.08842984E-1,1.2443975E0,-6.705116E-1,1.0945228E0,1.8853E0,-3.7910588E-2,-5.6260843E-2,-3.051889E-2,-3.924499E-3,-2.8128421E-2,-8.424612E-3,-2.6426746E-3,3.417325E-2,2.9368067E-2,5.0229162E-2,5.0445624E-2,8.4679835E-2,1.0037508E-1,1.406097E-1,1.8492433E-1,2.9415044E-1,2.4329552E-2,5.769545E-2,5.8786E-2,9.08283E-2,8.470493E-2,1.14785396E-1,1.8817328E-1,3.2408422E-1,9.765931E-2,1.3271293E-1,1.3895659E-1,1.7687653E-1,1.7262755E-1,3.2994986E-1,2.194536E-1,3.3612058E-1,1.8221307E-1,2.1874185E-1,2.5700352E-1,4.2263323E-1,2.7337152E-1,3.2757738E-1,3.5340118E-1,5.0118506E-1,3.8510254E-1,4.4795248E-1,4.5465562E-1,6.4715785E-1,5.051039E-1,5.7386774E-1,5.7254237E-1,6.993842E-1,7.430293E-1,9.804873E-1,1.0767337E0,1.7251529E0,7.1374255E-1,1.98342E0,9.1955405E-1,7.532998E-1,1.2163199E0,1.8379835E0,1.2736206E0,9.8382473E-1],"split_indices":[178,148,178,163,148,148,165,148,163,163,163,178,178,147,153,149,148,163,163,178,163,148,149,163,163,163,163,147,153,153,154,181,149,149,165,148,148,148,163,165,165,148,163,165,165,152,163,178,149,148,149,165,149,165,149,151,153,151,165,147,154,0,0,0,0,0,0,0,0,0,0,0,0,0,0,0,0,0,0,0,0,0,0,0,0,0,0,0,0,0,0,0,0,0,0,0,0,0,0,0,0,0,0,0,0,0,0,0,0,0,0,0,0,0,0,0,0,0,0,0,0,0,0],"split_type":[0,0,0,0,0,0,0,0,0,0,0,0,0,0,0,0,0,0,0,0,0,0,0,0,0,0,0,0,0,0,0,0,0,0,0,0,0,0,0,0,0,0,0,0,0,0,0,0,0,0,0,0,0,0,0,0,0,0,0,0,0,0,0,0,0,0,0,0,0,0,0,0,0,0,0,0,0,0,0,0,0,0,0,0,0,0,0,0,0,0,0,0,0,0,0,0,0,0,0,0,0,0,0,0,0,0,0,0,0,0,0,0,0,0,0,0,0,0,0,0,0,0,0],"sum_hessian":[1.359145E6,1.308521E6,5.0624E4,1.168396E6,1.40125E5,4.5518E4,5.106E3,1.099662E6,6.8734E4,9.5074E4,4.5051E4,3.4566E4,1.0952E4,4.593E3,5.13E2,6.90745E5,4.08917E5,5.8513E4,1.0221E4,6.7702E4,2.7372E4,3.3535E4,1.1516E4,2.0251E4,1.4315E4,5.931E3,5.021E3,1.098E3,3.495E3,4.55E2,5.8E1,5.10757E5,1.79988E5,2.97071E5,1.11846E5,4.0398E4,1.8115E4,8.266E3,1.955E3,4.195E4,2.5752E4,2.5281E4,2.091E3,1.9715E4,1.382E4,1.0642E4,8.74E2,1.2989E4,7.262E3,9.432E3,4.883E3,3.745E3,2.186E3,3.522E3,1.499E3,6.21E2,4.77E2,6E1,3.435E3,2.61E2,1.94E2,2E1,3.8E1,2.75471E5,2.35286E5,1.44846E5,3.5142E4,2.18524E5,7.8547E4,1.05356E5,6.49E3,2.881E4,1.1588E4,1.2942E4,5.173E3,6.144E3,2.122E3,1.361E3,5.94E2,3.3147E4,8.803E3,2.0749E4,5.003E3,1.3429E4,1.1852E4,1.771E3,3.2E2,1.5873E4,3.842E3,1.1496E4,2.324E3,1.0329E4,3.13E2,3.27E2,5.47E2,6.39E3,6.599E3,6.985E3,2.77E2,5.81E3,3.622E3,4.597E3,2.86E2,3.151E3,5.94E2,2.109E3,7.7E1,3.059E3,4.63E2,1.351E3,1.48E2,5.02E2,1.19E2,1.53E2,3.24E2,1.6E1,4.4E1,1.788E3,1.647E3,2.02E2,5.9E1,1.2E2,7.4E1],"tree_param":{"num_deleted":"0","num_feature":"201","num_nodes":"123","size_leaf_vector":"1"}},{"base_weights":[6.636726E-4,-1.484372E-1,2.980139E0,-2.64897E-1,5.337217E-1,2.5043304E0,8.571292E0,-3.0302444E-1,4.7898242E-1,3.228815E-1,9.3506116E-1,1.8905867E0,3.6960847E0,8.167705E0,1.10270195E1,-3.8193908E-1,-1.9653058E-1,3.8469827E-1,1.384193E0,2.0787148E-1,8.698093E-1,7.60066E-1,1.3119608E0,1.6412098E0,2.2806654E0,3.2928643E0,4.7484612E0,1.0761538E1,7.804184E0,8.256826E0,1.6497667E1,-3.1638917E-1,-4.924475E-1,-1.03261314E-1,-2.707345E-1,3.094901E-1,6.976711E-1,1.2258747E0,2.4755857E0,1.11736424E-1,4.1025263E-1,7.504406E-1,1.618282E0,6.352927E-1,1.0089232E0,1.2404737E0,2.2941148E0,1.4558539E0,1.9841679E0,2.1108603E0,2.7040565E0,3.0364997E0,3.7402914E0,4.514457E0,5.1246204E0,7.8906655E0,1.6861578E1,9.0830765E0,6.92716E0,6.098122E0,1.0783192E1,1.4676938E1,1.8180083E0,-3.8318295E-2,-1.9510593E-2,-5.2770693E-2,-2.5826726E-2,-1.7213272E-2,3.13858E-4,-3.1069232E-2,-1.1129326E-2,2.4726361E-2,4.098981E-2,6.6325635E-2,9.473306E-2,1.08017996E-1,1.5354273E-1,2.330329E-1,4.929467E-1,4.2283416E-2,-2.87262E-4,3.4454774E-2,6.58729E-2,7.022875E-2,1.0241129E-1,1.4875649E-1,2.7617773E-1,5.800262E-2,9.2569E-2,9.629988E-2,1.4026324E-1,1.20195664E-1,2.3349737E-1,1.6660309E-1,2.678363E-1,1.3282259E-1,1.6383065E-1,1.9457844E-1,3.7523404E-1,1.972186E-1,2.2914098E-1,2.648996E-1,4.5176387E-1,2.7971986E-1,3.4429714E-1,3.5490632E-1,4.160547E-1,3.8599262E-1,4.592906E-1,5.0833005E-1,7.867686E-1,1.6127871E0,6.995521E-1,6.585057E-1,1.8670638E0,7.203396E-1,1.5375609E0,7.550348E-1,6.155164E-1,5.2963614E-1,7.025077E-1,1.1945258E0,8.2594836E-1,1.6529855E0,1.1445178E0],"categories":[],"categories_nodes":[],"categories_segments":[],"categories_sizes":[],"default_left":[0,0,0,0,0,0,0,0,0,0,0,0,0,0,0,0,0,0,0,0,0,0,0,0,0,0,0,0,0,0,0,0,0,0,0,0,0,0,0,0,0,0,0,0,0,0,0,0,0,0,0,0,0,0,0,0,0,0,0,0,0,0,0,0,0,0,0,0,0,0,0,0,0,0,0,0,0,0,0,0,0,0,0,0,0,0,0,0,0,0,0,0,0,0,0,0,0,0,0,0,0,0,0,0,0,0,0,0,0,0,0,0,0,0,0,0,0,0,0,0,0,0,0,0,0],"id":7,"left_children":[1,3,5,7,9,11,13,15,17,19,21,23,25,27,29,31,33,35,37,39,41,43,45,47,49,51,53,55,57,59,61,63,65,67,69,71,73,75,77,79,81,83,85,87,89,91,93,95,97,99,101,103,105,107,109,111,113,115,117,119,121,123,-1,-1,-1,-1,-1,-1,-1,-1,-1,-1,-1,-1,-1,-1,-1,-1,-1,-1,-1,-1,-1,-1,-1,-1,-1,-1,-1,-1,-1,-1,-1,-1,-1,-1,-1,-1,-1,-1,-1,-1,-1,-1,-1,-1,-1,-1,-1,-1,-1,-1,-1,-1,-1,-1,-1,-1,-1,-1,-1,-1,-1,-1,-1],"loss_changes":[6.0372656E5,1.02819414E5,1.7227831E5,3.1354625E4,1.5969957E4,4.3650844E4,4.9418125E3,8.837461E3,4.599494E3,7.7828496E3,4.2859766E3,3.8286719E3,8.593E3,4.0309062E3,1.0681797E4,4.375117E3,3.0976934E3,1.1487441E3,8.750459E2,1.9890171E3,1.9192715E3,1.3776309E3,1.4437852E3,1.5249141E3,1.0983203E3,1.6708906E3,4.7041406E2,9.216121E3,4.2346562E3,2.528502E3,4.619961E2,3.0711875E3,1.8566641E3,1.4532957E3,1.5880156E3,2.4576172E2,8.046484E1,1.9841504E2,2.1697949E2,2.471407E3,5.3719385E2,2.4347168E2,4.37313E2,4.7390527E2,2.664248E2,8.0680273E2,3.3225537E2,3.61E2,5.6433203E2,2.6971875E2,4.2608398E2,8.975625E2,4.1360938E2,1.5970312E2,2.020625E2,2.5761875E3,3.0349688E3,1.8291281E4,1.0481016E3,1.5404785E2,5.386504E2,5.2659766E2,0E0,0E0,0E0,0E0,0E0,0E0,0E0,0E0,0E0,0E0,0E0,0E0,0E0,0E0,0E0,0E0,0E0,0E0,0E0,0E0,0E0,0E0,0E0,0E0,0E0,0E0,0E0,0E0,0E0,0E0,0E0,0E0,0E0,0E0,0E0,0E0,0E0,0E0,0E0,0E0,0E0,0E0,0E0,0E0,0E0,0E0,0E0,0E0,0E0,0E0,0E0,0E0,0E0,0E0,0E0,0E0,0E0,0E0,0E0,0E0,0E0,0E0,0E0],"parents":[2147483647,0,0,1,1,2,2,3,3,4,4,5,5,6,6,7,7,8,8,9,9,10,10,11,11,12,12,13,13,14,14,15,15,16,16,17,17,18,18,19,19,20,20,21,21,22,22,23,23,24,24,25,25,26,26,27,27,28,28,29,29,30,30,31,31,32,32,33,33,34,34,35,35,36,36,37,37,38,38,39,39,40,40,41,41,42,42,43,43,44,44,45,45,46,46,47,47,48,48,49,49,50,50,51,51,52,52,53,53,54,54,55,55,56,56,57,57,58,58,59,59,60,60,61,61],"right_children":[2,4,6,8,10,12,14,16,18,20,22,24,26,28,30,32,34,36,38,40,42,44,46,48,50,52,54,56,58,60,62,64,66,68,70,72,74,76,78,80,82,84,86,88,90,92,94,96,98,100,102,104,106,108,110,112,114,116,118,120,122,124,-1,-1,-1,-1,-1,-1,-1,-1,-1,-1,-1,-1,-1,-1,-1,-1,-1,-1,-1,-1,-1,-1,-1,-1,-1,-1,-1,-1,-1,-1,-1,-1,-1,-1,-1,-1,-1,-1,-1,-1,-1,-1,-1,-1,-1,-1,-1,-1,-1,-1,-1,-1,-1,-1,-1,-1,-1,-1,-1,-1,-1,-1,-1],"split_conditions":[1.5754225E0,1.568292E-1,6.604582E0,-1.0123707E-1,7.338841E-1,3.0606015E0,1.2792652E0,-2.7596197E-1,3.0589707E0,2.6622894E-1,-1.0123707E-1,2.2252347E0,4.749224E0,-6.43978E-1,-1.0205876E0,5.125674E-1,2.5150472E-1,1.8830795E0,6.2191787E0,-9.918862E-2,2.6915047E0,1.0860982E0,3.5239868E0,-1.0123707E-1,1.9273575E-1,3.93173E0,-1.0123707E-1,-1.9987581E0,-5.88774E-1,-1.6593928E0,-6.43978E-1,-6.9247045E-2,8.511252E-1,-1.7813292E-1,3.6629647E-1,1.2216406E0,-1.396668E-1,4.3083553E0,1.0996237E1,-1.396668E-1,7.1037483E-1,1.8830795E0,5.998699E0,1.2365911E0,2.0866327E0,4.527615E0,2.6180115E0,1.8708367E0,6.246134E0,2.6574004E0,6.246134E0,-1.0123707E-1,1.1924254E-1,4.959162E0,8.204105E0,5.645909E-1,-1.6556365E0,6.981978E-1,2.741901E-1,-2.2059429E0,1.853888E0,1.7138367E0,1.8180083E0,-3.8318295E-2,-1.9510593E-2,-5.2770693E-2,-2.5826726E-2,-1.7213272E-2,3.13858E-4,-3.1069232E-2,-1.1129326E-2,2.4726361E-2,4.098981E-2,6.6325635E-2,9.473306E-2,1.08017996E-1,1.5354273E-1,2.330329E-1,4.929467E-1,4.2283416E-2,-2.87262E-4,3.4454774E-2,6.58729E-2,7.022875E-2,1.0241129E-1,1.4875649E-1,2.7617773E-1,5.800262E-2,9.2569E-2,9.629988E-2,1.4026324E-1,1.20195664E-1,2.3349737E-1,1.6660309E-1,2.678363E-1,1.3282259E-1,1.6383065E-1,1.9457844E-1,3.7523404E-1,1.972186E-1,2.2914098E-1,2.648996E-1,4.5176387E-1,2.7971986E-1,3.4429714E-1,3.5490632E-1,4.160547E-1,3.8599262E-1,4.592906E-1,5.0833005E-1,7.867686E-1,1.6127871E0,6.995521E-1,6.585057E-1,1.8670638E0,7.203396E-1,1.5375609E0,7.550348E-1,6.155164E-1,5.2963614E-1,7.025077E-1,1.1945258E0,8.2594836E-1,1.6529855E0,1.1445178E0],"split_indices":[148,148,178,163,148,178,146,148,163,163,163,178,148,147,150,181,181,163,163,161,163,178,149,163,163,148,163,150,146,150,147,149,152,149,149,163,161,163,163,161,161,163,163,161,161,152,163,178,149,148,149,163,163,178,152,146,146,150,146,147,146,146,0,0,0,0,0,0,0,0,0,0,0,0,0,0,0,0,0,0,0,0,0,0,0,0,0,0,0,0,0,0,0,0,0,0,0,0,0,0,0,0,0,0,0,0,0,0,0,0,0,0,0,0,0,0,0,0,0,0,0,0,0,0,0],"split_type":[0,0,0,0,0,0,0,0,0,0,0,0,0,0,0,0,0,0,0,0,0,0,0,0,0,0,0,0,0,0,0,0,0,0,0,0,0,0,0,0,0,0,0,0,0,0,0,0,0,0,0,0,0,0,0,0,0,0,0,0,0,0,0,0,0,0,0,0,0,0,0,0,0,0,0,0,0,0,0,0,0,0,0,0,0,0,0,0,0,0,0,0,0,0,0,0,0,0,0,0,0,0,0,0,0,0,0,0,0,0,0,0,0,0,0,0,0,0,0,0,0,0,0,0,0],"sum_hessian":[1.359E6,1.294234E6,6.4766E4,1.105501E6,1.88733E5,5.9688E4,5.078E3,1.051602E6,5.3899E4,1.23733E5,6.5E4,3.94E4,2.0288E4,4.365E3,7.13E2,6.04011E5,4.47591E5,4.8816E4,5.083E3,1.02236E5,2.1497E4,4.4392E4,2.0608E4,2.4038E4,1.5362E4,1.4671E4,5.617E3,5.33E2,3.832E3,4.75E2,2.38E2,3.79129E5,2.24882E5,1.9832E5,2.49271E5,3.936E4,9.456E3,4.441E3,6.42E2,6.9313E4,3.2923E4,1.8542E4,2.955E3,2.957E4,1.4822E4,1.9212E4,1.396E3,1.5608E4,8.43E3,1.0969E4,4.393E3,9.332E3,5.339E3,3.471E3,2.146E3,3.64E2,1.69E2,1.555E3,2.277E3,2.58E2,2.17E2,1.19E2,1.19E2,2.44483E5,1.34646E5,1.95452E5,2.943E4,1.20392E5,7.7928E4,1.99318E5,4.9953E4,2.4303E4,1.5057E4,8.314E3,1.142E3,3.023E3,1.418E3,6.08E2,3.4E1,1.866E4,5.0653E4,2.604E4,6.883E3,1.5771E4,2.771E3,2.654E3,3.01E2,2.4845E4,4.725E3,1.3277E4,1.545E3,1.8561E4,6.51E2,5.32E2,8.64E2,9.189E3,6.419E3,8.253E3,1.77E2,6.211E3,4.758E3,4.266E3,1.27E2,5.879E3,3.453E3,3.676E3,1.663E3,3.77E2,3.094E3,2.117E3,2.9E1,3.4E1,3.3E2,2.6E1,1.43E2,1.199E3,3.56E2,1.255E3,1.022E3,1.42E2,1.16E2,1.46E2,7.1E1,7.3E1,4.6E1],"tree_param":{"num_deleted":"0","num_feature":"201","num_nodes":"125","size_leaf_vector":"1"}},{"base_weights":[6.822344E-5,-1.272536E-1,2.8256202E0,-2.4202468E-1,4.8855174E-1,2.356388E0,7.547337E0,-2.751408E-1,4.296334E-1,2.914064E-1,9.091114E-1,1.863236E0,3.4824865E0,7.2209435E0,1.0642928E1,-3.7761408E-1,-2.0793687E-1,3.0505684E-1,9.938493E-1,1.9137274E-1,8.1077486E-1,7.755855E-1,1.3246517E0,1.5936545E0,2.2299523E0,3.1379495E0,4.3044996E0,8.752875E0,6.741679E0,8.1513005E-1,1.093662E1,-3.9501196E-1,-5.8620335E-3,-2.27906E-1,-2.1400876E-2,2.3172095E-1,4.3572798E-1,8.533905E-1,1.8034482E0,1.05114326E-1,3.826109E-1,7.0993716E-1,1.5950449E0,6.3531417E-1,1.0081952E0,1.2555945E0,2.2486985E0,1.4563675E0,2.0320308E0,2.0739498E0,2.6395562E0,2.8896859E0,3.443432E0,4.0930243E0,4.658917E0,6.0863338E0,1.1904E1,6.5804524E0,1.3518127E1,8.960779E0,1.125511E1,-5.059724E-2,-3.5143543E-2,-9.506806E-3,2.0663956E-2,-2.6572531E-2,-1.1716037E-2,-7.4188993E-3,1.6809583E-2,1.7313352E-2,3.0284936E-2,3.936116E-2,6.3084565E-2,7.376927E-2,1.08715475E-1,1.6589482E-1,3.3290598E-1,1.6620228E-2,-2.2794781E-3,3.0567324E-2,5.7344586E-2,6.433509E-2,9.78775E-2,1.4157824E-1,2.3719282E-1,5.753482E-2,8.913272E-2,9.479999E-2,1.2528831E-1,1.1103608E-1,1.5273046E-1,2.0322113E-1,3.5661075E-1,1.3835444E-1,1.8108778E-1,1.9647448E-1,3.235727E-1,1.9419195E-1,2.3330371E-1,2.5885898E-1,4.3038937E-1,2.6868778E-1,3.231175E-1,3.2843965E-1,3.8780427E-1,3.971078E-1,4.5151025E-1,4.5874363E-1,5.9074646E-1,7.8429025E-1,5.2957886E-1,8.3370066E-1,1.3683732E0,7.213834E-1,5.559034E-1,1.6948318E0,3.679431E-1,9.3306047E-1,5.9097147E-1,1.09264E0,1.3409264E0],"categories":[],"categories_nodes":[],"categories_segments":[],"categories_sizes":[],"default_left":[0,0,0,0,0,0,0,0,0,0,0,0,0,0,0,0,0,0,0,0,0,0,0,0,0,0,0,0,0,0,0,0,0,0,0,0,0,0,0,0,0,0,0,0,0,0,0,0,0,0,0,0,0,0,0,0,0,0,0,0,0,0,0,0,0,0,0,0,0,0,0,0,0,0,0,0,0,0,0,0,0,0,0,0,0,0,0,0,0,0,0,0,0,0,0,0,0,0,0,0,0,0,0,0,0,0,0,0,0,0,0,0,0,0,0,0,0,0,0,0,0],"id":8,"left_children":[1,3,5,7,9,11,13,15,17,19,21,23,25,27,29,31,33,35,37,39,41,43,45,47,49,51,53,55,57,-1,59,61,63,65,67,69,71,73,75,77,79,81,83,85,87,89,91,93,95,97,99,101,103,105,107,109,111,113,115,117,119,-1,-1,-1,-1,-1,-1,-1,-1,-1,-1,-1,-1,-1,-1,-1,-1,-1,-1,-1,-1,-1,-1,-1,-1,-1,-1,-1,-1,-1,-1,-1,-1,-1,-1,-1,-1,-1,-1,-1,-1,-1,-1,-1,-1,-1,-1,-1,-1,-1,-1,-1,-1,-1,-1,-1,-1,-1,-1,-1,-1],"loss_changes":[4.888706E5,9.190142E4,1.2979878E5,2.4378879E4,1.6936254E4,2.9591375E4,5.2723125E3,7.1931562E3,3.6194717E3,7.2255537E3,3.6161367E3,3.6606094E3,4.582578E3,3.4592031E3,2.7702344E2,2.6756836E3,2.3497832E3,4.04115E2,1.0573389E3,1.9236626E3,1.7749414E3,1.6091816E3,1.00843945E3,1.2826289E3,9.9739844E2,8.571172E2,3.3914844E2,9.496305E3,3.9033906E3,0E0,1.7841016E2,1.9106836E3,3.5064545E2,2.3865527E3,6.1022675E2,1.1251941E2,1.2426196E2,2.1373438E2,2.9731934E2,6.280133E2,5.3197363E2,3.555078E2,3.5250586E2,4.7193945E2,2.7196484E2,5.8021484E2,3.062002E2,4.1733984E2,4.0561328E2,3.841836E2,3.5521094E2,4.2828906E2,3.4070703E2,1.3608984E2,1.3098047E2,8.1672266E2,3.1911797E3,2.2701562E3,2.770462E3,1.893457E1,1.2083594E2,0E0,0E0,0E0,0E0,0E0,0E0,0E0,0E0,0E0,0E0,0E0,0E0,0E0,0E0,0E0,0E0,0E0,0E0,0E0,0E0,0E0,0E0,0E0,0E0,0E0,0E0,0E0,0E0,0E0,0E0,0E0,0E0,0E0,0E0,0E0,0E0,0E0,0E0,0E0,0E0,0E0,0E0,0E0,0E0,0E0,0E0,0E0,0E0,0E0,0E0,0E0,0E0,0E0,0E0,0E0,0E0,0E0,0E0,0E0,0E0],"parents":[2147483647,0,0,1,1,2,2,3,3,4,4,5,5,6,6,7,7,8,8,9,9,10,10,11,11,12,12,13,13,14,14,15,15,16,16,17,17,18,18,19,19,20,20,21,21,22,22,23,23,24,24,25,25,26,26,27,27,28,28,30,30,31,31,32,32,33,33,34,34,35,35,36,36,37,37,38,38,39,39,40,40,41,41,42,42,43,43,44,44,45,45,46,46,47,47,48,48,49,49,50,50,51,51,52,52,53,53,54,54,55,55,56,56,57,57,58,58,59,59,60,60],"right_children":[2,4,6,8,10,12,14,16,18,20,22,24,26,28,30,32,34,36,38,40,42,44,46,48,50,52,54,56,58,-1,60,62,64,66,68,70,72,74,76,78,80,82,84,86,88,90,92,94,96,98,100,102,104,106,108,110,112,114,116,118,120,-1,-1,-1,-1,-1,-1,-1,-1,-1,-1,-1,-1,-1,-1,-1,-1,-1,-1,-1,-1,-1,-1,-1,-1,-1,-1,-1,-1,-1,-1,-1,-1,-1,-1,-1,-1,-1,-1,-1,-1,-1,-1,-1,-1,-1,-1,-1,-1,-1,-1,-1,-1,-1,-1,-1,-1,-1,-1,-1,-1],"split_conditions":[1.7196862E0,1.3278525E-1,6.3120813E0,-2.774387E-2,7.81972E-1,3.378719E0,1.6744196E1,-3.240499E-1,2.3240387E0,3.3972216E-1,1.9273575E-1,2.416961E0,4.959162E0,-5.7989734E-1,-1.1162966E0,1.8102095E0,8.511252E-1,1.3686271E0,4.896301E0,-1.5150891E-1,3.0589707E0,2.8050432E0,5.4842467E0,4.1321537E-1,2.6622894E-1,4.0731673E0,-1.0123707E-1,-1.6593928E0,1.6335702E0,8.1513005E-1,1.2940596E-1,-4.202257E-1,3.248836E0,-1.557422E-1,2.1299043E0,-8.361034E-2,-8.361034E-2,3.3529437E0,9.085414E0,5.5192214E-1,7.871414E-1,6.591436E-1,5.4842467E0,1.5124621E0,2.3231146E0,1.2564666E0,5.311459E-1,3.4324286E0,8.423975E0,2.969972E0,5.8063946E0,-1.0123707E-1,4.1321537E-1,9.149662E0,4.2079206E0,1.6335702E0,-1.16889685E-1,2.9612115E-1,2.131002E-1,1.5340713E0,1.2004387E0,-5.059724E-2,-3.5143543E-2,-9.506806E-3,2.0663956E-2,-2.6572531E-2,-1.1716037E-2,-7.4188993E-3,1.6809583E-2,1.7313352E-2,3.0284936E-2,3.936116E-2,6.3084565E-2,7.376927E-2,1.08715475E-1,1.6589482E-1,3.3290598E-1,1.6620228E-2,-2.2794781E-3,3.0567324E-2,5.7344586E-2,6.433509E-2,9.78775E-2,1.4157824E-1,2.3719282E-1,5.753482E-2,8.913272E-2,9.479999E-2,1.2528831E-1,1.1103608E-1,1.5273046E-1,2.0322113E-1,3.5661075E-1,1.3835444E-1,1.8108778E-1,1.9647448E-1,3.235727E-1,1.9419195E-1,2.3330371E-1,2.5885898E-1,4.3038937E-1,2.6868778E-1,3.231175E-1,3.2843965E-1,3.8780427E-1,3.971078E-1,4.5151025E-1,4.5874363E-1,5.9074646E-1,7.8429025E-1,5.2957886E-1,8.3370066E-1,1.3683732E0,7.213834E-1,5.559034E-1,1.6948318E0,3.679431E-1,9.3306047E-1,5.9097147E-1,1.09264E0,1.3409264E0],"split_indices":[148,148,148,163,148,148,165,148,163,163,163,148,178,147,184,152,152,163,163,165,163,179,163,163,163,178,163,150,170,0,196,148,152,148,152,148,148,163,163,157,165,165,163,165,165,165,165,165,163,148,152,163,163,165,152,170,153,153,147,188,153,0,0,0,0,0,0,0,0,0,0,0,0,0,0,0,0,0,0,0,0,0,0,0,0,0,0,0,0,0,0,0,0,0,0,0,0,0,0,0,0,0,0,0,0,0,0,0,0,0,0,0,0,0,0,0,0,0,0,0,0],"split_type":[0,0,0,0,0,0,0,0,0,0,0,0,0,0,0,0,0,0,0,0,0,0,0,0,0,0,0,0,0,0,0,0,0,0,0,0,0,0,0,0,0,0,0,0,0,0,0,0,0,0,0,0,0,0,0,0,0,0,0,0,0,0,0,0,0,0,0,0,0,0,0,0,0,0,0,0,0,0,0,0,0,0,0,0,0,0,0,0,0,0,0,0,0,0,0,0,0,0,0,0,0,0,0,0,0,0,0,0,0,0,0,0,0,0,0,0,0,0,0,0,0],"sum_hessian":[1.358898E6,1.300306E6,5.8592E4,1.096033E6,2.04273E5,5.3297E4,5.295E3,1.044533E6,5.15E4,1.39079E5,6.5194E4,3.7067E4,1.623E4,4.793E3,5.02E2,4.13705E5,6.30828E5,4.2187E4,9.313E3,1.16619E5,2.246E4,4.9342E4,1.5852E4,2.1366E4,1.5701E4,1.144E4,4.79E3,1.138E3,3.655E3,5.6E1,4.46E2,3.95209E5,1.8496E4,5.69826E5,6.1002E4,2.7024E4,1.5163E4,7.938E3,1.375E3,8.037E4,3.6249E4,1.9903E4,2.557E3,3.0783E4,1.8559E4,1.4752E4,1.1E3,1.6274E4,5.092E3,1.1375E4,4.326E3,6.317E3,5.123E3,3.008E3,1.782E3,6.18E2,5.2E2,3.572E3,8.3E1,6.6E1,3.8E2,1.11438E5,2.83771E5,1.3028E4,5.468E3,4.24767E5,1.45059E5,4.7712E4,1.329E4,1.4821E4,1.2203E4,1.2474E4,2.689E3,5.313E3,2.625E3,1.258E3,1.17E2,5.4393E4,2.5977E4,2.5836E4,1.0413E4,1.5955E4,3.948E3,2.08E3,4.77E2,2.4944E4,5.839E3,1.4899E4,3.66E3,9.617E3,5.135E3,9.47E2,1.53E2,1.3505E4,2.769E3,4.825E3,2.67E2,7.541E3,3.834E3,4.2E3,1.26E2,3.969E3,2.348E3,3.757E3,1.366E3,2.342E3,6.66E2,1.69E3,9.2E1,1.89E2,4.29E2,1.75E2,3.45E2,2.201E3,1.371E3,6.1E1,2.2E1,5.7E1,9E0,3.35E2,4.5E1],"tree_param":{"num_deleted":"0","num_feature":"201","num_nodes":"121","size_leaf_vector":"1"}},{"base_weights":[1.8225181E-4,-1.06160656E-1,2.7470188E0,-1.9291739E-1,6.508106E-1,2.2820811E0,6.9571023E0,-2.3156455E-1,4.123456E-1,4.8268518E-1,1.0311064E0,1.8109083E0,3.2057443E0,6.6523914E0,9.672909E0,-2.905217E-1,-9.7915545E-2,3.060298E-1,9.2901105E-1,3.473614E-1,8.112902E-1,8.7736315E-1,1.3414582E0,1.62526E0,2.1910784E0,2.8738046E0,3.8865917E0,5.7523103E0,7.602544E0,9.202581E0,1.2423473E1,-3.218837E-1,-8.637739E-2,-3.24415E-2,-1.8664302E-1,2.6159933E-1,4.3826556E-1,7.715811E-1,1.538595E0,2.8816724E-1,6.243118E-1,7.5872165E-1,1.751018E0,7.722393E-1,1.0607253E0,1.2700139E0,2.1088896E0,1.461419E0,1.9186436E0,2.0444338E0,2.6004684E0,2.8368137E0,4.462606E0,3.8361685E0,5.0767612E0,5.407243E0,1.0995987E1,6.9502916E0,9.752662E0,1.0457579E1,8.527695E0,7.871801E-1,1.3401572E1,-2.4141293E-2,-3.9644036E-2,-1.3793935E-2,1.1542513E-2,-9.609847E-3,5.9032375E-3,-2.4670502E-2,-7.9441685E-3,1.7004272E-2,3.2267217E-2,3.8040638E-2,7.388283E-2,7.095194E-2,1.0902639E-1,1.3369505E-1,2.3230731E-1,1.739229E-2,5.680716E-2,5.840944E-2,8.871849E-2,7.1718834E-2,1.2470478E-1,1.6115995E-1,3.1321377E-1,7.142421E-2,1.0085094E-1,1.0086206E-1,1.3675106E-1,1.2434953E-1,2.7241856E-1,1.9067803E-1,3.2148936E-1,1.3877927E-1,1.7956923E-1,1.8378004E-1,2.7270794E-1,1.9764918E-1,2.3834407E-1,2.5093207E-1,3.6741054E-1,2.601066E-1,3.070869E-1,4.1785273E-1,6.39981E-1,3.762973E-1,4.3527493E-1,4.3013865E-1,5.69794E-1,4.998562E-1,6.7198634E-1,9.3453455E-1,1.4066104E0,8.9494973E-1,6.354922E-1,5.895047E-1,1.2454876E0,7.8725964E-1,1.314872E0,9.429054E-1,7.640829E-1,6.075029E-1,1.3838009E0],"categories":[],"categories_nodes":[],"categories_segments":[],"categories_sizes":[],"default_left":[0,0,0,0,0,0,0,0,0,0,0,0,0,0,0,0,0,0,0,0,0,0,0,0,0,0,0,0,0,0,0,0,0,0,0,0,0,0,0,0,0,0,0,0,0,0,0,0,0,0,0,0,0,0,0,0,0,0,0,0,0,0,0,0,0,0,0,0,0,0,0,0,0,0,0,0,0,0,0,0,0,0,0,0,0,0,0,0,0,0,0,0,0,0,0,0,0,0,0,0,0,0,0,0,0,0,0,0,0,0,0,0,0,0,0,0,0,0,0,0,0,0,0,0,0],"id":9,"left_children":[1,3,5,7,9,11,13,15,17,19,21,23,25,27,29,31,33,35,37,39,41,43,45,47,49,51,53,55,57,59,61,63,65,67,69,71,73,75,77,79,81,83,85,87,89,91,93,95,97,99,101,103,105,107,109,111,113,115,117,119,121,-1,123,-1,-1,-1,-1,-1,-1,-1,-1,-1,-1,-1,-1,-1,-1,-1,-1,-1,-1,-1,-1,-1,-1,-1,-1,-1,-1,-1,-1,-1,-1,-1,-1,-1,-1,-1,-1,-1,-1,-1,-1,-1,-1,-1,-1,-1,-1,-1,-1,-1,-1,-1,-1,-1,-1,-1,-1,-1,-1,-1,-1,-1,-1],"loss_changes":[3.9705697E5,8.594049E4,9.915231E4,2.746345E4,8.602766E3,1.9850344E4,4.1031406E3,8.6958125E3,3.8703223E3,4.148963E3,1.9668242E3,2.1286406E3,3.4710469E3,3.831625E3,5.3810547E2,4.902758E3,1.9624626E3,3.4318506E2,1.152582E3,1.0832803E3,1.3429434E3,5.3077734E2,7.4610547E2,9.729297E2,5.8922266E2,5.9571875E2,2.8257812E2,4.1584766E3,3.0186719E3,2.7820703E2,2.0846875E2,3.9824297E3,1.061154E3,1.1318801E3,9.234927E2,2.4451831E2,2.551753E2,1.88104E2,3.8677246E2,1.7412573E3,1.2237256E2,5.2171387E2,2.7194775E2,2.3944336E2,1.5903223E2,4.7832812E2,2.5310352E2,3.1797266E2,4.6987305E2,1.6303906E2,2.4557422E2,5.5046094E2,1.009751E2,1.6607812E2,7.178369E1,1.1400469E3,5.9088086E2,1.9567188E3,5.2410312E3,9.2395215E2,1.5726953E2,0E0,9.62041E1,0E0,0E0,0E0,0E0,0E0,0E0,0E0,0E0,0E0,0E0,0E0,0E0,0E0,0E0,0E0,0E0,0E0,0E0,0E0,0E0,0E0,0E0,0E0,0E0,0E0,0E0,0E0,0E0,0E0,0E0,0E0,0E0,0E0,0E0,0E0,0E0,0E0,0E0,0E0,0E0,0E0,0E0,0E0,0E0,0E0,0E0,0E0,0E0,0E0,0E0,0E0,0E0,0E0,0E0,0E0,0E0,0E0,0E0,0E0,0E0,0E0,0E0],"parents":[2147483647,0,0,1,1,2,2,3,3,4,4,5,5,6,6,7,7,8,8,9,9,10,10,11,11,12,12,13,13,14,14,15,15,16,16,17,17,18,18,19,19,20,20,21,21,22,22,23,23,24,24,25,25,26,26,27,27,28,28,29,29,30,30,31,31,32,32,33,33,34,34,35,35,36,36,37,37,38,38,39,39,40,40,41,41,42,42,43,43,44,44,45,45,46,46,47,47,48,48,49,49,50,50,51,51,52,52,53,53,54,54,55,55,56,56,57,57,58,58,59,59,60,60,62,62],"right_children":[2,4,6,8,10,12,14,16,18,20,22,24,26,28,30,32,34,36,38,40,42,44,46,48,50,52,54,56,58,60,62,64,66,68,70,72,74,76,78,80,82,84,86,88,90,92,94,96,98,100,102,104,106,108,110,112,114,116,118,120,122,-1,124,-1,-1,-1,-1,-1,-1,-1,-1,-1,-1,-1,-1,-1,-1,-1,-1,-1,-1,-1,-1,-1,-1,-1,-1,-1,-1,-1,-1,-1,-1,-1,-1,-1,-1,-1,-1,-1,-1,-1,-1,-1,-1,-1,-1,-1,-1,-1,-1,-1,-1,-1,-1,-1,-1,-1,-1,-1,-1,-1,-1,-1,-1],"split_conditions":[1.8708367E0,3.9726874E-1,6.604582E0,-1.0123707E-1,1.1185874E0,3.490942E0,1.6744196E1,-2.2787407E-1,2.2505455E0,-1.0123707E-1,-1.0123707E-1,2.7315176E0,4.959162E0,6.660666E0,1.0897838E0,5.8406824E-1,5.443246E-1,1.4421202E0,4.3083553E0,1.000471E0,4.161369E0,1.4658104E0,3.0884433E0,-1.0123707E-1,3.3972216E-1,3.9595304E0,3.306215E0,3.4684536E1,1.0382943E0,-1.0727754E0,-1.1486129E0,2.2034338E-1,1.672927E0,-5.956639E-2,-1.1478482E-2,-5.956639E-2,-1.396668E-1,-1.396668E-1,6.9541106E0,6.294185E-1,1.6831259E0,2.8706717E0,7.836029E0,1.7223291E0,2.5723708E0,6.445784E0,7.4438787E0,3.816422E0,2.9795575E0,5.2670636E0,4.1773024E0,4.0731673E0,8.532738E0,9.789651E0,2.8384912E0,1.3330923E1,5.3700188E1,-7.6540715E-1,-1.1446309E0,5.4551834E-1,-4.9742043E-1,7.871801E-1,-5.875E-1,-2.4141293E-2,-3.9644036E-2,-1.3793935E-2,1.1542513E-2,-9.609847E-3,5.9032375E-3,-2.4670502E-2,-7.9441685E-3,1.7004272E-2,3.2267217E-2,3.8040638E-2,7.388283E-2,7.095194E-2,1.0902639E-1,1.3369505E-1,2.3230731E-1,1.739229E-2,5.680716E-2,5.840944E-2,8.871849E-2,7.1718834E-2,1.2470478E-1,1.6115995E-1,3.1321377E-1,7.142421E-2,1.0085094E-1,1.0086206E-1,1.3675106E-1,1.2434953E-1,2.7241856E-1,1.9067803E-1,3.2148936E-1,1.3877927E-1,1.7956923E-1,1.8378004E-1,2.7270794E-1,1.9764918E-1,2.3834407E-1,2.5093207E-1,3.6741054E-1,2.601066E-1,3.070869E-1,4.1785273E-1,6.39981E-1,3.762973E-1,4.3527493E-1,4.3013865E-1,5.69794E-1,4.998562E-1,6.7198634E-1,9.3453455E-1,1.4066104E0,8.9494973E-1,6.354922E-1,5.895047E-1,1.2454876E0,7.8725964E-1,1.314872E0,9.429054E-1,7.640829E-1,6.075029E-1,1.3838009E0],"split_indices":[178,148,178,163,148,178,165,148,163,163,163,178,178,161,146,149,181,163,163,165,163,178,149,163,163,149,149,162,146,146,147,181,149,148,148,148,161,161,163,161,165,149,163,161,161,152,149,165,149,165,149,178,149,165,163,165,162,151,154,147,154,0,48,0,0,0,0,0,0,0,0,0,0,0,0,0,0,0,0,0,0,0,0,0,0,0,0,0,0,0,0,0,0,0,0,0,0,0,0,0,0,0,0,0,0,0,0,0,0,0,0,0,0,0,0,0,0,0,0,0,0,0,0,0,0],"split_type":[0,0,0,0,0,0,0,0,0,0,0,0,0,0,0,0,0,0,0,0,0,0,0,0,0,0,0,0,0,0,0,0,0,0,0,0,0,0,0,0,0,0,0,0,0,0,0,0,0,0,0,0,0,0,0,0,0,0,0,0,0,0,0,0,0,0,0,0,0,0,0,0,0,0,0,0,0,0,0,0,0,0,0,0,0,0,0,0,0,0,0,0,0,0,0,0,0,0,0,0,0,0,0,0,0,0,0,0,0,0,0,0,0,0,0,0,0,0,0,0,0,0,0,0,0],"sum_hessian":[1.359285E6,1.308623E6,5.0662E4,1.174064E6,1.34559E5,4.5625E4,5.037E3,1.103598E6,7.0466E4,9.331E4,4.1249E4,3.0215E4,1.541E4,4.532E3,5.05E2,7.65783E5,3.37815E5,5.8442E4,1.2024E4,6.6094E4,2.7216E4,2.7587E4,1.3662E4,2.0305E4,9.91E3,1.0363E4,5.047E3,2.331E3,2.201E3,4.35E2,7E1,6.63804E5,1.01979E5,1.9438E5,1.43435E5,4.3747E4,1.4695E4,9.558E3,2.466E3,5.4457E4,1.1637E4,2.5776E4,1.44E3,1.7538E4,1.0049E4,1.2501E4,1.161E3,1.3033E4,7.272E3,7.301E3,2.609E3,1.013E4,2.33E2,4.846E3,2.01E2,2.189E3,1.42E2,1.692E3,5.09E2,1.47E2,2.88E2,1.4E1,5.6E1,3.19243E5,3.44561E5,8.1226E4,2.0753E4,1.14618E5,7.9762E4,9.1928E4,5.1507E4,1.7507E4,2.624E4,1.2325E4,2.37E3,8.003E3,1.555E3,1.964E3,5.02E2,3.8674E4,1.5783E4,1.0096E4,1.541E3,2.3758E4,2.018E3,1.31E3,1.3E2,1.4085E4,3.453E3,8.594E3,1.455E3,1.2279E4,2.22E2,9.84E2,1.77E2,1.0685E4,2.348E3,6.614E3,6.58E2,6.088E3,1.213E3,2.408E3,2.01E2,5.053E3,5.077E3,2.06E2,2.7E1,4.252E3,5.94E2,9.3E1,1.08E2,1.673E3,5.16E2,9.5E1,4.7E1,3.85E2,1.307E3,2.11E2,2.98E2,7.7E1,7E1,1.38E2,1.5E2,4E0,5.2E1],"tree_param":{"num_deleted":"0","num_feature":"201","num_nodes":"125","size_leaf_vector":"1"}},{"base_weights":[3.0431006E-4,-9.316169E-2,2.5373197E0,-1.7179169E-1,6.111203E-1,2.089375E0,6.1702557E0,-2.071271E-1,3.7248033E-1,4.3624723E-1,9.239513E-1,1.7595999E0,3.0853746E0,5.8732624E0,8.92939E0,-2.8208333E-1,-1.17279485E-1,2.985587E-1,9.7980374E-1,3.1526977E-1,7.30864E-1,7.878511E-1,1.1964762E0,1.5475842E0,2.1849785E0,2.728173E0,3.435169E0,6.4188395E0,4.891303E0,8.489862E0,1.1071859E1,-3.321885E-1,-1.7077503E-1,-1.6729096E-1,-1.2211038E-2,2.5497454E-1,5.135847E-1,8.7245584E-1,1.84244E0,2.537918E-1,5.257026E-1,6.64262E-1,1.3114054E0,6.866069E-1,9.841209E-1,1.1554083E0,2.3894506E0,1.395571E0,1.8186073E0,2.0297754E0,2.5874293E0,2.6720467E0,3.8085752E0,3.2795384E0,3.8309946E0,5.912938E0,8.292551E0,4.3029537E0,6.256315E0,9.370507E0,7.590012E0,6.2147856E-1,1.23008375E1,-3.486417E-2,3.1235225E-3,-2.1216873E-2,2.5790848E-4,-2.2524742E-2,-6.9733746E-3,4.42762E-3,-1.1555071E-2,1.8687228E-2,3.1510632E-2,4.522918E-2,7.247379E-2,7.405593E-2,1.0800045E-1,1.7274995E-1,4.0994802E-1,3.1967144E-2,1.3097932E-2,4.7324784E-2,6.957744E-2,6.3019745E-2,1.0132126E-1,1.0718764E-1,2.0708144E-1,6.2301148E-2,9.0215944E-2,9.359696E-2,1.3099647E-1,1.1265489E-1,2.2535865E-1,1.781614E-1,2.8329775E-1,1.330808E-1,1.7407237E-1,1.7752413E-1,3.220544E-1,1.9578435E-1,2.4237068E-1,2.54035E-1,5.1921004E-1,2.64359E-1,4.2780486E-1,3.1971458E-1,4.43765E-1,3.1812274E-1,3.6802563E-1,3.788916E-1,7.3150724E-1,9.232672E-1,5.647284E-1,5.1531386E-1,1.1563531E0,4.232904E-1,1.0882654E0,6.0239905E-1,7.9441786E-1,7.878401E-1,1.2957748E0,8.465757E-1,6.2736905E-1,1.3707293E0,1.0267508E0],"categories":[],"categories_nodes":[],"categories_segments":[],"categories_sizes":[],"default_left":[0,0,0,0,0,0,0,0,0,0,0,0,0,0,0,0,0,0,0,0,0,0,0,0,0,0,0,0,0,0,0,0,0,0,0,0,0,0,0,0,0,0,0,0,0,0,0,0,0,0,0,0,0,0,0,0,0,0,0,0,0,0,0,0,0,0,0,0,0,0,0,0,0,0,0,0,0,0,0,0,0,0,0,0,0,0,0,0,0,0,0,0,0,0,0,0,0,0,0,0,0,0,0,0,0,0,0,0,0,0,0,0,0,0,0,0,0,0,0,0,0,0,0,0,0],"id":10,"left_children":[1,3,5,7,9,11,13,15,17,19,21,23,25,27,29,31,33,35,37,39,41,43,45,47,49,51,53,55,57,59,61,63,65,67,69,71,73,75,77,79,81,83,85,87,89,91,93,95,97,99,101,103,105,107,109,111,113,115,117,119,121,-1,123,-1,-1,-1,-1,-1,-1,-1,-1,-1,-1,-1,-1,-1,-1,-1,-1,-1,-1,-1,-1,-1,-1,-1,-1,-1,-1,-1,-1,-1,-1,-1,-1,-1,-1,-1,-1,-1,-1,-1,-1,-1,-1,-1,-1,-1,-1,-1,-1,-1,-1,-1,-1,-1,-1,-1,-1,-1,-1,-1,-1,-1,-1],"loss_changes":[3.2220003E5,7.2572414E4,7.855497E4,2.2672402E4,7.199664E3,1.4111781E4,4.2882812E3,7.4552656E3,3.2261348E3,3.0087744E3,1.7492422E3,2.9086484E3,1.3257031E3,2.5320469E3,3.87125E2,3.365793E3,2.6456582E3,6.002671E2,7.202329E2,7.740918E2,9.491289E2,6.246426E2,7.668613E2,8.851875E2,6.650586E2,3.1019922E2,3.191914E2,2.8634219E3,1.3485469E3,2.6793555E2,4.2311816E2,2.4885508E3,1.3443584E3,1.9286895E3,9.478439E2,2.1806616E2,1.3929126E2,1.8891846E2,2.1595996E2,3.7469702E2,1.2026489E2,2.6127832E2,4.5731055E2,2.8399023E2,1.6657227E2,4.7869336E2,1.3521875E2,3.0616406E2,4.644707E2,2.145664E2,3.5207422E2,2.1814844E2,8.466919E1,1.405E2,1.9357422E2,2.0841094E3,6.623828E3,5.0597266E2,1.5230273E2,1.0359199E3,1.967168E2,0E0,4.56084E1,0E0,0E0,0E0,0E0,0E0,0E0,0E0,0E0,0E0,0E0,0E0,0E0,0E0,0E0,0E0,0E0,0E0,0E0,0E0,0E0,0E0,0E0,0E0,0E0,0E0,0E0,0E0,0E0,0E0,0E0,0E0,0E0,0E0,0E0,0E0,0E0,0E0,0E0,0E0,0E0,0E0,0E0,0E0,0E0,0E0,0E0,0E0,0E0,0E0,0E0,0E0,0E0,0E0,0E0,0E0,0E0,0E0,0E0,0E0,0E0,0E0,0E0],"parents":[2147483647,0,0,1,1,2,2,3,3,4,4,5,5,6,6,7,7,8,8,9,9,10,10,11,11,12,12,13,13,14,14,15,15,16,16,17,17,18,18,19,19,20,20,21,21,22,22,23,23,24,24,25,25,26,26,27,27,28,28,29,29,30,30,31,31,32,32,33,33,34,34,35,35,36,36,37,37,38,38,39,39,40,40,41,41,42,42,43,43,44,44,45,45,46,46,47,47,48,48,49,49,50,50,51,51,52,52,53,53,54,54,55,55,56,56,57,57,58,58,59,59,60,60,62,62],"right_children":[2,4,6,8,10,12,14,16,18,20,22,24,26,28,30,32,34,36,38,40,42,44,46,48,50,52,54,56,58,60,62,64,66,68,70,72,74,76,78,80,82,84,86,88,90,92,94,96,98,100,102,104,106,108,110,112,114,116,118,120,122,-1,124,-1,-1,-1,-1,-1,-1,-1,-1,-1,-1,-1,-1,-1,-1,-1,-1,-1,-1,-1,-1,-1,-1,-1,-1,-1,-1,-1,-1,-1,-1,-1,-1,-1,-1,-1,-1,-1,-1,-1,-1,-1,-1,-1,-1,-1,-1,-1,-1,-1,-1,-1,-1,-1,-1,-1,-1,-1,-1,-1,-1,-1,-1],"split_conditions":[2.0082138E0,4.213127E-1,6.3120813E0,-1.0123707E-1,1.0704994E0,3.93173E0,1.6744196E1,-2.7596197E-1,2.764998E0,-1.0123707E-1,-1.0123707E-1,2.969972E0,4.749224E0,7.8696847E0,1.0382943E0,3.963883E-2,-8.361034E-2,1.8095863E0,5.998699E0,8.7247324E-1,3.2059572E0,1.5754225E0,5.157275E0,-1.0123707E-1,2.6622894E-1,2.544014E0,2.6622894E-1,1.0588901E0,1.3330923E1,-7.679575E-1,-1.2501582E0,1.8102095E0,1.1284976E0,-6.9247045E-2,3.8465014E-1,-3.5522435E-2,3.6609426E-2,3.7939029E0,1.0996237E1,4.543468E-1,1.4271302E0,2.544014E0,1.0448663E-1,1.9391214E0,3.0057695E0,5.3268523E0,4.087876E0,4.1150837E0,5.0071573E0,5.8643866E0,8.683647E0,4.367768E0,2.764998E0,9.149662E0,1.1560901E1,-8.1896466E-1,-1.039271E0,1.220341E1,9.276678E-1,1.0261229E0,-6.404088E-1,6.2147856E-1,1.6252747E0,-3.486417E-2,3.1235225E-3,-2.1216873E-2,2.5790848E-4,-2.2524742E-2,-6.9733746E-3,4.42762E-3,-1.1555071E-2,1.8687228E-2,3.1510632E-2,4.522918E-2,7.247379E-2,7.405593E-2,1.0800045E-1,1.7274995E-1,4.0994802E-1,3.1967144E-2,1.3097932E-2,4.7324784E-2,6.957744E-2,6.3019745E-2,1.0132126E-1,1.0718764E-1,2.0708144E-1,6.2301148E-2,9.0215944E-2,9.359696E-2,1.3099647E-1,1.1265489E-1,2.2535865E-1,1.781614E-1,2.8329775E-1,1.330808E-1,1.7407237E-1,1.7752413E-1,3.220544E-1,1.9578435E-1,2.4237068E-1,2.54035E-1,5.1921004E-1,2.64359E-1,4.2780486E-1,3.1971458E-1,4.43765E-1,3.1812274E-1,3.6802563E-1,3.788916E-1,7.3150724E-1,9.232672E-1,5.647284E-1,5.1531386E-1,1.1563531E0,4.232904E-1,1.0882654E0,6.0239905E-1,7.9441786E-1,7.878401E-1,1.2957748E0,8.465757E-1,6.2736905E-1,1.3707293E0,1.0267508E0],"split_indices":[148,148,148,163,148,148,165,148,163,163,163,148,148,165,146,149,148,163,163,165,163,148,149,163,163,149,163,146,165,146,150,152,149,149,157,148,148,163,163,157,165,149,165,165,165,152,163,165,152,165,152,152,163,165,152,150,154,162,163,147,154,0,146,0,0,0,0,0,0,0,0,0,0,0,0,0,0,0,0,0,0,0,0,0,0,0,0,0,0,0,0,0,0,0,0,0,0,0,0,0,0,0,0,0,0,0,0,0,0,0,0,0,0,0,0,0,0,0,0,0,0,0,0,0,0],"split_type":[0,0,0,0,0,0,0,0,0,0,0,0,0,0,0,0,0,0,0,0,0,0,0,0,0,0,0,0,0,0,0,0,0,0,0,0,0,0,0,0,0,0,0,0,0,0,0,0,0,0,0,0,0,0,0,0,0,0,0,0,0,0,0,0,0,0,0,0,0,0,0,0,0,0,0,0,0,0,0,0,0,0,0,0,0,0,0,0,0,0,0,0,0,0,0,0,0,0,0,0,0,0,0,0,0,0,0,0,0,0,0,0,0,0,0,0,0,0,0,0,0,0,0,0,0],"sum_hessian":[1.358776E6,1.310497E6,4.8279E4,1.178881E6,1.31616E5,4.2981E4,5.298E3,1.107012E6,7.1869E4,8.4425E4,4.7191E4,3.2292E4,1.0689E4,4.786E3,5.12E2,6.03518E5,5.03494E5,6.4072E4,7.797E3,5.9851E4,2.4574E4,3.1476E4,1.5715E4,2.1554E4,1.0738E4,5.293E3,5.396E3,3.073E3,1.713E3,4.29E2,8.3E1,4.16175E5,1.87343E5,3.41122E5,1.62372E5,5.3276E4,1.0796E4,6.936E3,8.61E2,4.6321E4,1.353E4,2.2047E4,2.527E3,2.0768E4,1.0708E4,1.5194E4,5.21E2,1.3813E4,7.741E3,7.754E3,2.984E3,5.035E3,2.58E2,3.88E3,1.516E3,2.423E3,6.5E2,1.2E3,5.13E2,2.12E2,2.17E2,1.8E1,6.5E1,3.9815E5,1.8025E4,1.51232E5,3.6111E4,2.13992E5,1.2713E5,1.04985E5,5.7387E4,2.4985E4,2.8291E4,8.37E3,2.426E3,4.244E3,2.692E3,8.21E2,4E1,3.0147E4,1.6174E4,1.0344E4,3.186E3,2.0089E4,1.958E3,1.923E3,6.04E2,1.604E4,4.728E3,9.333E3,1.375E3,1.4807E4,3.87E2,2.22E2,2.99E2,1.1635E4,2.178E3,7.511E3,2.3E2,6.562E3,1.192E3,2.933E3,5.1E1,4.95E3,8.5E1,1.34E2,1.24E2,3.123E3,7.57E2,1.5E3,1.6E1,1.77E2,2.246E3,3.33E2,3.17E2,1.189E3,1.1E1,4.55E2,5.8E1,1.52E2,6E1,1.27E2,9E1,3.5E1,3E1],"tree_param":{"num_deleted":"0","num_feature":"201","num_nodes":"125","size_leaf_vector":"1"}},{"base_weights":[8.207393E-5,-8.636898E-2,2.239153E0,-1.6721058E-1,4.506971E-1,1.8526299E0,5.696242E0,-1.9416957E-1,3.27128E-1,2.957612E-1,7.731066E-1,1.4721605E0,2.600673E0,5.444772E0,7.871626E0,-3.0458716E-1,-1.485309E-1,2.6639244E-1,9.579352E-1,2.092083E-1,6.3742185E-1,6.806669E-1,1.1097953E0,1.3212068E0,1.78053E0,2.323911E0,3.1644788E0,5.3100357E0,9.31299E0,9.474523E0,7.3401194E0,-2.4006674E-1,-4.042458E-1,-7.1181126E-2,-2.0460783E-1,2.1955626E-1,4.926613E-1,8.593485E-1,1.7951547E0,1.5247357E-1,4.148036E-1,5.609229E-1,1.1418114E0,5.559695E-1,8.307587E-1,1.0693393E0,2.273545E0,1.2127851E0,1.6580119E0,1.6242062E0,2.0465953E0,2.2016761E0,2.6702507E0,2.9887562E0,3.4517956E0,5.062966E0,6.86526E0,7.8738403E0,1.1637714E1,7.4685254E0,1.0808973E1,8.451625E0,6.548963E0,-2.6901191E-2,-4.6241446E-3,-3.770994E-2,-7.1005926E-2,-1.4203335E-2,-9.381966E-4,-1.8918073E-2,-5.0714415E-2,1.6713338E-2,2.8536398E-2,4.4459913E-2,6.514054E-2,7.659321E-2,1.12895206E-1,1.6552103E-1,3.6087543E-1,9.104543E-3,2.5197292E-2,3.7569243E-2,5.9144057E-2,4.9861252E-2,7.922327E-2,9.489601E-2,1.6919485E-1,5.062697E-2,7.485565E-2,7.842774E-2,1.0716438E-1,9.2067085E-2,1.3765824E-1,2.1133994E-1,4.2515045E-1,1.1557031E-1,1.5112966E-1,1.6115326E-1,3.3854374E-1,1.5595998E-1,1.9061933E-1,1.9777691E-1,3.054012E-1,2.1269532E-1,2.6731086E-1,2.572893E-1,3.7834877E-1,2.8984E-1,3.28128E-1,3.415529E-1,6.149221E-1,6.881618E-1,4.8194113E-1,5.078634E-1,1.1364421E0,8.0780286E-1,4.0802714E-1,1.327556E0,9.885402E-1,1.1606025E0,5.871123E-1,1.2436846E0,7.686867E-1,6.749624E-1,1.2351178E0,5.4278857E-1,7.085003E-1],"categories":[],"categories_nodes":[],"categories_segments":[],"categories_sizes":[],"default_left":[0,0,0,0,0,0,0,0,0,0,0,0,0,0,0,0,0,0,0,0,0,0,0,0,0,0,0,0,0,0,0,0,0,0,0,0,0,0,0,0,0,0,0,0,0,0,0,0,0,0,0,0,0,0,0,0,0,0,0,0,0,0,0,0,0,0,0,0,0,0,0,0,0,0,0,0,0,0,0,0,0,0,0,0,0,0,0,0,0,0,0,0,0,0,0,0,0,0,0,0,0,0,0,0,0,0,0,0,0,0,0,0,0,0,0,0,0,0,0,0,0,0,0,0,0,0,0],"id":11,"left_children":[1,3,5,7,9,11,13,15,17,19,21,23,25,27,29,31,33,35,37,39,41,43,45,47,49,51,53,55,57,59,61,63,65,67,69,71,73,75,77,79,81,83,85,87,89,91,93,95,97,99,101,103,105,107,109,111,113,115,117,119,121,123,125,-1,-1,-1,-1,-1,-1,-1,-1,-1,-1,-1,-1,-1,-1,-1,-1,-1,-1,-1,-1,-1,-1,-1,-1,-1,-1,-1,-1,-1,-1,-1,-1,-1,-1,-1,-1,-1,-1,-1,-1,-1,-1,-1,-1,-1,-1,-1,-1,-1,-1,-1,-1,-1,-1,-1,-1,-1,-1,-1,-1,-1,-1,-1,-1],"loss_changes":[2.630112E5,5.6799695E4,6.7483734E4,1.5153652E4,8.549441E3,1.2926328E4,2.73425E3,5.4336367E3,2.252546E3,3.418419E3,1.7280664E3,1.3993203E3,2.3820078E3,2.3236094E3,3.7519922E2,2.0274688E3,3.3092012E3,5.6828516E2,4.2442285E2,1.0758042E3,9.0077246E2,8.152129E2,5.605537E2,7.3621875E2,4.0786328E2,4.2871484E2,2.435E2,1.6566641E3,4.1495117E2,2.5741113E2,2.9314258E2,1.0738652E3,1.0283887E3,1.4039796E3,2.064084E3,1.5323145E2,6.977759E1,1.1535254E2,1.3131555E2,4.4180188E2,1.3749146E2,2.9193018E2,3.244773E2,2.2741211E2,2.2042285E2,5.2676074E2,1.173999E2,2.587461E2,3.8923047E2,1.1032617E2,2.4708887E2,2.616289E2,2.7966016E2,7.273242E1,1.6449805E2,1.6510547E3,4.771674E3,4.095996E1,2.717041E1,2.8701123E2,2.7848438E2,9.899248E2,1.0271582E2,0E0,0E0,0E0,0E0,0E0,0E0,0E0,0E0,0E0,0E0,0E0,0E0,0E0,0E0,0E0,0E0,0E0,0E0,0E0,0E0,0E0,0E0,0E0,0E0,0E0,0E0,0E0,0E0,0E0,0E0,0E0,0E0,0E0,0E0,0E0,0E0,0E0,0E0,0E0,0E0,0E0,0E0,0E0,0E0,0E0,0E0,0E0,0E0,0E0,0E0,0E0,0E0,0E0,0E0,0E0,0E0,0E0,0E0,0E0,0E0,0E0,0E0,0E0,0E0],"parents":[2147483647,0,0,1,1,2,2,3,3,4,4,5,5,6,6,7,7,8,8,9,9,10,10,11,11,12,12,13,13,14,14,15,15,16,16,17,17,18,18,19,19,20,20,21,21,22,22,23,23,24,24,25,25,26,26,27,27,28,28,29,29,30,30,31,31,32,32,33,33,34,34,35,35,36,36,37,37,38,38,39,39,40,40,41,41,42,42,43,43,44,44,45,45,46,46,47,47,48,48,49,49,50,50,51,51,52,52,53,53,54,54,55,55,56,56,57,57,58,58,59,59,60,60,61,61,62,62],"right_children":[2,4,6,8,10,12,14,16,18,20,22,24,26,28,30,32,34,36,38,40,42,44,46,48,50,52,54,56,58,60,62,64,66,68,70,72,74,76,78,80,82,84,86,88,90,92,94,96,98,100,102,104,106,108,110,112,114,116,118,120,122,124,126,-1,-1,-1,-1,-1,-1,-1,-1,-1,-1,-1,-1,-1,-1,-1,-1,-1,-1,-1,-1,-1,-1,-1,-1,-1,-1,-1,-1,-1,-1,-1,-1,-1,-1,-1,-1,-1,-1,-1,-1,-1,-1,-1,-1,-1,-1,-1,-1,-1,-1,-1,-1,-1,-1,-1,-1,-1,-1,-1,-1,-1,-1,-1,-1],"split_conditions":[1.8708367E0,2.53005E-1,6.604582E0,4.5749336E-2,8.329568E-1,3.490942E0,1.6744196E1,-3.4809384E-1,3.132464E0,1.9273575E-1,4.1321537E-1,2.7315176E0,4.959162E0,3.4684536E1,-2.5148425E-1,4.660324E-1,1.6058917E-1,1.9565727E0,6.5866446E0,6.591436E-1,2.9854777E0,1.2632972E0,7.3215766E0,4.1321537E-1,-1.0123707E-1,4.1321537E-1,-1.0123707E-1,1.2792652E0,5.3700188E1,-1.1791166E0,-7.3346984E-1,8.511252E-1,1.7416884E0,-7.2005826E-1,1.8185527E0,1.1481475E0,-5.956639E-2,-5.956639E-2,1.0996237E1,5.174885E-1,1.2991325E0,8.7247324E-1,1.9154783E-2,1.7684577E0,2.707108E0,1.3844644E0,1.283968E1,3.9444199E0,6.445784E0,5.1390657E0,3.4086835E0,7.229696E0,3.5685308E0,9.149662E0,8.204105E0,-6.599981E-1,-9.9263984E-1,1.6545548E0,1.1927629E0,5.954846E-1,1.6355726E0,1.0488418E0,1.1743094E0,-2.6901191E-2,-4.6241446E-3,-3.770994E-2,-7.1005926E-2,-1.4203335E-2,-9.381966E-4,-1.8918073E-2,-5.0714415E-2,1.6713338E-2,2.8536398E-2,4.4459913E-2,6.514054E-2,7.659321E-2,1.12895206E-1,1.6552103E-1,3.6087543E-1,9.104543E-3,2.5197292E-2,3.7569243E-2,5.9144057E-2,4.9861252E-2,7.922327E-2,9.489601E-2,1.6919485E-1,5.062697E-2,7.485565E-2,7.842774E-2,1.0716438E-1,9.2067085E-2,1.3765824E-1,2.1133994E-1,4.2515045E-1,1.1557031E-1,1.5112966E-1,1.6115326E-1,3.3854374E-1,1.5595998E-1,1.9061933E-1,1.9777691E-1,3.054012E-1,2.1269532E-1,2.6731086E-1,2.572893E-1,3.7834877E-1,2.8984E-1,3.28128E-1,3.415529E-1,6.149221E-1,6.881618E-1,4.8194113E-1,5.078634E-1,1.1364421E0,8.0780286E-1,4.0802714E-1,1.327556E0,9.885402E-1,1.1606025E0,5.871123E-1,1.2436846E0,7.686867E-1,6.749624E-1,1.2351178E0,5.4278857E-1,7.085003E-1],"split_indices":[178,148,178,163,178,178,165,148,163,163,163,178,178,162,147,181,181,163,163,165,163,178,163,163,163,163,163,146,162,151,153,152,181,158,181,163,148,148,163,148,165,165,165,165,165,165,152,165,152,165,152,165,152,165,152,147,150,153,146,146,146,151,147,0,0,0,0,0,0,0,0,0,0,0,0,0,0,0,0,0,0,0,0,0,0,0,0,0,0,0,0,0,0,0,0,0,0,0,0,0,0,0,0,0,0,0,0,0,0,0,0,0,0,0,0,0,0,0,0,0,0,0,0,0,0,0,0],"split_type":[0,0,0,0,0,0,0,0,0,0,0,0,0,0,0,0,0,0,0,0,0,0,0,0,0,0,0,0,0,0,0,0,0,0,0,0,0,0,0,0,0,0,0,0,0,0,0,0,0,0,0,0,0,0,0,0,0,0,0,0,0,0,0,0,0,0,0,0,0,0,0,0,0,0,0,0,0,0,0,0,0,0,0,0,0,0,0,0,0,0,0,0,0,0,0,0,0,0,0,0,0,0,0,0,0,0,0,0,0,0,0,0,0,0,0,0,0,0,0,0,0,0,0,0,0,0,0],"sum_hessian":[1.358736E6,1.308226E6,5.051E4,1.13707E6,1.71156E5,4.5432E4,5.078E3,1.078267E6,5.8803E4,1.15604E5,5.5552E4,3.0117E4,1.5315E4,4.555E3,5.23E2,3.15337E5,7.6293E5,5.364E4,5.163E3,9.2239E4,2.3365E4,4.3588E4,1.1964E4,2.0223E4,9.894E3,1.0276E4,5.039E3,4.404E3,1.51E2,1.26E2,3.97E2,1.91416E5,1.23921E5,3.20648E5,4.42282E5,4.4443E4,9.197E3,4.621E3,5.42E2,7.2292E4,1.9947E4,2.029E4,3.075E3,2.3811E4,1.9777E4,1.1564E4,4E2,1.5302E4,4.921E3,6.237E3,3.657E3,7.601E3,2.675E3,3.134E3,1.905E3,3.804E3,6E2,9.6E1,5.5E1,5.3E1,7.3E1,1.61E2,2.36E2,1.66544E5,2.4872E4,1.1382E5,1.0101E4,1.49381E5,1.71267E5,4.20825E5,2.1457E4,2.474E4,1.9703E4,7.063E3,2.134E3,3.435E3,1.186E3,5.05E2,3.7E1,4.4699E4,2.7593E4,1.6334E4,3.613E3,1.5987E4,4.303E3,2.279E3,7.96E2,1.893E4,4.881E3,1.6582E4,3.195E3,7.796E3,3.768E3,3.72E2,2.8E1,1.285E4,2.452E3,4.794E3,1.27E2,5.08E3,1.157E3,3.426E3,2.31E2,6.566E3,1.035E3,2.463E3,2.12E2,2.403E3,7.31E2,1.882E3,2.3E1,4.46E2,3.358E3,4.31E2,1.69E2,9E1,6E0,2.5E1,3E1,1.3E1,4E1,4.6E1,2.7E1,1.14E2,4.7E1,8E1,1.56E2],"tree_param":{"num_deleted":"0","num_feature":"201","num_nodes":"127","size_leaf_vector":"1"}},{"base_weights":[5.423836E-5,-8.811341E-2,1.7663537E0,-1.6229574E-1,3.0016702E-1,1.4836136E0,5.092859E0,-1.8267028E-1,2.8607798E-1,1.756488E-1,5.4033464E-1,1.1233844E0,2.1867676E0,4.8567977E0,7.1500945E0,-2.3375122E-1,-9.517126E-2,2.2983931E-1,8.42245E-1,1.1699249E-1,5.779738E-1,4.3416935E-1,7.7106476E-1,9.527948E-1,1.3400534E0,1.9583299E0,2.787521E0,4.3493133E0,5.658794E0,6.9014044E0,9.081204E0,-2.1928434E-1,-5.271219E-1,-5.6967523E-2,-2.771591E-1,1.8208197E-1,4.2034727E-1,7.6284856E-1,1.6284364E0,6.441127E-2,2.5358903E-1,4.752149E-1,9.5225406E-1,3.8864052E-1,6.852973E-1,7.2133124E-1,1.5012281E0,8.9498013E-1,1.4300762E0,1.2075833E0,1.5704299E0,1.9280174E0,3.5326092E0,2.7636561E0,4.9262023E0,4.7984085E0,3.7756457E0,6.2433147E0,4.2739234E0,7.9512277E0,6.3382983E0,5.480331E0,1.064003E1,-2.370685E-2,9.43123E-4,-4.6121173E-2,-7.9956494E-2,-3.401319E-3,-3.193063E-2,-4.322672E-3,-3.68132E-2,1.5514686E-2,3.089034E-2,3.9280195E-2,5.0641295E-2,6.584386E-2,9.53435E-2,1.5121214E-1,3.8576436E-1,1.3491443E-2,-8.880023E-4,2.0227784E-2,3.6678366E-2,3.928292E-2,6.3707046E-2,8.423179E-2,1.557272E-1,4.7918554E-2,2.9983377E-2,6.414574E-2,9.3621105E-2,7.021082E-2,2.0139411E-1,8.785959E-2,1.713327E-1,8.695721E-2,1.7148353E-1,1.1260336E-1,1.7704542E-1,1.1617919E-1,1.5651616E-1,1.5346597E-1,3.200038E-1,1.7931992E-1,2.2300772E-1,2.8207362E-1,4.4277722E-1,2.636602E-1,2.985028E-1,3.8932785E-1,5.70522E-1,6.021442E-1,4.4395795E-1,3.4574866E-1,4.469131E-1,7.1707886E-1,5.532419E-1,3.5939482E-1,5.473166E-1,5.4077166E-1,9.86128E-1,7.579506E-1,5.973183E-1,2.980561E-1,5.9415656E-1,1.1526726E0,7.7499634E-1],"categories":[],"categories_nodes":[],"categories_segments":[],"categories_sizes":[],"default_left":[0,0,0,0,0,0,0,0,0,0,0,0,0,0,0,0,0,0,0,0,0,0,0,0,0,0,0,0,0,0,0,0,0,0,0,0,0,0,0,0,0,0,0,0,0,0,0,0,0,0,0,0,0,0,0,0,0,0,0,0,0,0,0,0,0,0,0,0,0,0,0,0,0,0,0,0,0,0,0,0,0,0,0,0,0,0,0,0,0,0,0,0,0,0,0,0,0,0,0,0,0,0,0,0,0,0,0,0,0,0,0,0,0,0,0,0,0,0,0,0,0,0,0,0,0,0,0],"id":12,"left_children":[1,3,5,7,9,11,13,15,17,19,21,23,25,27,29,31,33,35,37,39,41,43,45,47,49,51,53,55,57,59,61,63,65,67,69,71,73,75,77,79,81,83,85,87,89,91,93,95,97,99,101,103,105,107,109,111,113,115,117,119,121,123,125,-1,-1,-1,-1,-1,-1,-1,-1,-1,-1,-1,-1,-1,-1,-1,-1,-1,-1,-1,-1,-1,-1,-1,-1,-1,-1,-1,-1,-1,-1,-1,-1,-1,-1,-1,-1,-1,-1,-1,-1,-1,-1,-1,-1,-1,-1,-1,-1,-1,-1,-1,-1,-1,-1,-1,-1,-1,-1,-1,-1,-1,-1,-1,-1],"loss_changes":[2.1171808E5,3.7297145E4,6.078433E4,9.931801E3,6.2113926E3,1.5087109E4,2.4228438E3,4.6478867E3,1.4777451E3,3.227956E3,1.7367402E3,1.4545938E3,2.763461E3,1.8242109E3,1.8497656E2,2.7865273E3,2.6650203E3,3.9032886E2,2.693623E2,8.574315E2,6.688115E2,5.5498926E2,8.101953E2,6.0679297E2,5.2734375E2,6.905078E2,2.6923828E2,6.993008E2,1.3953398E3,2.2247266E2,2.544126E2,2.54525E3,5.535791E2,1.9077479E3,1.4152905E3,1.1713086E2,2.0101562E1,7.767334E1,9.656799E1,4.4545813E2,1.9259521E2,1.8177051E2,2.4774048E2,3.3043262E2,8.12251E1,5.1823145E2,1.8628857E2,4.0791113E2,2.4402148E2,1.7836621E2,3.636582E2,5.7997656E2,1.6202734E2,1.4620703E2,2.5108032E1,6.5684375E2,2.5491992E2,7.726836E2,4.0753613E2,7.127471E2,9.25E1,3.3051758E0,6.119629E0,0E0,0E0,0E0,0E0,0E0,0E0,0E0,0E0,0E0,0E0,0E0,0E0,0E0,0E0,0E0,0E0,0E0,0E0,0E0,0E0,0E0,0E0,0E0,0E0,0E0,0E0,0E0,0E0,0E0,0E0,0E0,0E0,0E0,0E0,0E0,0E0,0E0,0E0,0E0,0E0,0E0,0E0,0E0,0E0,0E0,0E0,0E0,0E0,0E0,0E0,0E0,0E0,0E0,0E0,0E0,0E0,0E0,0E0,0E0,0E0,0E0,0E0,0E0,0E0],"parents":[2147483647,0,0,1,1,2,2,3,3,4,4,5,5,6,6,7,7,8,8,9,9,10,10,11,11,12,12,13,13,14,14,15,15,16,16,17,17,18,18,19,19,20,20,21,21,22,22,23,23,24,24,25,25,26,26,27,27,28,28,29,29,30,30,31,31,32,32,33,33,34,34,35,35,36,36,37,37,38,38,39,39,40,40,41,41,42,42,43,43,44,44,45,45,46,46,47,47,48,48,49,49,50,50,51,51,52,52,53,53,54,54,55,55,56,56,57,57,58,58,59,59,60,60,61,61,62,62],"right_children":[2,4,6,8,10,12,14,16,18,20,22,24,26,28,30,32,34,36,38,40,42,44,46,48,50,52,54,56,58,60,62,64,66,68,70,72,74,76,78,80,82,84,86,88,90,92,94,96,98,100,102,104,106,108,110,112,114,116,118,120,122,124,126,-1,-1,-1,-1,-1,-1,-1,-1,-1,-1,-1,-1,-1,-1,-1,-1,-1,-1,-1,-1,-1,-1,-1,-1,-1,-1,-1,-1,-1,-1,-1,-1,-1,-1,-1,-1,-1,-1,-1,-1,-1,-1,-1,-1,-1,-1,-1,-1,-1,-1,-1,-1,-1,-1,-1,-1,-1,-1,-1,-1,-1,-1,-1,-1],"split_conditions":[1.5754225E0,1.0874129E-1,6.604582E0,3.3972216E-1,6.857962E-1,3.0606015E0,1.6744196E1,-6.9247045E-2,3.2059572E0,5.6020176E-1,-1.0123707E-1,2.2005653E0,4.749224E0,7.964957E-1,1.2004387E0,1.5935944E0,9.4234383E-1,1.9565727E0,6.9541106E0,-1.5150891E-1,2.397532E0,1.7257917E0,3.6328728E0,1.3462694E0,-1.0123707E-1,4.286188E0,5.919476E0,-6.959764E-1,9.149662E0,-1.0624775E0,-1.1696279E0,1.17082E0,2.0468128E0,1.5935944E0,-2.8079525E-1,-1.1478482E-2,-1.3169825E-1,4.455342E0,1.2392608E1,5.125674E-1,7.018096E-1,2.324844E-1,4.896301E0,4.8043662E-1,2.4511125E0,6.6056314E0,2.1770523E0,2.769294E0,1.4421202E0,4.541743E0,6.246134E0,4.0731673E0,4.455342E0,-1.0123707E-1,4.896301E0,-6.279578E-1,2.1173562E-1,-1.2321901E-1,1.3330923E1,5.005674E-1,8.843242E-3,-1.7882943E0,1.6252747E0,-2.370685E-2,9.43123E-4,-4.6121173E-2,-7.9956494E-2,-3.401319E-3,-3.193063E-2,-4.322672E-3,-3.68132E-2,1.5514686E-2,3.089034E-2,3.9280195E-2,5.0641295E-2,6.584386E-2,9.53435E-2,1.5121214E-1,3.8576436E-1,1.3491443E-2,-8.880023E-4,2.0227784E-2,3.6678366E-2,3.928292E-2,6.3707046E-2,8.423179E-2,1.557272E-1,4.7918554E-2,2.9983377E-2,6.414574E-2,9.3621105E-2,7.021082E-2,2.0139411E-1,8.785959E-2,1.713327E-1,8.695721E-2,1.7148353E-1,1.1260336E-1,1.7704542E-1,1.1617919E-1,1.5651616E-1,1.5346597E-1,3.200038E-1,1.7931992E-1,2.2300772E-1,2.8207362E-1,4.4277722E-1,2.636602E-1,2.985028E-1,3.8932785E-1,5.70522E-1,6.021442E-1,4.4395795E-1,3.4574866E-1,4.469131E-1,7.1707886E-1,5.532419E-1,3.5939482E-1,5.473166E-1,5.4077166E-1,9.86128E-1,7.579506E-1,5.973183E-1,2.980561E-1,5.9415656E-1,1.1526726E0,7.7499634E-1],"split_indices":[148,148,178,163,148,178,165,149,163,163,163,148,148,196,153,181,183,163,163,165,163,165,149,149,163,149,149,194,165,146,151,152,181,181,184,148,148,163,163,181,165,165,163,181,165,152,163,152,163,165,149,178,163,163,163,147,152,144,165,150,147,151,146,0,0,0,0,0,0,0,0,0,0,0,0,0,0,0,0,0,0,0,0,0,0,0,0,0,0,0,0,0,0,0,0,0,0,0,0,0,0,0,0,0,0,0,0,0,0,0,0,0,0,0,0,0,0,0,0,0,0,0,0,0,0,0,0],"split_type":[0,0,0,0,0,0,0,0,0,0,0,0,0,0,0,0,0,0,0,0,0,0,0,0,0,0,0,0,0,0,0,0,0,0,0,0,0,0,0,0,0,0,0,0,0,0,0,0,0,0,0,0,0,0,0,0,0,0,0,0,0,0,0,0,0,0,0,0,0,0,0,0,0,0,0,0,0,0,0,0,0,0,0,0,0,0,0,0,0,0,0,0,0,0,0,0,0,0,0,0,0,0,0,0,0,0,0,0,0,0,0,0,0,0,0,0,0,0,0,0,0,0,0,0,0,0,0],"sum_hessian":[1.359513E6,1.294878E6,6.4635E4,1.087171E6,2.07707E5,5.9573E4,5.062E3,1.039917E6,4.7254E4,1.36789E5,7.0918E4,3.9394E4,2.0179E4,4.544E3,5.18E2,6.56599E5,3.83318E5,4.2916E4,4.338E3,1.19385E5,1.7404E4,4.8572E4,2.2346E4,2.2044E4,1.735E4,1.4623E4,5.556E3,2.787E3,1.757E3,4.63E2,5.5E1,6.25744E5,3.0855E4,3.16813E5,6.6505E4,3.4316E4,8.6E3,3.942E3,3.96E2,8.6204E4,3.3181E4,1.3657E4,3.747E3,4.112E4,7.452E3,2.0923E4,1.423E3,1.9665E4,2.379E3,1.102E4,6.33E3,1.4349E4,2.74E2,5.497E3,5.9E1,1.559E3,1.228E3,1.233E3,5.24E2,1.57E2,3.06E2,1.8E1,3.7E1,5.80599E5,4.5145E4,2.4847E4,6.008E3,2.91324E5,2.5489E4,1.8622E4,4.7883E4,2.8307E4,6.009E3,6.52E3,2.08E3,2.55E3,1.392E3,3.78E2,1.8E1,4.3938E4,4.2266E4,2.2834E4,1.0347E4,9.053E3,4.604E3,3.173E3,5.74E2,2.0358E4,2.0762E4,6.347E3,1.105E3,2.0618E4,3.05E2,3.63E2,1.06E3,1.9076E4,5.89E2,1.259E3,1.12E3,9.773E3,1.247E3,6.196E3,1.34E2,9.926E3,4.423E3,1.55E2,1.19E2,3.501E3,1.996E3,2.8E1,3.1E1,3.5E2,1.209E3,8.46E2,3.82E2,5.31E2,7.02E2,3.37E2,1.87E2,6.9E1,8.8E1,6.5E1,2.41E2,4E0,1.4E1,2.6E1,1.1E1],"tree_param":{"num_deleted":"0","num_feature":"201","num_nodes":"127","size_leaf_vector":"1"}},{"base_weights":[-1.1617847E-4,-8.055539E-2,1.5773156E0,-1.48447E-1,2.5635228E-1,1.3257307E0,4.6239595E0,-1.6621487E-1,2.5594357E-1,1.4343281E-1,4.6440077E-1,1.048736E0,2.0777712E0,4.4118648E0,6.4469724E0,-1.868992E-1,3.0619074E-2,1.9125758E-1,6.4287794E-1,8.948269E-2,4.9930155E-1,3.6980608E-1,6.740451E-1,8.67409E-1,1.2870958E0,1.8602425E0,2.5729287E0,3.6783736E0,5.179297E0,6.2187357E0,9.267946E0,-1.3890801E-1,-2.716148E-1,2.1906555E-2,1.1576854E0,1.16277225E-1,2.6787895E-1,5.5057913E-1,1.1330367E0,3.3400137E-2,2.4560757E-1,4.0702158E-1,8.299621E-1,3.2537645E-1,6.7364883E-1,6.2945056E-1,1.328678E0,7.7916545E-1,1.1372967E0,1.248885E0,2.0268247E0,1.7089101E0,2.1180234E0,2.538701E0,3.9672427E0,3.3796673E0,7.894358E0,2.2056754E0,5.3832545E0,5.1851096E0,6.601227E0,6.6037244E-1,1.0779747E1,-2.7576178E-2,-1.1176241E-2,-2.488984E-2,-5.27986E-2,6.297074E-3,-1.6177487E-2,9.299263E-2,2.000649E-1,6.359912E-3,1.920492E-2,2.4366891E-2,4.3596383E-2,4.7086947E-2,6.83904E-2,1.0493274E-1,2.315299E-1,2.2512313E-2,-1.4073661E-3,1.8032271E-2,3.924423E-2,2.5834655E-2,5.2120905E-2,6.308337E-2,1.1516835E-1,2.3624046E-2,5.2929897E-2,6.0904272E-2,9.141233E-2,4.9865555E-2,8.0211885E-2,1.17107145E-1,2.3681939E-1,7.28421E-2,1.02244675E-1,1.09996796E-1,2.4217997E-1,1.3874441E-1,1.0911812E-1,1.482963E-1,2.4643038E-1,1.6481952E-1,2.1686135E-1,2.0773578E-1,3.802515E-1,2.501684E-1,3.297337E-1,3.6246893E-1,5.556091E-1,2.9926598E-1,4.398183E-1,6.6221195E-1,1.0015905E0,1.7554593E-1,4.7328615E-1,4.9424464E-1,6.762169E-1,6.11998E-1,4.4529507E-1,8.467353E-1,6.367424E-1,5.751136E-1,1.1572154E0],"categories":[],"categories_nodes":[],"categories_segments":[],"categories_sizes":[],"default_left":[0,0,0,0,0,0,0,0,0,0,0,0,0,0,0,0,0,0,0,0,0,0,0,0,0,0,0,0,0,0,0,0,0,0,0,0,0,0,0,0,0,0,0,0,0,0,0,0,0,0,0,0,0,0,0,0,0,0,0,0,0,0,0,0,0,0,0,0,0,0,0,0,0,0,0,0,0,0,0,0,0,0,0,0,0,0,0,0,0,0,0,0,0,0,0,0,0,0,0,0,0,0,0,0,0,0,0,0,0,0,0,0,0,0,0,0,0,0,0,0,0,0,0,0,0],"id":13,"left_children":[1,3,5,7,9,11,13,15,17,19,21,23,25,27,29,31,33,35,37,39,41,43,45,47,49,51,53,55,57,59,61,63,65,67,69,71,73,75,77,79,81,83,85,87,89,91,93,95,97,99,101,103,105,107,109,111,113,115,117,119,121,-1,123,-1,-1,-1,-1,-1,-1,-1,-1,-1,-1,-1,-1,-1,-1,-1,-1,-1,-1,-1,-1,-1,-1,-1,-1,-1,-1,-1,-1,-1,-1,-1,-1,-1,-1,-1,-1,-1,-1,-1,-1,-1,-1,-1,-1,-1,-1,-1,-1,-1,-1,-1,-1,-1,-1,-1,-1,-1,-1,-1,-1,-1,-1],"loss_changes":[1.7246577E5,2.9580965E4,5.054172E4,7.733826E3,5.0954697E3,1.2687617E4,1.9153438E3,4.19784E3,1.1336675E3,2.6992026E3,1.5129082E3,1.923E3,1.7609062E3,2.5181953E3,2.7690625E2,3.79317E3,9.6262787E2,2.2292639E2,2.927317E2,1.0689519E3,5.642793E2,7.095454E2,6.9154395E2,6.0122656E2,5.408047E2,4.405664E2,2.2799219E2,2.8800098E3,1.3222617E3,1.5673438E2,7.610327E1,2.2125947E3,1.9647871E3,7.3386993E2,1.4222498E2,7.827588E1,7.7940796E1,5.7608765E1,9.887244E1,8.17586E2,3.091671E2,2.4547607E2,2.577212E2,8.3371484E2,1.0349194E2,5.0113184E2,2.4459082E2,2.3440332E2,2.9565674E2,3.979414E2,